{
    "type": "NeuralNetworkGPU",
    "sizes": [
        100,
        100,
        100,
        100
    ],
    "layers": [
        {
            "weights": [],
            "biases": []
        },
        {
            "weights": [
                [
                    0.08685541152954102,
                    -0.2400716245174408,
                    -0.2756762206554413,
                    0.17397616803646088,
                    0.30603867769241333,
                    0.3834369480609894,
                    -0.01895028166472912,
                    0.0989895612001419,
                    0.15863320231437683,
                    0.16410626471042633,
                    -0.020226774737238884,
                    -0.3503388464450836,
                    -0.11065001040697098,
                    -0.36368605494499207,
                    -0.10157542675733566,
                    -0.03810492902994156,
                    -0.07842493802309036,
                    -0.035747990012168884,
                    0.08270005881786346,
                    0.31376174092292786,
                    -0.03159446641802788,
                    -0.3555833101272583,
                    -0.37988510727882385,
                    -0.31071174144744873,
                    -0.07861308753490448,
                    -0.24053895473480225,
                    0.22114282846450806,
                    0.25343751907348633,
                    0.21377746760845184,
                    0.24859243631362915,
                    0.01593196392059326,
                    -0.1763206273317337,
                    -0.5000892877578735,
                    -0.42342978715896606,
                    -0.3685016632080078,
                    -0.18732503056526184,
                    -0.08524320274591446,
                    0.18710997700691223,
                    0.07365208119153976,
                    -0.15493501722812653,
                    0.4176250696182251,
                    0.11518518626689911,
                    0.11649328470230103,
                    0.1065090000629425,
                    0.128240168094635,
                    0.1456664502620697,
                    -0.08165136724710464,
                    -0.12278827279806137,
                    -0.1939985603094101,
                    -0.06150210276246071,
                    0.4400935769081116,
                    0.15540112555027008,
                    -0.015176723711192608,
                    -0.10425882786512375,
                    0.04349454864859581,
                    -0.04803551733493805,
                    0.18844722211360931,
                    -0.03350527212023735,
                    -0.27044352889060974,
                    -0.35325393080711365,
                    0.31502339243888855,
                    0.35481926798820496,
                    0.2824306786060333,
                    -0.024310316890478134,
                    0.0660976842045784,
                    -0.19783495366573334,
                    -0.14859049022197723,
                    0.22818951308727264,
                    0.018535684794187546,
                    -0.2427159547805786,
                    0.026268521323800087,
                    0.2647901177406311,
                    0.12072392553091049,
                    0.29214712977409363,
                    -0.1977759450674057,
                    -0.3325553834438324,
                    -0.143677219748497,
                    0.2050689458847046,
                    0.07937837392091751,
                    -0.06342113763093948,
                    0.11910457164049149,
                    0.18766139447689056,
                    0.041550640016794205,
                    -0.08981121331453323,
                    -0.21867065131664276,
                    -0.06468534469604492,
                    -0.22429417073726654,
                    -0.17953844368457794,
                    0.00904619600623846,
                    0.16872626543045044,
                    -0.24881383776664734,
                    0.04455435276031494,
                    -0.4119129180908203,
                    -0.4645352363586426,
                    -0.24461103975772858,
                    -0.05566307157278061,
                    0.07837798446416855,
                    0.21265745162963867,
                    -0.14067792892456055,
                    0.10523536801338196
                ],
                [
                    0.006766539998352528,
                    0.08620635420084,
                    -0.11266044527292252,
                    -0.029155494645237923,
                    -0.20586150884628296,
                    0.13467499613761902,
                    -0.16287633776664734,
                    0.2857402563095093,
                    0.3258720934391022,
                    0.26342296600341797,
                    0.33231252431869507,
                    0.29685354232788086,
                    -0.08260256797075272,
                    0.04342392832040787,
                    -0.26437467336654663,
                    -0.3092634677886963,
                    -0.45241981744766235,
                    -0.2856004536151886,
                    -0.1896015703678131,
                    -0.010206428356468678,
                    0.22248375415802002,
                    0.2727564871311188,
                    0.16119983792304993,
                    -0.2886309325695038,
                    -0.12831686437129974,
                    -0.46537020802497864,
                    -0.29911577701568604,
                    -0.20657828450202942,
                    -0.09760136157274246,
                    -0.250732958316803,
                    0.2837620973587036,
                    0.38642600178718567,
                    0.22526240348815918,
                    -0.22748908400535583,
                    -0.31867673993110657,
                    0.05517085641622543,
                    -0.2083365023136139,
                    0.053844526410102844,
                    -0.05482252314686775,
                    -0.025471091270446777,
                    0.17351002991199493,
                    0.07585199922323227,
                    -0.08703512698411942,
                    -0.059166070073843,
                    0.01265545841306448,
                    0.28708314895629883,
                    0.33074894547462463,
                    0.0048100920394063,
                    -0.08715899288654327,
                    -0.12842302024364471,
                    0.18109677731990814,
                    0.17817124724388123,
                    0.13899464905261993,
                    0.10550197958946228,
                    0.28017133474349976,
                    0.4536004364490509,
                    0.15062537789344788,
                    0.3840482831001282,
                    0.23494462668895721,
                    -0.046679072082042694,
                    -0.22975611686706543,
                    -0.16232897341251373,
                    0.11318441480398178,
                    -0.15119890868663788,
                    -0.06722688674926758,
                    -0.000684197701048106,
                    0.10727548599243164,
                    -0.11287633329629898,
                    -0.3994133174419403,
                    -0.251475065946579,
                    -0.18780604004859924,
                    -0.3181077539920807,
                    -0.08061715960502625,
                    0.029709288850426674,
                    0.020496580749750137,
                    0.2553248405456543,
                    -0.08526194095611572,
                    -0.20899544656276703,
                    -0.2786642909049988,
                    -0.3942672610282898,
                    -0.2535197138786316,
                    -0.057142917066812515,
                    0.05833384394645691,
                    0.20059601962566376,
                    0.029976073652505875,
                    0.3179778456687927,
                    -0.15449662506580353,
                    -0.10977823287248611,
                    -0.3166157007217407,
                    -0.31159985065460205,
                    -0.0825440064072609,
                    0.3783341646194458,
                    0.518994927406311,
                    0.5185912847518921,
                    0.7731728553771973,
                    0.6722963452339172,
                    -0.081943579018116,
                    0.06766412407159805,
                    -0.20922891795635223,
                    -0.2476627677679062
                ],
                [
                    -0.31106576323509216,
                    -0.20545805990695953,
                    -0.309040904045105,
                    -0.17811807990074158,
                    -0.08613190799951553,
                    -0.19075681269168854,
                    -0.3394027650356293,
                    -0.3429534435272217,
                    -0.4354918301105499,
                    -0.4692121744155884,
                    -0.1529153734445572,
                    -0.2907368838787079,
                    0.005015561822801828,
                    0.02560311183333397,
                    0.14929184317588806,
                    0.01817777194082737,
                    0.11241167783737183,
                    -0.3125307261943817,
                    -0.5419314503669739,
                    -0.564529538154602,
                    -0.3560447096824646,
                    -0.2779557406902313,
                    -0.23606786131858826,
                    0.006636310834437609,
                    0.33942726254463196,
                    0.30982059240341187,
                    0.1448514461517334,
                    -0.10330884158611298,
                    -0.10249143093824387,
                    -0.17918595671653748,
                    -0.4923350214958191,
                    -0.43508854508399963,
                    -0.3368774354457855,
                    0.28304392099380493,
                    0.3882150650024414,
                    0.4389335513114929,
                    0.41891711950302124,
                    0.0890766829252243,
                    -0.13074563443660736,
                    0.1222963035106659,
                    -0.369888037443161,
                    -0.31131014227867126,
                    -0.28482577204704285,
                    0.19708964228630066,
                    0.2673669457435608,
                    0.40491876006126404,
                    0.30767273902893066,
                    -0.03752763196825981,
                    -0.21178098022937775,
                    0.25254586338996887,
                    0.07359791547060013,
                    -0.2117743343114853,
                    -0.11324230581521988,
                    -0.0677189752459526,
                    0.2197975069284439,
                    0.47192859649658203,
                    0.16671590507030487,
                    0.11571288853883743,
                    -0.08258816599845886,
                    0.25867390632629395,
                    -0.004859792068600655,
                    -0.10663515329360962,
                    -0.09882719069719315,
                    0.06587807089090347,
                    0.1500522941350937,
                    0.3874177932739258,
                    0.06084210425615311,
                    0.2357531189918518,
                    0.26912668347358704,
                    0.3460061550140381,
                    -0.08381238579750061,
                    -0.024893097579479218,
                    0.07571655511856079,
                    0.2091415673494339,
                    -0.12093785405158997,
                    -0.019985321909189224,
                    0.21861465275287628,
                    0.07994715869426727,
                    -0.13325315713882446,
                    0.31463250517845154,
                    -0.03517967835068703,
                    -0.11797460168600082,
                    -0.0537247397005558,
                    -0.006051892880350351,
                    0.12010665237903595,
                    -0.17548510432243347,
                    -0.2663514018058777,
                    -0.25393936038017273,
                    -0.24151772260665894,
                    -0.2411617934703827,
                    0.043258801102638245,
                    -0.14157621562480927,
                    -0.14218339323997498,
                    -0.32116270065307617,
                    -0.24759170413017273,
                    -0.18512625992298126,
                    -0.3481707274913788,
                    -0.40098151564598083,
                    -0.4359409809112549,
                    -0.12700147926807404
                ],
                [
                    0.2699412703514099,
                    0.08026979863643646,
                    -0.13238993287086487,
                    -0.0967487022280693,
                    -0.07706274837255478,
                    -0.08280855417251587,
                    -0.11370031535625458,
                    -0.03964805230498314,
                    -0.10809678584337234,
                    0.160029336810112,
                    0.18527573347091675,
                    0.06294092535972595,
                    -0.18506339192390442,
                    -0.12702159583568573,
                    -0.24923960864543915,
                    0.04392947629094124,
                    0.06970199942588806,
                    -0.17114068567752838,
                    0.011385672725737095,
                    0.378551185131073,
                    0.21250413358211517,
                    -0.17706306278705597,
                    -0.05620821565389633,
                    -0.345998615026474,
                    -0.35249608755111694,
                    -0.25845062732696533,
                    -0.24054299294948578,
                    0.020222414284944534,
                    -0.02949942648410797,
                    0.2709711194038391,
                    0.3605324327945709,
                    -0.2430218756198883,
                    -0.3526630699634552,
                    -0.2620892822742462,
                    -0.35877862572669983,
                    -0.039460405707359314,
                    -0.20739686489105225,
                    0.11829473823308945,
                    -0.195382222533226,
                    -0.10044583678245544,
                    0.1476515829563141,
                    -0.16757023334503174,
                    -0.183636873960495,
                    -0.13280420005321503,
                    -0.3117547631263733,
                    0.04003549739718437,
                    -0.26706475019454956,
                    0.06005941703915596,
                    -0.15618743002414703,
                    0.017010847106575966,
                    -0.031454116106033325,
                    -0.06021663174033165,
                    -0.08406282961368561,
                    -0.4102577865123749,
                    -0.39105695486068726,
                    -0.29161641001701355,
                    0.06101379543542862,
                    -0.21488282084465027,
                    -0.22181881964206696,
                    -0.20943479239940643,
                    0.1611781269311905,
                    -0.11171486973762512,
                    0.1075097844004631,
                    0.19562718272209167,
                    0.16867396235466003,
                    -0.024803612381219864,
                    0.14822785556316376,
                    0.1948612928390503,
                    0.14591668546199799,
                    0.270433634519577,
                    -0.194896399974823,
                    0.13803160190582275,
                    0.1204829216003418,
                    0.4106033444404602,
                    0.4147399067878723,
                    0.08287416398525238,
                    0.2566116750240326,
                    0.07302866131067276,
                    0.28591638803482056,
                    0.5286914110183716,
                    -0.09126759320497513,
                    0.08393014967441559,
                    0.1999734789133072,
                    0.3131099343299866,
                    0.2661934792995453,
                    0.14413771033287048,
                    0.2243930995464325,
                    -0.05256098881363869,
                    0.30109381675720215,
                    0.3298950493335724,
                    -0.33393436670303345,
                    -0.3627133369445801,
                    0.19460323452949524,
                    0.33876392245292664,
                    0.18309524655342102,
                    -0.05510031431913376,
                    -0.06548196077346802,
                    -0.08043719083070755,
                    -0.04366373270750046,
                    0.35082167387008667
                ],
                [
                    0.4162452816963196,
                    0.10201381891965866,
                    0.25227096676826477,
                    0.12579083442687988,
                    -0.2065868079662323,
                    -0.30579110980033875,
                    -0.19246584177017212,
                    -0.16949355602264404,
                    0.21289782226085663,
                    0.03635884076356888,
                    0.1786634474992752,
                    -0.023421142250299454,
                    -0.12495557963848114,
                    0.020494725555181503,
                    -0.26718154549598694,
                    -0.09148811548948288,
                    -0.16667762398719788,
                    -0.01104513369500637,
                    0.0942908301949501,
                    0.11875706166028976,
                    -0.13382579386234283,
                    -0.24192000925540924,
                    -0.2499399334192276,
                    0.167166605591774,
                    0.08782115578651428,
                    0.06881421059370041,
                    0.10395833104848862,
                    0.18562740087509155,
                    -0.09055157750844955,
                    0.02814708836376667,
                    -0.3080920875072479,
                    -0.09460083395242691,
                    -0.15701547265052795,
                    0.17402110993862152,
                    -0.06662945449352264,
                    0.1598588079214096,
                    0.07778067141771317,
                    0.010226014070212841,
                    -0.033718597143888474,
                    0.09635981172323227,
                    -0.0014393111923709512,
                    -0.1890380084514618,
                    -0.022658422589302063,
                    0.2270825356245041,
                    0.046242959797382355,
                    0.2726515233516693,
                    0.15387727320194244,
                    0.07595206797122955,
                    -0.02757878415286541,
                    0.21652302145957947,
                    -0.2998594641685486,
                    0.02467351034283638,
                    -0.09064029902219772,
                    -0.013512902893126011,
                    0.10961837321519852,
                    -0.03092423640191555,
                    0.09328393638134003,
                    0.24186694622039795,
                    0.07730589061975479,
                    0.3521023690700531,
                    -0.31860998272895813,
                    -0.24575017392635345,
                    -0.24028584361076355,
                    -0.20920342206954956,
                    -0.07190857827663422,
                    0.1415058970451355,
                    0.07752896845340729,
                    -0.08117535710334778,
                    0.052869196981191635,
                    -0.035619866102933884,
                    -0.3561928868293762,
                    -0.09379009902477264,
                    -0.1256931573152542,
                    -0.2581019103527069,
                    -0.2169143706560135,
                    0.21611489355564117,
                    -0.05504303798079491,
                    -0.0581594817340374,
                    -0.00418998533859849,
                    -0.2496223747730255,
                    0.15229305624961853,
                    0.01821432076394558,
                    -0.20263023674488068,
                    0.017323076725006104,
                    0.23437364399433136,
                    0.4077893793582916,
                    0.3078307807445526,
                    0.19553931057453156,
                    -0.18117627501487732,
                    -0.21985112130641937,
                    0.1434870809316635,
                    0.043763864785432816,
                    -0.0684923529624939,
                    0.3565700650215149,
                    0.3952473998069763,
                    0.367563396692276,
                    0.6084735989570618,
                    0.4133254587650299,
                    0.1550874412059784,
                    0.006776175927370787
                ],
                [
                    -0.4782769978046417,
                    -0.4989074766635895,
                    -0.26474061608314514,
                    -0.209255650639534,
                    -0.3475143313407898,
                    -0.019202107563614845,
                    0.06511201709508896,
                    -0.12740015983581543,
                    0.0024354085326194763,
                    -0.14149054884910583,
                    -0.5770653486251831,
                    -0.21834725141525269,
                    -0.12460476160049438,
                    -0.10138007998466492,
                    -0.1047743707895279,
                    -0.13323484361171722,
                    -0.020643863826990128,
                    -0.02926725149154663,
                    -0.07328899204730988,
                    0.04259295389056206,
                    -0.23589132726192474,
                    0.13435131311416626,
                    0.021705254912376404,
                    0.057478003203868866,
                    0.023416219279170036,
                    0.049896933138370514,
                    -0.3161030113697052,
                    0.011432716622948647,
                    0.13216538727283478,
                    0.11071112006902695,
                    -0.4110333323478699,
                    0.10635018348693848,
                    0.2742052674293518,
                    -0.001371855498291552,
                    -0.03761950880289078,
                    -0.19238179922103882,
                    -0.10158737748861313,
                    -0.15152007341384888,
                    0.1008252277970314,
                    0.19661985337734222,
                    -0.34229469299316406,
                    0.04671661555767059,
                    -0.06511645019054413,
                    -0.05401881784200668,
                    -0.08044139295816422,
                    -0.30865487456321716,
                    -0.4890826642513275,
                    -0.0018824413418769836,
                    0.04409714788198471,
                    0.1531907618045807,
                    -0.01554171647876501,
                    0.006751126144081354,
                    -0.20642714202404022,
                    0.06605933606624603,
                    -0.18800725042819977,
                    -0.29802584648132324,
                    -0.20418265461921692,
                    0.051708828657865524,
                    -0.08465747535228729,
                    0.21668437123298645,
                    -0.3414415419101715,
                    0.2510159909725189,
                    0.2325754314661026,
                    0.31420111656188965,
                    0.2229248732328415,
                    0.3818839490413666,
                    0.3413669764995575,
                    0.31170088052749634,
                    0.18790757656097412,
                    0.24038439989089966,
                    -0.3198719918727875,
                    0.023283611983060837,
                    0.131755530834198,
                    0.014040349051356316,
                    0.2221779227256775,
                    0.21698664128780365,
                    0.0931127518415451,
                    0.5064016580581665,
                    0.3845297396183014,
                    0.22058555483818054,
                    -0.05917169898748398,
                    -0.04594198241829872,
                    0.11688999831676483,
                    0.1128183975815773,
                    -0.13117533922195435,
                    -0.08530101925134659,
                    0.19322144985198975,
                    0.1853499561548233,
                    0.38783618807792664,
                    0.3272349536418915,
                    0.016847573220729828,
                    -0.11557577550411224,
                    -0.23146997392177582,
                    -0.12546242773532867,
                    -0.34666651487350464,
                    -0.14010398089885712,
                    -0.24923180043697357,
                    -0.11199241876602173,
                    0.06292212754487991,
                    0.17076797783374786
                ],
                [
                    -0.038773179054260254,
                    0.14291416108608246,
                    -0.06182519346475601,
                    0.14943265914916992,
                    -0.03295966610312462,
                    -0.08355233073234558,
                    0.17560088634490967,
                    0.29341021180152893,
                    -0.08317762613296509,
                    -0.11506060510873795,
                    0.03404275327920914,
                    -0.009255948476493359,
                    -0.30741509795188904,
                    -0.2438134253025055,
                    -0.0743522197008133,
                    -0.03783758729696274,
                    0.16891132295131683,
                    0.33627116680145264,
                    0.05159689113497734,
                    -0.08773194998502731,
                    0.37820330262184143,
                    0.20833167433738708,
                    0.10350850224494934,
                    -0.10057683289051056,
                    -0.0007221079431474209,
                    -0.0383969321846962,
                    0.2281726747751236,
                    0.2377675324678421,
                    -0.07038861513137817,
                    -0.3599444329738617,
                    0.09665205329656601,
                    0.07408980280160904,
                    0.15755696594715118,
                    0.07498380541801453,
                    0.12564454972743988,
                    0.2479550987482071,
                    0.0945013165473938,
                    0.15893641114234924,
                    -0.08104510605335236,
                    -0.18523895740509033,
                    0.3216783404350281,
                    -0.2665638029575348,
                    0.07652546465396881,
                    0.13048899173736572,
                    0.09327266365289688,
                    0.43186822533607483,
                    0.29174041748046875,
                    0.11454597115516663,
                    -0.005597742274403572,
                    -0.1802615374326706,
                    -0.0773528590798378,
                    -0.3184219300746918,
                    -0.05987761914730072,
                    0.05873144790530205,
                    0.3484988510608673,
                    -0.049280695617198944,
                    0.15883176028728485,
                    -0.26673129200935364,
                    -0.27573585510253906,
                    -0.1177743598818779,
                    0.19025109708309174,
                    -0.3623063862323761,
                    0.03731603920459747,
                    -0.3274278938770294,
                    0.024680346250534058,
                    -0.32945188879966736,
                    -0.06111402437090874,
                    -0.04053632169961929,
                    -0.16346435248851776,
                    -0.20882806181907654,
                    -0.03571878746151924,
                    0.07047253847122192,
                    -0.30005064606666565,
                    -0.23162594437599182,
                    -0.4384748041629791,
                    -0.27897247672080994,
                    0.0034279320389032364,
                    0.03619230538606644,
                    0.07280489802360535,
                    -0.37593188881874084,
                    0.296012818813324,
                    -0.04945097491145134,
                    0.05868259444832802,
                    -0.24057340621948242,
                    -0.2948085367679596,
                    -0.3342846930027008,
                    0.16160918772220612,
                    0.15260091423988342,
                    0.155903622508049,
                    -0.10714119672775269,
                    0.0871063768863678,
                    0.04751504585146904,
                    -0.1753969043493271,
                    -0.12195799499750137,
                    -0.12590715289115906,
                    -0.3886754810810089,
                    -0.07975271344184875,
                    0.05602295324206352,
                    0.33627936244010925,
                    0.01090956013649702
                ],
                [
                    0.08462110161781311,
                    -0.2174896001815796,
                    -0.15174023807048798,
                    -0.27248427271842957,
                    -0.044278573244810104,
                    0.1260499656200409,
                    0.24460506439208984,
                    0.046874403953552246,
                    0.014463371597230434,
                    -0.14827489852905273,
                    -0.09256910532712936,
                    -0.10879813134670258,
                    -0.23294790089130402,
                    -0.010923181660473347,
                    0.14595654606819153,
                    0.014135207049548626,
                    0.01755121536552906,
                    -0.11233685910701752,
                    -0.001779540441930294,
                    -0.4042510986328125,
                    0.21663205325603485,
                    -0.23195905983448029,
                    0.09743620455265045,
                    0.035241998732089996,
                    -0.2068837285041809,
                    0.13717179000377655,
                    0.21515657007694244,
                    0.338714063167572,
                    -0.1420217752456665,
                    -0.28856757283210754,
                    0.12805259227752686,
                    -0.21279896795749664,
                    0.058806244283914566,
                    -0.04548480361700058,
                    0.13196925818920135,
                    -0.10059274733066559,
                    0.07099010795354843,
                    0.42893216013908386,
                    0.3622007369995117,
                    0.12116266787052155,
                    -0.050553787499666214,
                    -0.04604922980070114,
                    -0.23776140809059143,
                    0.010216622613370419,
                    -0.12850171327590942,
                    -0.14743416011333466,
                    0.3592083156108856,
                    0.23309840261936188,
                    0.19732056558132172,
                    0.09834224730730057,
                    0.04012914374470711,
                    -0.16188712418079376,
                    0.005727656185626984,
                    -0.17268653213977814,
                    0.08745567500591278,
                    0.1942795217037201,
                    0.24903979897499084,
                    0.22763539850711823,
                    0.3944545090198517,
                    0.16836923360824585,
                    -0.0818854570388794,
                    -0.21610455214977264,
                    -0.2659059464931488,
                    0.09579692035913467,
                    -0.1511969268321991,
                    -0.042021799832582474,
                    -0.10251912474632263,
                    -0.04828152805566788,
                    -0.07353001087903976,
                    0.05073608458042145,
                    -0.35391080379486084,
                    0.04204193502664566,
                    -0.02788013219833374,
                    0.1171879842877388,
                    -0.10320163518190384,
                    -0.11020183563232422,
                    -0.3968890905380249,
                    -0.26608479022979736,
                    -0.1918637454509735,
                    -0.2557033598423004,
                    -0.44093629717826843,
                    -0.08436941355466843,
                    0.03450407460331917,
                    0.06817997992038727,
                    0.009462634101510048,
                    0.017402350902557373,
                    -0.25612208247184753,
                    -0.38309329748153687,
                    -0.3741750121116638,
                    -0.2951442003250122,
                    -0.26770496368408203,
                    -0.10177841782569885,
                    0.47804200649261475,
                    0.4591134786605835,
                    0.47345003485679626,
                    0.26078078150749207,
                    -0.08597572147846222,
                    0.06570263206958771,
                    0.1488240510225296,
                    0.057929474860429764
                ],
                [
                    0.19199371337890625,
                    -0.05348464101552963,
                    -0.11059892177581787,
                    -0.07950658351182938,
                    -0.08200295269489288,
                    -0.43505075573921204,
                    -0.2933298945426941,
                    -0.5156810879707336,
                    -0.3856884241104126,
                    -0.06729041785001755,
                    0.5470640659332275,
                    0.2586043179035187,
                    0.2995385229587555,
                    -0.04510493949055672,
                    0.24893392622470856,
                    -0.003630494698882103,
                    0.15541309118270874,
                    0.15087179839611053,
                    -0.07157475501298904,
                    -0.056366853415966034,
                    0.2670295238494873,
                    0.06514700502157211,
                    -0.08820165693759918,
                    0.011287826113402843,
                    -0.0332673043012619,
                    0.08674845099449158,
                    0.2230546474456787,
                    -0.17352433502674103,
                    0.3751600682735443,
                    0.28582483530044556,
                    0.25919994711875916,
                    -0.014716549776494503,
                    -0.1358988881111145,
                    -0.28912460803985596,
                    -0.34162330627441406,
                    -0.014654665254056454,
                    0.08782518655061722,
                    -0.03207734599709511,
                    -0.0518898069858551,
                    -0.02516842633485794,
                    0.2285943329334259,
                    -0.08224846422672272,
                    -0.3760450482368469,
                    -0.31143590807914734,
                    -0.34612196683883667,
                    -0.32571959495544434,
                    -0.26524224877357483,
                    -0.12001622468233109,
                    -0.3457745611667633,
                    -0.16099561750888824,
                    0.16502727568149567,
                    0.1185121238231659,
                    -0.20148837566375732,
                    -0.2553495466709137,
                    0.018427282571792603,
                    0.06591448932886124,
                    0.14405712485313416,
                    -0.1313917636871338,
                    -0.03522941470146179,
                    -0.3029249608516693,
                    0.5138249397277832,
                    0.22662566602230072,
                    0.15565766394138336,
                    0.1578264832496643,
                    0.2593330442905426,
                    0.07969335466623306,
                    0.36550813913345337,
                    0.12913784384727478,
                    -0.03470933809876442,
                    -0.25548699498176575,
                    0.46833133697509766,
                    0.4435804486274719,
                    0.24741113185882568,
                    0.13048970699310303,
                    0.28156623244285583,
                    0.4726414978504181,
                    0.5725769996643066,
                    0.3533201217651367,
                    0.01135620940476656,
                    -0.4558248221874237,
                    0.456935852766037,
                    0.23951944708824158,
                    -0.032322417944669724,
                    -0.3533632755279541,
                    -0.09501376003026962,
                    0.23061956465244293,
                    0.46581166982650757,
                    0.2537185847759247,
                    -0.09070604294538498,
                    -0.4602861702442169,
                    0.4870142638683319,
                    0.08085715770721436,
                    -0.0785759836435318,
                    -0.21199096739292145,
                    -0.38163384795188904,
                    -0.16308969259262085,
                    -0.032551560550928116,
                    0.14523768424987793,
                    -0.16529476642608643,
                    -0.39109697937965393
                ],
                [
                    0.35064902901649475,
                    0.5337213277816772,
                    0.5008754134178162,
                    0.5325150489807129,
                    0.393941730260849,
                    0.21859364211559296,
                    -0.1435348242521286,
                    -0.21923741698265076,
                    -0.1747366338968277,
                    0.10796696692705154,
                    0.3668355643749237,
                    0.21639811992645264,
                    0.4886653423309326,
                    0.3969743847846985,
                    0.10447467863559723,
                    -0.009442348033189774,
                    0.2801193594932556,
                    0.25969913601875305,
                    -0.011812631972134113,
                    0.1741255670785904,
                    -0.08361493051052094,
                    -0.04584212228655815,
                    0.3806062340736389,
                    0.12652017176151276,
                    0.3562326431274414,
                    0.173167884349823,
                    -0.09304658323526382,
                    -0.09674767404794693,
                    0.06053558364510536,
                    -0.18680062890052795,
                    -0.2301567941904068,
                    0.004377963021397591,
                    0.001052757492288947,
                    -0.005471932701766491,
                    -0.029931075870990753,
                    0.0036055217497050762,
                    -0.09620930254459381,
                    -0.2749576270580292,
                    -0.03437376394867897,
                    0.03815082088112831,
                    -0.10122832655906677,
                    -0.01927795261144638,
                    -0.1445862501859665,
                    -0.38184839487075806,
                    -0.061860788613557816,
                    -0.24016112089157104,
                    -0.2818180322647095,
                    -0.20271213352680206,
                    0.009867092594504356,
                    0.20410439372062683,
                    0.1364995241165161,
                    0.05834377929568291,
                    -0.08044066280126572,
                    -0.35085785388946533,
                    -0.23420338332653046,
                    -0.22944092750549316,
                    -0.08199569582939148,
                    0.10988794267177582,
                    0.0343613438308239,
                    -0.05375296249985695,
                    0.19976992905139923,
                    0.049158547073602676,
                    0.15328757464885712,
                    -0.018904147669672966,
                    -0.02319256216287613,
                    -0.006441863719373941,
                    0.23020200431346893,
                    0.29381200671195984,
                    0.18323126435279846,
                    -0.07938835024833679,
                    0.3157854676246643,
                    0.39026856422424316,
                    0.18677586317062378,
                    0.04352445527911186,
                    0.0903593897819519,
                    0.06438355892896652,
                    0.09649357944726944,
                    0.12070544064044952,
                    0.18484722077846527,
                    -0.11271429806947708,
                    0.2946023643016815,
                    0.07778847217559814,
                    0.08994938433170319,
                    0.22671866416931152,
                    -0.045689839869737625,
                    0.12246912717819214,
                    0.1768428236246109,
                    0.24401354789733887,
                    -0.008956653997302055,
                    -0.13967129588127136,
                    0.09709350764751434,
                    -0.031943339854478836,
                    0.13797099888324738,
                    -0.04775009676814079,
                    0.22736211121082306,
                    0.15696968138217926,
                    0.21801652014255524,
                    0.38995474576950073,
                    0.3109626770019531,
                    0.014121763408184052
                ],
                [
                    0.0954391360282898,
                    -0.09839168936014175,
                    -0.04783815145492554,
                    -0.05606277287006378,
                    0.2381688952445984,
                    0.29390498995780945,
                    0.24652099609375,
                    0.4667899012565613,
                    0.3320121169090271,
                    0.20177505910396576,
                    0.18107643723487854,
                    -0.4417029321193695,
                    -0.3004891872406006,
                    -0.04878784716129303,
                    -0.1518603414297104,
                    0.1088256910443306,
                    0.16886039078235626,
                    0.053608521819114685,
                    0.07554913312196732,
                    -0.1264151930809021,
                    0.3459603190422058,
                    -0.07379186898469925,
                    -0.034828294068574905,
                    -0.21791227161884308,
                    -0.02680838108062744,
                    -0.036137234419584274,
                    -0.034066930413246155,
                    0.11462847888469696,
                    -0.016142530366778374,
                    -0.40257999300956726,
                    0.36078038811683655,
                    0.07063745707273483,
                    -0.33947861194610596,
                    -0.25202491879463196,
                    -0.1044706329703331,
                    -0.08819559216499329,
                    0.17276643216609955,
                    0.0037013518158346415,
                    -0.11255854368209839,
                    -0.4657844305038452,
                    0.4239291250705719,
                    -0.03386559709906578,
                    0.04350541904568672,
                    0.16987121105194092,
                    0.3451836407184601,
                    0.40088579058647156,
                    0.22663602232933044,
                    0.18517914414405823,
                    0.02768160030245781,
                    -0.03313515707850456,
                    0.16826210916042328,
                    0.1533237248659134,
                    -0.011277509853243828,
                    -0.019137324765324593,
                    0.3324938714504242,
                    0.011155602522194386,
                    -0.003719195257872343,
                    -0.05556667968630791,
                    -0.10557214915752411,
                    -0.26250237226486206,
                    0.4388442039489746,
                    0.07562664896249771,
                    0.08715683966875076,
                    0.09382961690425873,
                    -0.0819629579782486,
                    0.11994888633489609,
                    -0.2553030550479889,
                    -0.21911202371120453,
                    0.1533121019601822,
                    -0.11354754120111465,
                    0.38962697982788086,
                    0.038469098508358,
                    -0.24682791531085968,
                    -0.322611927986145,
                    -0.26917341351509094,
                    -0.19444215297698975,
                    -0.17441758513450623,
                    -0.047494541853666306,
                    -0.06584073603153229,
                    0.2185489386320114,
                    0.19571365416049957,
                    0.2766337990760803,
                    0.10326758772134781,
                    -0.3547280430793762,
                    -0.3557397723197937,
                    -0.28971800208091736,
                    -0.3734310567378998,
                    -0.24200113117694855,
                    -0.06631361693143845,
                    0.11664904654026031,
                    0.27913859486579895,
                    0.12729480862617493,
                    0.10431501269340515,
                    -0.2891525626182556,
                    -0.21771912276744843,
                    -0.33411872386932373,
                    -0.31550368666648865,
                    -0.1378880739212036,
                    0.3351697623729706,
                    0.42106401920318604
                ],
                [
                    -0.33800867199897766,
                    0.020730819553136826,
                    -0.16178828477859497,
                    -0.17149214446544647,
                    -0.19817215204238892,
                    -0.41095808148384094,
                    -0.35706886649131775,
                    -0.11427824199199677,
                    -0.44295212626457214,
                    -0.37423810362815857,
                    -0.12911508977413177,
                    -0.022669091820716858,
                    -0.023835353553295135,
                    0.018926545977592468,
                    -0.0022721842397004366,
                    -0.31077146530151367,
                    -0.32563719153404236,
                    -0.13274767994880676,
                    -0.4103720486164093,
                    -0.17731906473636627,
                    -0.2533712685108185,
                    -0.2658258378505707,
                    -0.10634054243564606,
                    -0.03292460739612579,
                    -0.12884530425071716,
                    -0.15532134473323822,
                    -0.2412310093641281,
                    -0.42118656635284424,
                    -0.1453765630722046,
                    -0.21198345720767975,
                    -0.0762404352426529,
                    -0.1229526624083519,
                    -0.17032036185264587,
                    -0.06180555000901222,
                    -0.3208010196685791,
                    -0.3380809724330902,
                    -0.45521003007888794,
                    -0.47232380509376526,
                    -0.48708897829055786,
                    -0.41502752900123596,
                    -0.1507868617773056,
                    0.007103918120265007,
                    -0.22679157555103302,
                    -0.13109813630580902,
                    -0.23350179195404053,
                    -0.21094368398189545,
                    -0.18337373435497284,
                    -0.31980374455451965,
                    -0.3721614181995392,
                    -0.2907642722129822,
                    -0.2927001416683197,
                    -0.2938815951347351,
                    -0.4012052118778229,
                    -0.34778890013694763,
                    -0.07642335444688797,
                    -0.07940272241830826,
                    -0.2458837628364563,
                    -0.4354636073112488,
                    -0.25810936093330383,
                    -0.30632272362709045,
                    -0.1965050846338272,
                    -0.099141925573349,
                    -0.04819045588374138,
                    -0.2591831386089325,
                    -0.21754801273345947,
                    -0.21517005562782288,
                    -0.10641347616910934,
                    -0.36770695447921753,
                    -0.11618836224079132,
                    -0.33670592308044434,
                    -0.24882683157920837,
                    -0.18165604770183563,
                    -0.1460791677236557,
                    -0.23114633560180664,
                    -0.13989239931106567,
                    -0.14256936311721802,
                    -0.39670896530151367,
                    -0.29914793372154236,
                    -0.3818143904209137,
                    -0.08855777978897095,
                    -0.23817487061023712,
                    -0.054210882633924484,
                    -0.25257936120033264,
                    -0.37835606932640076,
                    -0.05932123586535454,
                    -0.24168415367603302,
                    -0.39667829871177673,
                    -0.21325582265853882,
                    -0.07713267207145691,
                    -0.24730007350444794,
                    -0.2509676218032837,
                    -0.3123871684074402,
                    -0.418476402759552,
                    -0.3488880395889282,
                    -0.29648593068122864,
                    -0.12430320680141449,
                    -0.0838431566953659,
                    -0.1726963073015213,
                    -0.35297760367393494,
                    0.01223047636449337
                ],
                [
                    0.20943650603294373,
                    0.06933042407035828,
                    -0.32276207208633423,
                    -0.07246813178062439,
                    -0.04232913628220558,
                    -0.0006086905486881733,
                    0.2591938376426697,
                    0.034280747175216675,
                    0.07627126574516296,
                    -0.024279309436678886,
                    0.18948544561862946,
                    -0.08299538493156433,
                    -0.017779774963855743,
                    -0.2492099553346634,
                    -0.20246925950050354,
                    -0.17452698945999146,
                    0.22013810276985168,
                    0.09120921045541763,
                    0.16354896128177643,
                    -0.00005279606193653308,
                    0.20474663376808167,
                    -0.22692862153053284,
                    -0.23179593682289124,
                    0.02591237798333168,
                    0.03050285391509533,
                    -0.1473795771598816,
                    -0.07502195239067078,
                    0.27291321754455566,
                    0.10337170213460922,
                    0.07923141866922379,
                    0.25769826769828796,
                    -0.1973024159669876,
                    -0.038155339658260345,
                    -0.231356680393219,
                    0.1632077693939209,
                    0.3136085569858551,
                    0.2935909926891327,
                    0.256226122379303,
                    0.0053718858398497105,
                    -0.15220311284065247,
                    0.1514531373977661,
                    -0.25755366683006287,
                    0.11103703826665878,
                    0.15742912888526917,
                    0.2780665159225464,
                    0.2632853388786316,
                    0.27739089727401733,
                    0.11295308917760849,
                    -0.12566758692264557,
                    -0.07920130342245102,
                    0.06418583542108536,
                    -0.2870863676071167,
                    0.13344831764698029,
                    0.21698449552059174,
                    0.25117507576942444,
                    0.31383970379829407,
                    0.18138417601585388,
                    -0.14023399353027344,
                    -0.32241642475128174,
                    -0.504940390586853,
                    -0.15239599347114563,
                    0.11956413835287094,
                    0.0813305601477623,
                    0.4761364161968231,
                    0.32265087962150574,
                    0.08352921903133392,
                    0.16169293224811554,
                    0.166942298412323,
                    -0.15198327600955963,
                    -0.38218986988067627,
                    -0.14643451571464539,
                    -0.09158941358327866,
                    0.09384332597255707,
                    0.3446345329284668,
                    0.23293769359588623,
                    -0.06928712874650955,
                    0.08015663176774979,
                    -0.22033020853996277,
                    -0.3798847496509552,
                    -0.29813018441200256,
                    0.08468884974718094,
                    0.15855254232883453,
                    0.2888570725917816,
                    0.10393596440553665,
                    -0.15354575216770172,
                    -0.04098188504576683,
                    -0.33375728130340576,
                    -0.38233405351638794,
                    -0.3890862762928009,
                    -0.1418873816728592,
                    -0.06042226403951645,
                    -0.08074970543384552,
                    0.24205148220062256,
                    -0.24853156507015228,
                    -0.18933957815170288,
                    -0.36654165387153625,
                    -0.31280702352523804,
                    -0.5629630088806152,
                    -0.5763455033302307,
                    -0.4367646872997284
                ],
                [
                    0.3773752450942993,
                    0.21665892004966736,
                    0.14725446701049805,
                    -0.15494175255298615,
                    -0.04497681185603142,
                    -0.0431961826980114,
                    -0.10161248594522476,
                    0.14485032856464386,
                    0.09820426255464554,
                    0.09369707107543945,
                    0.4957209527492523,
                    0.40646302700042725,
                    -0.11504761129617691,
                    -0.03148815780878067,
                    -0.3126516342163086,
                    0.011500321328639984,
                    -0.09100890904664993,
                    0.03055303357541561,
                    -0.33566173911094666,
                    -0.09407826513051987,
                    0.5060060620307922,
                    0.4472621977329254,
                    -0.03289318457245827,
                    0.07457731664180756,
                    -0.30880260467529297,
                    -0.3170444667339325,
                    -0.27200400829315186,
                    -0.009432663209736347,
                    -0.4154292643070221,
                    -0.3453911542892456,
                    0.19915896654129028,
                    0.037338562309741974,
                    -0.23238910734653473,
                    0.041523322463035583,
                    -0.009571196511387825,
                    0.05549671873450279,
                    0.13961613178253174,
                    -0.2127102017402649,
                    -0.2388489842414856,
                    -0.09875412285327911,
                    -0.06767953187227249,
                    0.07911491394042969,
                    -0.34754228591918945,
                    -0.15125404298305511,
                    0.11996539682149887,
                    0.25740012526512146,
                    0.17056454718112946,
                    0.005577536299824715,
                    -0.4300670623779297,
                    -0.021916639059782028,
                    -0.31623539328575134,
                    -0.2804297208786011,
                    0.05127730220556259,
                    -0.12626290321350098,
                    0.29623812437057495,
                    -0.04812268540263176,
                    -0.15541395545005798,
                    -0.38887152075767517,
                    -0.2586198151111603,
                    -0.10853505879640579,
                    -0.28713458776474,
                    -0.003321297001093626,
                    0.0980725809931755,
                    0.16948843002319336,
                    0.09884876012802124,
                    0.12859442830085754,
                    0.0528048574924469,
                    -0.25204890966415405,
                    -0.01625767908990383,
                    0.2140599936246872,
                    0.1517891138792038,
                    -0.16985854506492615,
                    -0.026202693581581116,
                    0.19041118025779724,
                    -0.07097457349300385,
                    0.09342560172080994,
                    -0.10787786543369293,
                    0.1323745995759964,
                    -0.01423883531242609,
                    0.160769522190094,
                    0.03554811328649521,
                    0.10175777226686478,
                    -0.006272478494793177,
                    -0.023307783529162407,
                    -0.18139368295669556,
                    0.14475055038928986,
                    -0.3301168382167816,
                    -0.17940162122249603,
                    -0.1636572778224945,
                    0.41776490211486816,
                    -0.17726542055606842,
                    0.06850625574588776,
                    0.12477874010801315,
                    -0.09496943652629852,
                    -0.1145532950758934,
                    0.12185093015432358,
                    -0.24902236461639404,
                    -0.31009286642074585,
                    0.14676335453987122,
                    0.4177958369255066
                ],
                [
                    0.17081359028816223,
                    0.1402670443058014,
                    0.1341206133365631,
                    0.06549488008022308,
                    -0.08045221865177155,
                    -0.33852002024650574,
                    -0.08175209909677505,
                    -0.03769151121377945,
                    -0.24190984666347504,
                    -0.06799398362636566,
                    0.23958660662174225,
                    -0.13345694541931152,
                    -0.20757628977298737,
                    -0.031069597229361534,
                    -0.19012530148029327,
                    -0.06973625719547272,
                    0.055180683732032776,
                    -0.044277992099523544,
                    -0.0012249071151018143,
                    0.12238708883523941,
                    0.46487024426460266,
                    0.2623801827430725,
                    -0.21109895408153534,
                    0.0848194807767868,
                    -0.16423211991786957,
                    -0.05871321260929108,
                    0.2752629220485687,
                    0.022898821160197258,
                    0.23731741309165955,
                    0.14493487775325775,
                    0.3762284219264984,
                    0.0896720141172409,
                    -0.23527419567108154,
                    -0.006664461921900511,
                    -0.014503508806228638,
                    0.13128864765167236,
                    0.4115632176399231,
                    0.15986721217632294,
                    0.0685122162103653,
                    0.22487740218639374,
                    0.008900092914700508,
                    -0.13325129449367523,
                    -0.3737630248069763,
                    -0.23096735775470734,
                    -0.13392235338687897,
                    0.3391449451446533,
                    0.5255220532417297,
                    0.6159774661064148,
                    0.3964459002017975,
                    0.16452011466026306,
                    -0.2491523176431656,
                    -0.5198513269424438,
                    -0.6563713550567627,
                    -0.5512549877166748,
                    -0.33557042479515076,
                    0.09535323083400726,
                    0.05117682367563248,
                    -0.005038084927946329,
                    0.05326124653220177,
                    -0.14186488091945648,
                    -0.2686786651611328,
                    -0.1238507553935051,
                    -0.6435621380805969,
                    -0.433537095785141,
                    -0.2920844554901123,
                    -0.1627746820449829,
                    -0.07266658544540405,
                    0.023868564516305923,
                    0.004457762930542231,
                    -0.24473994970321655,
                    0.06645198911428452,
                    -0.05467973276972771,
                    -0.5165547132492065,
                    -0.3526173532009125,
                    -0.2239382416009903,
                    -0.025237591937184334,
                    0.04368099197745323,
                    0.23334558308124542,
                    0.05100702494382858,
                    -0.2921454906463623,
                    0.13466155529022217,
                    -0.007167492993175983,
                    0.018105177208781242,
                    0.13499756157398224,
                    -0.19825099408626556,
                    0.15075255930423737,
                    0.2811936140060425,
                    0.2738417387008667,
                    -0.0003228984132874757,
                    -0.060567066073417664,
                    0.39207974076271057,
                    0.1436401903629303,
                    -0.054691482335329056,
                    0.2214120477437973,
                    -0.2375524491071701,
                    -0.260113388299942,
                    0.09455936402082443,
                    0.09831427782773972,
                    0.2788226902484894,
                    -0.03301454707980156
                ],
                [
                    -0.16665686666965485,
                    -0.31756094098091125,
                    0.07248289883136749,
                    0.32916125655174255,
                    0.04407980665564537,
                    0.3890382647514343,
                    0.2029908001422882,
                    0.13691318035125732,
                    0.35648298263549805,
                    0.6866195797920227,
                    0.08958829194307327,
                    -0.009350386448204517,
                    -0.05248419567942619,
                    0.1117284744977951,
                    0.1562090367078781,
                    0.36256328225135803,
                    0.24717369675636292,
                    0.22627614438533783,
                    0.20437143743038177,
                    0.5797809958457947,
                    -0.12309219688177109,
                    -0.175122931599617,
                    -0.22386988997459412,
                    -0.02884828858077526,
                    0.23512272536754608,
                    -0.07896991074085236,
                    0.11309219896793365,
                    0.20035625994205475,
                    0.11138185858726501,
                    0.37184104323387146,
                    -0.1341220885515213,
                    0.058529991656541824,
                    -0.288833349943161,
                    0.08470667153596878,
                    -0.08781919628381729,
                    0.17760169506072998,
                    0.3040062189102173,
                    -0.08057449012994766,
                    0.01281422283500433,
                    0.35096243023872375,
                    -0.07147831469774246,
                    0.19248086214065552,
                    -0.27330321073532104,
                    -0.28049135208129883,
                    -0.24603956937789917,
                    -0.06604538857936859,
                    -0.11066323518753052,
                    -0.023580161854624748,
                    -0.08689779043197632,
                    0.18026722967624664,
                    0.2671915590763092,
                    0.12457084655761719,
                    -0.1679437756538391,
                    0.07783808559179306,
                    -0.13415099680423737,
                    0.12723581492900848,
                    -0.13227488100528717,
                    0.038219720125198364,
                    -0.27883094549179077,
                    -0.22197529673576355,
                    0.2725059986114502,
                    0.191401869058609,
                    0.17164184153079987,
                    0.0035304867196828127,
                    0.035397544503211975,
                    0.4198299050331116,
                    0.1888665109872818,
                    0.1537609100341797,
                    -0.2612866461277008,
                    0.12075764685869217,
                    0.36292359232902527,
                    0.12613984942436218,
                    -0.17706547677516937,
                    0.05088508874177933,
                    0.02913321740925312,
                    0.2525634467601776,
                    0.2419518083333969,
                    0.050984736531972885,
                    -0.21163591742515564,
                    -0.015005441382527351,
                    0.04945043474435806,
                    0.03226951137185097,
                    0.09971126914024353,
                    -0.2420680820941925,
                    -0.1775055229663849,
                    0.18934224545955658,
                    -0.04403788223862648,
                    0.1359759271144867,
                    -0.29950669407844543,
                    -0.27300599217414856,
                    0.002325695939362049,
                    0.08305131644010544,
                    -0.13866832852363586,
                    -0.3790275752544403,
                    -0.4279288351535797,
                    -0.14232009649276733,
                    -0.06560729444026947,
                    -0.2668752670288086,
                    -0.15583740174770355,
                    -0.3588643968105316
                ],
                [
                    0.24924737215042114,
                    0.19197212159633636,
                    -0.3206973671913147,
                    -0.28796371817588806,
                    -0.6438757181167603,
                    -0.6800363063812256,
                    -0.5340826511383057,
                    -0.4135432243347168,
                    -0.5022904872894287,
                    -0.2253546565771103,
                    0.4276302456855774,
                    0.2901020050048828,
                    -0.048276614397764206,
                    -0.023573705926537514,
                    -0.19021421670913696,
                    -0.003589760046452284,
                    -0.10825759172439575,
                    -0.015079679898917675,
                    0.0995316430926323,
                    0.048939965665340424,
                    0.21610678732395172,
                    0.23900112509727478,
                    -0.019676340743899345,
                    -0.10711890459060669,
                    -0.14710567891597748,
                    0.15864475071430206,
                    0.28950807452201843,
                    0.23445704579353333,
                    0.3305841386318207,
                    0.19569315016269684,
                    0.26839718222618103,
                    0.024478480219841003,
                    -0.04269622638821602,
                    -0.04198785126209259,
                    -0.025544533506035805,
                    -0.018496094271540642,
                    0.49664294719696045,
                    0.6653302907943726,
                    0.37977761030197144,
                    0.4390144944190979,
                    -0.07068806141614914,
                    -0.23022739589214325,
                    -0.058886099606752396,
                    0.047016069293022156,
                    0.15478265285491943,
                    0.25883767008781433,
                    0.5738276839256287,
                    0.6330326199531555,
                    0.3211539685726166,
                    0.024226520210504532,
                    -0.13226664066314697,
                    -0.17105945944786072,
                    -0.352987676858902,
                    -0.26530805230140686,
                    -0.306708961725235,
                    -0.10535705089569092,
                    0.42983222007751465,
                    0.35473087430000305,
                    0.1445644646883011,
                    -0.18992333114147186,
                    0.10799898952245712,
                    0.1183549165725708,
                    -0.07883653044700623,
                    -0.11944535374641418,
                    -0.024894248694181442,
                    0.0285138301551342,
                    0.3116644024848938,
                    0.41163453459739685,
                    0.00038038031198084354,
                    -0.1734641194343567,
                    0.07175920903682709,
                    0.1333291381597519,
                    0.2217271625995636,
                    0.3067571818828583,
                    0.28148677945137024,
                    -0.10466910898685455,
                    0.3105955719947815,
                    0.2611985206604004,
                    -0.04025118425488472,
                    -0.2399691492319107,
                    -0.22629651427268982,
                    -0.2646394968032837,
                    0.03362715244293213,
                    0.19166211783885956,
                    0.20114180445671082,
                    0.13495586812496185,
                    0.028724530711770058,
                    -0.12678495049476624,
                    -0.2451067864894867,
                    -0.3865853548049927,
                    -0.24299782514572144,
                    -0.32508552074432373,
                    -0.029957091435790062,
                    -0.004023319110274315,
                    -0.049086347222328186,
                    -0.0840088352560997,
                    -0.04812385141849518,
                    -0.21112896502017975,
                    0.025570599362254143,
                    -0.06999300420284271
                ],
                [
                    -0.5579349994659424,
                    -0.42268723249435425,
                    -0.10400808602571487,
                    -0.1167217567563057,
                    0.10361048579216003,
                    0.10744214802980423,
                    0.2775641679763794,
                    0.11085212230682373,
                    0.1922168731689453,
                    -0.03257780522108078,
                    -0.20302608609199524,
                    0.02189365215599537,
                    0.22508245706558228,
                    0.233453631401062,
                    0.13953126966953278,
                    0.3198147714138031,
                    0.39087092876434326,
                    0.2338295578956604,
                    0.26878637075424194,
                    -0.17810575664043427,
                    -0.16159547865390778,
                    -0.01532227173447609,
                    0.034195076674222946,
                    0.02304886467754841,
                    0.013071934692561626,
                    0.21219556033611298,
                    0.04783511161804199,
                    0.04982401430606842,
                    0.15544676780700684,
                    -0.08247674256563187,
                    -0.12507426738739014,
                    -0.12739607691764832,
                    -0.22474396228790283,
                    0.008169182576239109,
                    0.021639348939061165,
                    -0.08189710974693298,
                    -0.0800648033618927,
                    0.27736252546310425,
                    -0.19730570912361145,
                    0.03737673908472061,
                    -0.20012974739074707,
                    -0.03562532365322113,
                    -0.26298075914382935,
                    -0.4120078682899475,
                    -0.2406187504529953,
                    -0.1894429326057434,
                    -0.07582731544971466,
                    -0.0061219437047839165,
                    -0.1570661962032318,
                    -0.008436549454927444,
                    0.03923610970377922,
                    -0.2634909749031067,
                    -0.1610712856054306,
                    -0.27276119589805603,
                    -0.6329368948936462,
                    -0.5635031461715698,
                    -0.4741295576095581,
                    0.11782708019018173,
                    0.21028657257556915,
                    0.28479453921318054,
                    -0.06473787873983383,
                    0.1687527745962143,
                    0.07593326270580292,
                    -0.060979075729846954,
                    -0.43008607625961304,
                    -0.1484711468219757,
                    -0.33357319235801697,
                    0.09632890671491623,
                    0.18335764110088348,
                    0.363526850938797,
                    0.03737971931695938,
                    0.2820887565612793,
                    0.11781664192676544,
                    -0.08936749398708344,
                    -0.006057744845747948,
                    -0.1312551647424698,
                    -0.24978536367416382,
                    0.2033049613237381,
                    0.3429393470287323,
                    0.34545019268989563,
                    0.24362677335739136,
                    -0.0010163395199924707,
                    0.2058875560760498,
                    -0.02194594219326973,
                    0.22089599072933197,
                    -0.04970502853393555,
                    0.00763646699488163,
                    0.1219024732708931,
                    0.37435272336006165,
                    0.25474730134010315,
                    0.14600546658039093,
                    0.2660846412181854,
                    -0.24264149367809296,
                    -0.08449933677911758,
                    -0.29907214641571045,
                    -0.08754182606935501,
                    -0.3366279900074005,
                    0.023420708253979683,
                    -0.18507510423660278,
                    0.19265414774417877
                ],
                [
                    0.07905642688274384,
                    -0.4761163592338562,
                    -0.5243856906890869,
                    -0.44819432497024536,
                    -0.41913506388664246,
                    -0.4274194836616516,
                    -0.29683274030685425,
                    -0.2072790563106537,
                    -0.09066882729530334,
                    0.22721968591213226,
                    0.36093568801879883,
                    -0.1291230022907257,
                    -0.36359649896621704,
                    -0.18042868375778198,
                    0.03829129785299301,
                    0.11556977033615112,
                    0.11197260022163391,
                    0.25535666942596436,
                    0.20942576229572296,
                    0.29634737968444824,
                    0.2428891360759735,
                    -0.14267246425151825,
                    0.001144713256508112,
                    -0.08141206204891205,
                    -0.10685018450021744,
                    0.21055935323238373,
                    0.14833204448223114,
                    0.1161232516169548,
                    0.08279106765985489,
                    0.3592289686203003,
                    0.13984158635139465,
                    -0.055076632648706436,
                    -0.021604951471090317,
                    0.04645337536931038,
                    0.23758234083652496,
                    0.09533202648162842,
                    0.16378416121006012,
                    -0.11333482712507248,
                    -0.16682490706443787,
                    0.07619301229715347,
                    0.206385999917984,
                    -0.02394583262503147,
                    -0.15081264078617096,
                    -0.003561623627319932,
                    0.19852615892887115,
                    0.18753938376903534,
                    -0.02413776144385338,
                    0.020496392622590065,
                    0.05077780783176422,
                    -0.15727896988391876,
                    0.28008121252059937,
                    0.1811504065990448,
                    -0.25749531388282776,
                    0.16099666059017181,
                    -0.18666009604930878,
                    -0.05931009352207184,
                    -0.23854568600654602,
                    -0.2673459053039551,
                    -0.015353107824921608,
                    -0.2029336541891098,
                    0.2781749367713928,
                    0.23863227665424347,
                    0.09428416937589645,
                    0.1281205415725708,
                    0.2058635801076889,
                    0.2111876755952835,
                    0.12093750387430191,
                    0.23632630705833435,
                    0.16398678719997406,
                    0.19541466236114502,
                    0.042981185019016266,
                    -0.08409526199102402,
                    0.20982800424098969,
                    0.28496643900871277,
                    -0.03841269761323929,
                    -0.08849044889211655,
                    -0.1289396584033966,
                    0.1821662038564682,
                    0.39164844155311584,
                    0.45097416639328003,
                    -0.1546444147825241,
                    0.18551157414913177,
                    0.04790176451206207,
                    0.02087559551000595,
                    0.11219175159931183,
                    -0.2671360373497009,
                    0.0652342289686203,
                    -0.022048039361834526,
                    0.20331762731075287,
                    0.4887218773365021,
                    -0.0685613602399826,
                    0.06886633485555649,
                    -0.08261533081531525,
                    -0.2449074387550354,
                    -0.19930411875247955,
                    -0.3715486228466034,
                    -0.3475853502750397,
                    -0.20746120810508728,
                    -0.041666895151138306,
                    0.21420399844646454
                ],
                [
                    0.3101934790611267,
                    0.4998820126056671,
                    0.4209243059158325,
                    0.24705664813518524,
                    0.2469392567873001,
                    0.2754627466201782,
                    0.06426941603422165,
                    0.13639140129089355,
                    0.3546005189418793,
                    0.17628951370716095,
                    -0.06579902768135071,
                    0.04160626605153084,
                    0.2976098358631134,
                    0.10299455374479294,
                    0.011196307837963104,
                    0.20067556202411652,
                    -0.08272317796945572,
                    -0.30771103501319885,
                    -0.17769040167331696,
                    0.010057889856398106,
                    -0.3006770610809326,
                    -0.16642440855503082,
                    0.00437693577259779,
                    -0.29632702469825745,
                    -0.0336332730948925,
                    -0.41558709740638733,
                    -0.08650486916303635,
                    0.06365324556827545,
                    -0.04861989989876747,
                    0.08500222861766815,
                    -0.00631175609305501,
                    -0.2516164481639862,
                    -0.10592790693044662,
                    -0.014109157025814056,
                    -0.16362960636615753,
                    -0.49479323625564575,
                    -0.04393915832042694,
                    -0.1859382688999176,
                    0.2376178652048111,
                    0.16031435132026672,
                    0.1429438292980194,
                    -0.008237503468990326,
                    -0.026773780584335327,
                    -0.39741623401641846,
                    -0.09026629477739334,
                    -0.38832393288612366,
                    -0.0791604071855545,
                    0.12666280567646027,
                    0.11712870746850967,
                    0.2095353752374649,
                    -0.0056857517920434475,
                    0.20998921990394592,
                    0.1023741140961647,
                    0.07550958544015884,
                    -0.03990398347377777,
                    -0.24219514429569244,
                    0.07311180233955383,
                    0.22537125647068024,
                    0.5464754104614258,
                    0.5693729519844055,
                    0.5149181485176086,
                    0.5293827652931213,
                    0.433025062084198,
                    0.06944476068019867,
                    -0.1475992500782013,
                    -0.2400481104850769,
                    -0.3287065327167511,
                    0.14447231590747833,
                    0.4037272334098816,
                    0.17285597324371338,
                    0.45288869738578796,
                    0.5392881035804749,
                    0.40236765146255493,
                    0.19220617413520813,
                    -0.0723855271935463,
                    0.05582192540168762,
                    -0.1242118775844574,
                    -0.11327698826789856,
                    -0.000037977020838297904,
                    -0.14291344583034515,
                    0.2243909239768982,
                    0.5580549240112305,
                    0.2933652400970459,
                    -0.0662873163819313,
                    -0.13855260610580444,
                    0.04816219583153725,
                    -0.18671506643295288,
                    -0.2702067494392395,
                    -0.15486492216587067,
                    -0.22276440262794495,
                    0.4394514560699463,
                    0.5714406967163086,
                    0.6214960217475891,
                    0.43739908933639526,
                    0.19833289086818695,
                    0.13249970972537994,
                    0.08794055134057999,
                    -0.3042620122432709,
                    0.00321985618211329,
                    0.04411359503865242
                ],
                [
                    0.3247899115085602,
                    0.18767930567264557,
                    0.3094969093799591,
                    0.3859570324420929,
                    0.22821135818958282,
                    0.4758758544921875,
                    0.4414462149143219,
                    0.18720312416553497,
                    0.2920616567134857,
                    0.03872765228152275,
                    -0.0059003280475735664,
                    -0.22510236501693726,
                    -0.29282620549201965,
                    -0.43252697587013245,
                    -0.12350869178771973,
                    0.11175450682640076,
                    0.03259604424238205,
                    -0.06894678622484207,
                    -0.472776859998703,
                    -0.5863816738128662,
                    -0.04246463626623154,
                    0.023178396746516228,
                    -0.04897043853998184,
                    -0.19514428079128265,
                    -0.2491837739944458,
                    -0.05088421702384949,
                    0.046635664999485016,
                    -0.1950354278087616,
                    -0.3955376148223877,
                    -0.5245230197906494,
                    -0.353501558303833,
                    -0.24241997301578522,
                    -0.32097792625427246,
                    -0.22227567434310913,
                    -0.18324200809001923,
                    0.11396370828151703,
                    -0.24289067089557648,
                    -0.07032901048660278,
                    -0.22192703187465668,
                    -0.35205745697021484,
                    -0.34636563062667847,
                    0.1402793973684311,
                    -0.03846607729792595,
                    0.2393781989812851,
                    0.18642331659793854,
                    0.25526463985443115,
                    0.028138648718595505,
                    0.035338494926691055,
                    -0.02218276634812355,
                    -0.3117610216140747,
                    -0.2910115420818329,
                    -0.06568252295255661,
                    0.367786169052124,
                    0.4112248718738556,
                    0.37022140622138977,
                    0.21704243123531342,
                    0.023782648146152496,
                    0.017123572528362274,
                    -0.041240040212869644,
                    -0.029169071465730667,
                    -0.2873387336730957,
                    0.031712908297777176,
                    0.5286955237388611,
                    0.5849902629852295,
                    0.19537962973117828,
                    -0.1285955160856247,
                    -0.22438661754131317,
                    0.11579729616641998,
                    0.19417834281921387,
                    0.034386180341243744,
                    -0.13811331987380981,
                    0.010754703544080257,
                    0.28956925868988037,
                    0.45524054765701294,
                    0.12731580436229706,
                    0.026491502299904823,
                    -0.04978792369365692,
                    -0.10621973872184753,
                    -0.006332073826342821,
                    -0.01951485499739647,
                    -0.2566869556903839,
                    0.09716261923313141,
                    0.4676418900489807,
                    0.24373486638069153,
                    0.3396531343460083,
                    0.272569477558136,
                    0.004907222930341959,
                    -0.045412104576826096,
                    0.08637811243534088,
                    0.1015414372086525,
                    -0.026233334094285965,
                    0.15276961028575897,
                    -0.03377993032336235,
                    0.4551166594028473,
                    0.4568663537502289,
                    0.37634700536727905,
                    0.3004678785800934,
                    -0.25973039865493774,
                    -0.12157834321260452,
                    0.09662345796823502
                ],
                [
                    -0.28370973467826843,
                    -0.04038560017943382,
                    -0.07619258761405945,
                    0.2114386111497879,
                    0.25247693061828613,
                    0.3223058879375458,
                    0.15304414927959442,
                    -0.10074183344841003,
                    0.13450559973716736,
                    0.02414974570274353,
                    -0.440917044878006,
                    0.02332639880478382,
                    0.005912340246140957,
                    0.28628799319267273,
                    0.10466723889112473,
                    0.09762201458215714,
                    0.08389922231435776,
                    -0.08225411921739578,
                    -0.14666761457920074,
                    -0.17205177247524261,
                    -0.0840185284614563,
                    -0.317832887172699,
                    -0.008025660179555416,
                    -0.1396605521440506,
                    0.11039840430021286,
                    -0.018604543060064316,
                    0.13854016363620758,
                    -0.003957855049520731,
                    -0.07768162339925766,
                    -0.3602461814880371,
                    -0.3584658205509186,
                    -0.13137027621269226,
                    0.06889510899782181,
                    -0.2280268520116806,
                    -0.2825047969818115,
                    -0.19590580463409424,
                    -0.16848239302635193,
                    -0.16768687963485718,
                    -0.35469913482666016,
                    -0.24811327457427979,
                    -0.20968399941921234,
                    0.08319277316331863,
                    -0.2577439546585083,
                    -0.4238443672657013,
                    -0.28418296575546265,
                    -0.14187254011631012,
                    -0.16430968046188354,
                    -0.09889616817235947,
                    0.07955669611692429,
                    -0.30450141429901123,
                    0.32746824622154236,
                    0.21861261129379272,
                    0.05462120845913887,
                    0.04769319295883179,
                    -0.16083255410194397,
                    -0.037431973963975906,
                    0.24944408237934113,
                    0.01880505681037903,
                    0.058008886873722076,
                    0.10030442476272583,
                    0.13629558682441711,
                    0.33907395601272583,
                    0.25161126255989075,
                    0.19913050532341003,
                    0.2435322105884552,
                    0.02657812461256981,
                    0.12424150854349136,
                    -0.12627288699150085,
                    -0.13027742505073547,
                    -0.0032163355499505997,
                    0.2715752422809601,
                    0.007708079181611538,
                    0.32364794611930847,
                    0.059080224484205246,
                    0.4219581186771393,
                    0.10045535117387772,
                    -0.07665658742189407,
                    -0.0642942562699318,
                    0.014462129212915897,
                    -0.026610253378748894,
                    0.2260081022977829,
                    0.1405664086341858,
                    -0.03842313587665558,
                    -0.27841076254844666,
                    -0.08554618060588837,
                    0.22187075018882751,
                    0.1291285902261734,
                    -0.3178122639656067,
                    -0.016299542039632797,
                    -0.40408167243003845,
                    0.32123976945877075,
                    -0.15313664078712463,
                    -0.12717853486537933,
                    0.004717101808637381,
                    -0.11259584873914719,
                    0.07216484099626541,
                    0.00443095900118351,
                    0.027117647230625153,
                    -0.1351044923067093,
                    -0.24242718517780304
                ],
                [
                    0.5424363017082214,
                    0.4143751263618469,
                    0.4471636712551117,
                    -0.006773024797439575,
                    0.203159362077713,
                    0.3605952858924866,
                    0.15070286393165588,
                    0.23171542584896088,
                    0.10831043869256973,
                    0.065260149538517,
                    0.3227185308933258,
                    0.2565159201622009,
                    0.15411268174648285,
                    -0.07431729882955551,
                    -0.16211771965026855,
                    0.002590143820270896,
                    0.0019821561872959137,
                    0.029361311346292496,
                    -0.005594298243522644,
                    -0.03914806246757507,
                    0.08668512105941772,
                    0.14415620267391205,
                    -0.08542921394109726,
                    -0.23795998096466064,
                    -0.26018673181533813,
                    0.15733042359352112,
                    0.2854839265346527,
                    0.2590221166610718,
                    0.07967902719974518,
                    -0.1081182211637497,
                    0.3212197721004486,
                    0.24152228236198425,
                    0.1982855200767517,
                    -0.10631191730499268,
                    -0.41902291774749756,
                    -0.11496216803789139,
                    0.13403145968914032,
                    -0.08220114558935165,
                    -0.05992463231086731,
                    -0.07061820477247238,
                    0.12671834230422974,
                    0.39144083857536316,
                    0.30756422877311707,
                    -0.16589495539665222,
                    -0.23916347324848175,
                    -0.02278481237590313,
                    0.03577930107712746,
                    0.01920468918979168,
                    0.06368990242481232,
                    -0.29239633679389954,
                    -0.14055952429771423,
                    0.34104302525520325,
                    0.05460287630558014,
                    -0.1179569661617279,
                    -0.07169298827648163,
                    -0.052506767213344574,
                    0.05194757133722305,
                    -0.17698000371456146,
                    0.07263781130313873,
                    -0.01657693460583687,
                    -0.023150714114308357,
                    -0.14755195379257202,
                    0.2202349454164505,
                    0.24792316555976868,
                    -0.1826527714729309,
                    -0.37947604060173035,
                    0.010566736571490765,
                    0.20810659229755402,
                    -0.03152168169617653,
                    -0.1238800510764122,
                    -0.5408688187599182,
                    -0.04212091490626335,
                    0.23742909729480743,
                    0.05038345605134964,
                    0.07185938954353333,
                    -0.34223508834838867,
                    -0.30726319551467896,
                    -0.23663830757141113,
                    -0.2188580334186554,
                    -0.3012847602367401,
                    -0.18639503419399261,
                    0.008497262373566628,
                    0.17681670188903809,
                    -0.09761334955692291,
                    0.0989408865571022,
                    0.050472699105739594,
                    -0.1687142550945282,
                    0.03411070257425308,
                    -0.19915109872817993,
                    -0.43282830715179443,
                    -0.3200981914997101,
                    -0.22355452179908752,
                    -0.2820046842098236,
                    -0.03539314493536949,
                    0.2270878553390503,
                    0.3280330300331116,
                    0.012499792501330376,
                    -0.027435842901468277,
                    -0.0010219422401860356,
                    -0.3669987618923187
                ],
                [
                    -0.1756415069103241,
                    0.06347709894180298,
                    0.41134920716285706,
                    0.08805204927921295,
                    0.08296163380146027,
                    0.11270501464605331,
                    -0.044781643897295,
                    -0.18658547103405,
                    0.06811255216598511,
                    -0.12922820448875427,
                    -0.20473454892635345,
                    0.0028069978579878807,
                    0.3075243830680847,
                    0.395380437374115,
                    0.31356340646743774,
                    0.1307002454996109,
                    0.010738822631537914,
                    0.07723140716552734,
                    0.3532366454601288,
                    0.28726327419281006,
                    -0.395518958568573,
                    -0.18093302845954895,
                    -0.14067354798316956,
                    0.3122110068798065,
                    0.036570195108652115,
                    -0.11023484170436859,
                    0.06334055215120316,
                    0.07485239207744598,
                    -0.014059554785490036,
                    0.3232005834579468,
                    -0.17978893220424652,
                    0.0004963153623975813,
                    0.22620001435279846,
                    0.1609853059053421,
                    0.22498458623886108,
                    -0.16237707436084747,
                    -0.17246107757091522,
                    -0.1485346555709839,
                    0.053454186767339706,
                    0.16421662271022797,
                    -0.21543581783771515,
                    -0.3116493821144104,
                    0.09577183425426483,
                    0.028123311698436737,
                    -0.14688006043434143,
                    -0.03335889056324959,
                    -0.03806912899017334,
                    0.040655165910720825,
                    0.018249260261654854,
                    0.17655684053897858,
                    0.07141143828630447,
                    -0.36402520537376404,
                    -0.039688337594270706,
                    -0.26102858781814575,
                    -0.1085449606180191,
                    0.316864937543869,
                    0.057119984179735184,
                    -0.17649759352207184,
                    -0.2987630367279053,
                    -0.34969449043273926,
                    0.06923629343509674,
                    -0.17653420567512512,
                    -0.3389803171157837,
                    -0.1481509506702423,
                    -0.23505806922912598,
                    -0.09553144127130508,
                    0.22128885984420776,
                    0.14659321308135986,
                    -0.15062326192855835,
                    -0.41909870505332947,
                    0.2794470489025116,
                    0.007101039867848158,
                    -0.3663333058357239,
                    -0.3654281198978424,
                    -0.36538180708885193,
                    0.02850218303501606,
                    0.498208612203598,
                    0.33549320697784424,
                    -0.07887032628059387,
                    -0.3341127932071686,
                    0.476169228553772,
                    0.30392444133758545,
                    -0.10565120726823807,
                    -0.1324179470539093,
                    -0.02886977791786194,
                    0.0841391459107399,
                    0.2972724139690399,
                    0.18579496443271637,
                    0.12727923691272736,
                    -0.2416749894618988,
                    0.48716312646865845,
                    0.24623648822307587,
                    0.049762822687625885,
