{
    "type": "NeuralNetworkGPU",
    "sizes": [
        100,
        75,
        100,
        100,
        100
    ],
    "layers": [
        {
            "weights": [],
            "biases": []
        },
        {
            "weights": [
                [
                    -0.14756086468696594,
                    -0.20559591054916382,
                    0.05473865941166878,
                    0.08936771005392075,
                    0.13888022303581238,
                    -0.1899494230747223,
                    0.13160936534404755,
                    -0.03797389194369316,
                    0.12628085911273956,
                    -0.2114371806383133,
                    0.08242236077785492,
                    0.12586572766304016,
                    0.15919728577136993,
                    0.1043892502784729,
                    -0.018123624846339226,
                    0.01281669083982706,
                    -0.12330769002437592,
                    0.028845289722085,
                    -0.17893530428409576,
                    -0.08279768377542496,
                    -0.11004649102687836,
                    -0.21179813146591187,
                    0.15193697810173035,
                    -0.09273425489664078,
                    -0.19069764018058777,
                    0.11482158303260803,
                    -0.020478330552577972,
                    -0.0827237144112587,
                    -0.027485879138112068,
                    -0.13100019097328186,
                    0.14158719778060913,
                    -0.06683329492807388,
                    -0.02634485810995102,
                    0.17439787089824677,
                    0.1414060890674591,
                    -0.08749617636203766,
                    0.10070233792066574,
                    -0.006556084379553795,
                    0.06723050028085709,
                    -0.09825216978788376,
                    -0.03922499343752861,
                    0.1323440670967102,
                    0.0033566723577678204,
                    -0.05592670291662216,
                    -0.14726440608501434,
                    -0.03939206898212433,
                    0.11749836802482605,
                    -0.03690864518284798,
                    -0.007560012862086296,
                    -0.2156950682401657,
                    -0.1367337703704834,
                    0.12999378144741058,
                    -0.10421817749738693,
                    0.16593243181705475,
                    -0.19904634356498718,
                    0.09078625589609146,
                    0.07178416848182678,
                    -0.029416048899292946,
                    -0.11642047017812729,
                    -0.042657557874917984,
                    -0.08683620393276215,
                    -0.11498533189296722,
                    0.011854158714413643,
                    -0.09664840251207352,
                    -0.17595291137695312,
                    0.06287433952093124,
                    0.06815016269683838,
                    -0.13135111331939697,
                    -0.10492970794439316,
                    -0.013352042995393276,
                    0.09758254140615463,
                    -0.1509958803653717,
                    0.10800522565841675,
                    0.11272446811199188,
                    -0.19538645446300507,
                    -0.08372171223163605,
                    -0.07431817799806595,
                    0.0720536932349205,
                    -0.19106264412403107,
                    -0.07898622006177902,
                    0.16485707461833954,
                    0.1374625563621521,
                    0.06836031377315521,
                    -0.061844829469919205,
                    -0.1312011480331421,
                    0.13099578022956848,
                    0.17110870778560638,
                    -0.04562068358063698,
                    -0.16402333974838257,
                    -0.15191562473773956,
                    0.16723166406154633,
                    -0.014484619721770287,
                    0.14843964576721191,
                    -0.011647230945527554,
                    0.08619657903909683,
                    0.1612737774848938,
                    0.16924990713596344,
                    0.07621697336435318,
                    0.002934112446382642,
                    -0.05974519997835159
                ],
                [
                    -0.002312625991180539,
                    0.027528299018740654,
                    -0.1385052353143692,
                    -0.1977955847978592,
                    -0.22994613647460938,
                    -0.21707656979560852,
                    0.05499861389398575,
                    0.16693639755249023,
                    -0.13140791654586792,
                    0.02054688148200512,
                    0.10344191640615463,
                    0.00863109901547432,
                    0.0358906127512455,
                    -0.11437194794416428,
                    0.03258794918656349,
                    -0.001115320948883891,
                    0.2322511523962021,
                    0.2638017535209656,
                    0.06783321499824524,
                    0.04389355331659317,
                    0.20088601112365723,
                    0.2233227789402008,
                    -0.23874686658382416,
                    -0.09280045330524445,
                    0.13410383462905884,
                    0.05451451614499092,
                    0.15078316628932953,
                    0.25244060158729553,
                    0.2083480954170227,
                    -0.10403291136026382,
                    0.050540704280138016,
                    0.017276499420404434,
                    -0.15756243467330933,
                    0.17414318025112152,
                    0.06496888399124146,
                    -0.21046030521392822,
                    0.1156071275472641,
                    0.06462062895298004,
                    0.2353956401348114,
                    0.11157622188329697,
                    0.02495529316365719,
                    -0.17306001484394073,
                    0.10996159166097641,
                    -0.13340836763381958,
                    -0.17048346996307373,
                    0.020329130813479424,
                    -0.0670791044831276,
                    -0.00950620137155056,
                    0.05013251677155495,
                    -0.18934428691864014,
                    -0.02513626590371132,
                    0.12165263295173645,
                    0.21543531119823456,
                    0.0974278450012207,
                    -0.17524240911006927,
                    0.021248580887913704,
                    0.09679007530212402,
                    -0.13567028939723969,
                    0.08319985866546631,
                    -0.22601436078548431,
                    -0.11233250796794891,
                    0.1667291820049286,
                    0.033384595066308975,
                    0.03271973878145218,
                    -0.1600724458694458,
                    -0.19725117087364197,
                    0.07718075066804886,
                    0.0822816863656044,
                    -0.12657995522022247,
                    -0.10930976271629333,
                    0.05150660499930382,
                    -0.06925325095653534,
                    -0.011792168952524662,
                    0.1508958488702774,
                    -0.06663516163825989,
                    -0.10047128051519394,
                    -0.21218429505825043,
                    -0.1257193684577942,
                    0.0006756623042747378,
                    -0.13706541061401367,
                    -0.13229531049728394,
                    0.22431468963623047,
                    0.2061794102191925,
                    0.1897909790277481,
                    -0.08821459114551544,
                    0.13622412085533142,
                    -0.22263897955417633,
                    -0.014890310354530811,
                    -0.2319064885377884,
                    -0.0023460190277546644,
                    -0.14321944117546082,
                    0.07050913572311401,
                    0.11051425337791443,
                    0.14778850972652435,
                    0.058611735701560974,
                    0.03795027360320091,
                    -0.09367849677801132,
                    -0.10987217724323273,
                    0.0072202603332698345,
                    -0.07560906559228897
                ],
                [
                    0.13866311311721802,
                    -0.17834651470184326,
                    -0.0034585040993988514,
                    0.04588314890861511,
                    0.01891077309846878,
                    0.029568161815404892,
                    0.053757403045892715,
                    0.07477038353681564,
                    -0.03371888026595116,
                    0.2007051259279251,
                    -0.04813781753182411,
                    -0.02495936118066311,
                    -0.07227379083633423,
                    -0.0026107770390808582,
                    0.14491495490074158,
                    0.11125081777572632,
                    -0.18802139163017273,
                    -0.1857275515794754,
                    0.12469673156738281,
                    -0.062112484127283096,
                    -0.14001502096652985,
                    0.09821378439664841,
                    -0.11802167445421219,
                    0.002773863496258855,
                    -0.13548879325389862,
                    -0.05803506448864937,
                    -0.0529029406607151,
                    -0.22104044258594513,
                    -0.0424053780734539,
                    -0.18297401070594788,
                    0.0516139455139637,
                    0.10905537009239197,
                    0.23931145668029785,
                    -0.029185229912400246,
                    -0.2063589245080948,
                    0.17769242823123932,
                    -0.12658511102199554,
                    0.12967917323112488,
                    -0.17054563760757446,
                    0.1165265291929245,
                    -0.05371564254164696,
                    0.13115252554416656,
                    -0.14147183299064636,
                    0.17966431379318237,
                    0.21882031857967377,
                    0.029739607125520706,
                    -0.09747801721096039,
                    0.18766991794109344,
                    -0.13572381436824799,
                    -0.15402281284332275,
                    -0.04539133608341217,
                    0.10838963091373444,
                    -0.03204698860645294,
                    -0.114674873650074,
                    -0.018827136605978012,
                    -0.05601852014660835,
                    0.016232099384069443,
                    0.26082324981689453,
                    0.047345127910375595,
                    -0.09372415393590927,
                    0.17096403241157532,
                    -0.11571510136127472,
                    -0.12048396468162537,
                    0.03245155140757561,
                    -0.08442015945911407,
                    0.14516890048980713,
                    0.21710698306560516,
                    0.04531102627515793,
                    -0.0164783988147974,
                    -0.07846348732709885,
                    -0.03728662058711052,
                    0.12116101384162903,
                    0.011798146180808544,
                    -0.05036022514104843,
                    0.17397692799568176,
                    0.1443488597869873,
                    -0.005994783714413643,
                    0.1400424987077713,
                    0.10651445388793945,
                    0.10577329248189926,
                    0.09579096734523773,
                    -0.12599818408489227,
                    -0.06447197496891022,
                    0.18989607691764832,
                    0.07729264348745346,
                    0.06747999787330627,
                    -0.18830549716949463,
                    -0.09548880904912949,
                    -0.12287163734436035,
                    -0.12452162802219391,
                    0.06816012412309647,
                    0.06143517419695854,
                    -0.06609170138835907,
                    -0.09265061467885971,
                    0.0529073141515255,
                    -0.12339429557323456,
                    -0.05602020397782326,
                    -0.14002607762813568,
                    0.09991613030433655,
                    -0.08573315292596817
                ],
                [
                    0.11088341474533081,
                    0.1462189108133316,
                    0.02380480244755745,
                    0.06102597340941429,
                    0.0009054562542587519,
                    0.12137170881032944,
                    0.1557881236076355,
                    -0.10437792539596558,
                    -0.14386869966983795,
                    -0.10683911293745041,
                    0.14120076596736908,
                    -0.1777915507555008,
                    0.0569351427257061,
                    -0.20056496560573578,
                    -0.16251900792121887,
                    0.13450360298156738,
                    0.18629354238510132,
                    -0.16776061058044434,
                    -0.004152238368988037,
                    0.16568036377429962,
                    -0.14996540546417236,
                    0.019116990268230438,
                    -0.038808174431324005,
                    -0.03304744139313698,
                    0.08918996155261993,
                    -0.08941406011581421,
                    -0.10155794769525528,
                    -0.13135316967964172,
                    -0.0010294823441654444,
                    0.04819662123918533,
                    0.19976502656936646,
                    0.15883496403694153,
                    -0.179663747549057,
                    -0.18922439217567444,
                    0.12445184588432312,
                    0.10661593079566956,
                    0.20162814855575562,
                    -0.17639543116092682,
                    -0.0873444452881813,
                    -0.11039528995752335,
                    0.07762202620506287,
                    0.1377173364162445,
                    0.014387126080691814,
                    0.12281244993209839,
                    -0.07906763255596161,
                    0.10977832973003387,
                    0.09576112776994705,
                    -0.00734104635193944,
                    -0.0707189217209816,
                    0.13273517787456512,
                    -0.010104639455676079,
                    0.11150678247213364,
                    -0.009782493114471436,
                    0.15729136765003204,
                    -0.012837029993534088,
                    -0.11484683305025101,
                    -0.22211603820323944,
                    -0.23448696732521057,
                    -0.12491240352392197,
                    0.09249015152454376,
                    -0.12630291283130646,
                    -0.007969511672854424,
                    0.13221992552280426,
                    -0.021418625488877296,
                    -0.023313894867897034,
                    -0.10465528815984726,
                    -0.016498763114213943,
                    0.1390644907951355,
                    -0.024133289232850075,
                    -0.1921539306640625,
                    -0.12926481664180756,
                    -0.021241001784801483,
                    0.12354647368192673,
                    -0.178789421916008,
                    -0.12918266654014587,
                    -0.09947104752063751,
                    -0.000512344588059932,
                    0.028631921857595444,
                    0.04142196476459503,
                    -0.14507389068603516,
                    0.12681294977664948,
                    -0.15784919261932373,
                    0.05627533793449402,
                    0.09881800413131714,
                    -0.08483971655368805,
                    0.05794477462768555,
                    -0.003099128371104598,
                    0.09080923348665237,
                    0.016502272337675095,
                    -0.12891842424869537,
                    -0.18079686164855957,
                    0.09399127960205078,
                    -0.20777396857738495,
                    0.06379847973585129,
                    -0.0035220521967858076,
                    0.13771703839302063,
                    -0.07719143480062485,
                    -0.20938824117183685,
                    -0.13460467755794525,
                    -0.061930809170007706
                ],
                [
                    0.1002698764204979,
                    -0.1453603208065033,
                    -0.03375345841050148,
                    -0.11274845898151398,
                    0.1444888859987259,
                    0.1359165757894516,
                    -0.11831340938806534,
                    -0.2229304313659668,
                    -0.14593680202960968,
                    -0.21962030231952667,
                    0.0989251583814621,
                    0.07419806718826294,
                    0.1779690980911255,
                    0.14740398526191711,
                    -0.20407214760780334,
                    -0.12215268611907959,
                    0.05719229578971863,
                    -0.07277798652648926,
                    -0.14365343749523163,
                    0.052658531814813614,
                    0.10570037364959717,
                    0.11208882182836533,
                    0.15623839199543,
                    -0.020589962601661682,
                    0.09342585504055023,
                    0.15163959562778473,
                    -0.1599547117948532,
                    -0.12528866529464722,
                    -0.027215544134378433,
                    -0.13477469980716705,
                    -0.0827912911772728,
                    -0.19406045973300934,
                    0.14673270285129547,
                    0.1424771100282669,
                    0.06405755132436752,
                    0.12144733220338821,
                    0.19220826029777527,
                    0.18755373358726501,
                    -0.20288272202014923,
                    -0.1586122065782547,
                    -0.04217498004436493,
                    -0.10573858767747879,
                    -0.14929331839084625,
                    0.08123739063739777,
                    -0.12201175093650818,
                    -0.04569951072335243,
                    -0.06184278056025505,
                    0.15703527629375458,
                    -0.16004444658756256,
                    0.19705064594745636,
                    0.09272188693284988,
                    -0.16141414642333984,
                    -0.18890021741390228,
                    -0.16999544203281403,
                    0.08548520505428314,
                    -0.131003737449646,
                    -0.11845339089632034,
                    0.15104374289512634,
                    -0.008732152171432972,
                    -0.17201298475265503,
                    0.08324429392814636,
                    -0.09781769663095474,
                    0.06063627824187279,
                    -0.04404298961162567,
                    -0.009728627279400826,
                    -0.21655134856700897,
                    0.16982337832450867,
                    -0.1875203549861908,
                    0.1403404027223587,
                    0.002690226072445512,
                    -0.009129777550697327,
                    -0.03703229874372482,
                    -0.20211413502693176,
                    -0.11345867812633514,
                    -0.12405101209878922,
                    0.056577060371637344,
                    0.1924905776977539,
                    0.018387243151664734,
                    -0.0785309225320816,
                    0.05051341652870178,
                    0.01861894689500332,
                    0.1471421718597412,
                    0.11579930037260056,
                    0.05018983781337738,
                    -0.12759514153003693,
                    0.026471354067325592,
                    -0.18243902921676636,
                    0.04987192153930664,
                    0.06577857583761215,
                    0.0437239408493042,
                    -0.10927214473485947,
                    -0.17460256814956665,
                    -0.167219877243042,
                    0.0835399180650711,
                    0.052827492356300354,
                    -0.16680289804935455,
                    0.12477132678031921,
                    -0.04800136387348175,
                    -0.028369754552841187,
                    -0.014279150404036045
                ],
                [
                    0.1630401313304901,
                    0.0013469525147229433,
                    -0.050856538116931915,
                    -0.04693834111094475,
                    -0.10655445605516434,
                    -0.17389394342899323,
                    0.021070556715130806,
                    0.12434209883213043,
                    -0.06246895343065262,
                    -0.18782024085521698,
                    -0.15737009048461914,
                    0.0472102165222168,
                    0.05308617651462555,
                    -0.19332154095172882,
                    -0.16058523952960968,
                    -0.17909155786037445,
                    0.06377023458480835,
                    -0.018315965309739113,
                    -0.018020696938037872,
                    -0.07644594460725784,
                    0.03144276142120361,
                    -0.14420409500598907,
                    0.18034246563911438,
                    0.1349848359823227,
                    0.04443123936653137,
                    0.04487611725926399,
                    0.17551158368587494,
                    0.015456809662282467,
                    0.10219957679510117,
                    0.05498206242918968,
                    -0.11807195842266083,
                    0.11459538340568542,
                    -0.13421182334423065,
                    -0.13988815248012543,
                    0.19079430401325226,
                    0.0740237906575203,
                    -0.14744307100772858,
                    -0.016293277963995934,
                    -0.04280836507678032,
                    -0.112555131316185,
                    -0.0053955125622451305,
                    0.1806783527135849,
                    0.13274075090885162,
                    0.06791633367538452,
                    -0.09805041551589966,
                    -0.04635113477706909,
                    0.08424031734466553,
                    -0.1925322413444519,
                    -0.12813355028629303,
                    -0.18500731885433197,
                    0.1867499053478241,
                    -0.14030537009239197,
                    0.09763083606958389,
                    -0.04477989301085472,
                    0.028198713436722755,
                    0.16956570744514465,
                    -0.1889316439628601,
                    0.028522314503788948,
                    -0.16420722007751465,
                    -0.012964848428964615,
                    -0.031431056559085846,
                    -0.1859569102525711,
                    -0.09235333651304245,
                    0.19671185314655304,
                    -0.11793821305036545,
                    0.06691874563694,
                    -0.025085657835006714,
                    -0.07077514380216599,
                    -0.1204216256737709,
                    0.052093394100666046,
                    0.018431663513183594,
                    0.06409967690706253,
                    0.0627630427479744,
                    -0.09395745396614075,
                    -0.16650260984897614,
                    0.06657487154006958,
                    -0.016888195648789406,
                    0.04366740584373474,
                    -0.00493274861946702,
                    0.11452782154083252,
                    0.0077020879834890366,
                    -0.10863541066646576,
                    -0.08277994394302368,
                    -0.01756558008491993,
                    0.02611982263624668,
                    -0.16965697705745697,
                    -0.13836604356765747,
                    0.08176691830158234,
                    -0.09241530299186707,
                    -0.11508379131555557,
                    0.1408146470785141,
                    -0.0206914022564888,
                    0.019843077287077904,
                    0.07940107583999634,
                    -0.19078300893306732,
                    0.101129449903965,
                    -0.18707098066806793,
                    0.05169207602739334,
                    -0.08549051731824875,
                    0.21441027522087097
                ],
                [
                    -0.11367595195770264,
                    -0.11982987821102142,
                    -0.07723738253116608,
                    -0.07109295576810837,
                    -0.0823926106095314,
                    -0.1301993429660797,
                    0.056866783648729324,
                    0.16123932600021362,
                    0.22556911408901215,
                    0.042941655963659286,
                    0.18047766387462616,
                    0.2660285532474518,
                    0.18531672656536102,
                    0.28492552042007446,
                    -0.02918957732617855,
                    -0.19575580954551697,
                    0.11559238284826279,
                    0.17059601843357086,
                    0.1044670045375824,
                    -0.227247953414917,
                    0.16064025461673737,
                    0.25694626569747925,
                    -0.1258930116891861,
                    -0.10051341354846954,
                    -0.07122087478637695,
                    -0.01970302127301693,
                    -0.26503947377204895,
                    0.1303996741771698,
                    0.0654158964753151,
                    0.10911690443754196,
                    0.10998456925153732,
                    0.006668423768132925,
                    -0.09628899395465851,
                    -0.15534242987632751,
                    -0.07561350613832474,
                    -0.14710544049739838,
                    -0.05158327519893646,
                    -0.031761523336172104,
                    -0.08666395395994186,
                    -0.2391955852508545,
                    -0.1179404929280281,
                    -0.16233396530151367,
                    -0.14651651680469513,
                    -0.1035938635468483,
                    -0.20746450126171112,
                    0.0285401102155447,
                    -0.2728825509548187,
                    -0.0716942772269249,
                    0.05840671807527542,
                    -0.023643240332603455,
                    0.07971575111150742,
                    -0.1952989250421524,
                    -0.10916561633348465,
                    -0.0756583958864212,
                    -0.06393474340438843,
                    0.10992208868265152,
                    0.0745837464928627,
                    -0.21597713232040405,
                    -0.013964386656880379,
                    0.09415359050035477,
                    -0.05152294039726257,
                    0.1394021064043045,
                    0.15499180555343628,
                    -0.02204020507633686,
                    -0.09654393047094345,
                    0.11661462485790253,
                    0.16756246984004974,
                    0.05043970048427582,
                    0.10134768486022949,
                    0.1024627611041069,
                    0.15175719559192657,
                    0.017892053350806236,
                    0.17064815759658813,
                    -0.1944466233253479,
                    -0.11769770085811615,
                    0.14101925492286682,
                    -0.001221762504428625,
                    0.005063890945166349,
                    0.17731212079524994,
                    0.18785738945007324,
                    -0.06734498590230942,
                    -0.05955974757671356,
                    0.10679156333208084,
                    -0.11299964040517807,
                    -0.1534726321697235,
                    -0.01145513728260994,
                    -0.1237855777144432,
                    0.017705487087368965,
                    0.034442391246557236,
                    0.1438494622707367,
                    0.05683335289359093,
                    0.16317994892597198,
                    -0.1534229815006256,
                    -0.17002224922180176,
                    0.03841026872396469,
                    -0.1875506043434143,
                    0.03515128418803215,
                    0.07725419104099274,
                    0.14804421365261078,
                    0.17381182312965393
                ],
                [
                    0.05517491325736046,
                    -0.06755334883928299,
                    0.10608511418104172,
                    0.07778944820165634,
                    -0.1995757669210434,
                    -0.25391989946365356,
                    -0.00739477900788188,
                    -0.03977341204881668,
                    -0.007852811366319656,
                    -0.052828751504421234,
                    0.01450597308576107,
                    -0.18116028606891632,
                    0.06856578588485718,
                    0.0730004534125328,
                    -0.03005180135369301,
                    0.05984168127179146,
                    -0.11265643686056137,
                    -0.08432897925376892,
                    -0.0481446348130703,
                    -0.15579389035701752,
                    -0.14701299369335175,
                    -0.09524776041507721,
                    -0.07489204406738281,
                    -0.0661589652299881,
                    -0.21915358304977417,
                    -0.13411153852939606,
                    0.03428571671247482,
                    0.10578970611095428,
                    -0.09236199408769608,
                    0.19505813717842102,
                    0.1686514914035797,
                    0.23407402634620667,
                    -0.1223522201180458,
                    -0.16745513677597046,
                    -0.16655530035495758,
                    -0.10168461501598358,
                    0.0946773961186409,
                    0.03969249129295349,
                    0.22041834890842438,
                    0.1558901071548462,
                    0.16344116628170013,
                    0.040643736720085144,
                    0.09986220300197601,
                    -0.004974412731826305,
                    0.0906524807214737,
                    -0.04329171031713486,
                    0.09486909210681915,
                    0.12627948820590973,
                    0.15777051448822021,
                    0.18431127071380615,
                    0.22245733439922333,
                    0.16396889090538025,
                    -0.1491241157054901,
                    -0.009691977873444557,
                    -0.014426548033952713,
                    0.10872390121221542,
                    0.007276465650647879,
                    -0.05277054384350777,
                    0.015272148884832859,
                    0.09305652230978012,
                    0.1522359699010849,
                    0.06693233549594879,
                    -0.04237447679042816,
                    -0.08617180585861206,
                    -0.09449466317892075,
                    0.12113306671380997,
                    -0.03501062095165253,
                    0.15660181641578674,
                    0.1382090151309967,
                    0.06011645868420601,
                    -0.07464158535003662,
                    0.0054231928661465645,
                    -0.2174726128578186,
                    -0.11263621598482132,
                    -0.16667763888835907,
                    -0.13776174187660217,
                    -0.06091245263814926,
                    0.14741797745227814,
                    0.09829293936491013,
                    0.039738088846206665,
                    -0.17636238038539886,
                    0.042126622051000595,
                    -0.031161775812506676,
                    -0.13651619851589203,
                    -0.197996124625206,
                    -0.040692757815122604,
                    -0.18281404674053192,
                    -0.11377298086881638,
                    0.046892859041690826,
                    -0.11111008375883102,
                    0.042594410479068756,
                    -0.05340014025568962,
                    0.009510149247944355,
                    0.09014592319726944,
                    -0.04208311811089516,
                    -0.17498672008514404,
                    -0.10686735808849335,
                    -0.08543885499238968,
                    0.11146015673875809,
                    0.12983502447605133
                ],
                [
                    -0.13110500574111938,
                    -0.1240425854921341,
                    0.010997367091476917,
                    -0.16272324323654175,
                    -0.0645781084895134,
                    0.033608872443437576,
                    -0.05942817032337189,
                    -0.07856741547584534,
                    -0.11870674043893814,
                    0.025605609640479088,
                    0.020532112568616867,
                    -0.002184939570724964,
                    -0.01091819815337658,
                    0.02225860208272934,
                    0.0336855947971344,
                    0.17955532670021057,
                    -0.012036365456879139,
                    -0.2108670026063919,
                    0.06658235937356949,
                    -0.19182303547859192,
                    -0.07745550572872162,
                    0.03315607085824013,
                    0.022659247741103172,
                    -0.011096232570707798,
                    0.029841704294085503,
                    -0.07714178413152695,
                    0.1319512277841568,
                    0.15270914137363434,
                    0.10563798248767853,
                    -0.02639971673488617,
                    0.10088717192411423,
                    -0.12478003650903702,
                    -0.011898488737642765,
                    -0.042097773402929306,
                    0.03228999674320221,
                    -0.19668710231781006,
                    -0.16086888313293457,
                    -0.1255265772342682,
                    0.12204890698194504,
                    -0.17106886208057404,
                    -0.03897476568818092,
                    0.020125679671764374,
                    -0.19484609365463257,
                    0.012772529385983944,
                    0.043862234801054,
                    0.0055048116482794285,
                    0.07106821984052658,
                    -0.15161412954330444,
                    0.06775051355361938,
                    -0.011328061111271381,
                    -0.02495579980313778,
                    0.129623681306839,
                    -0.02486329711973667,
                    0.03270677849650383,
                    0.08649677038192749,
                    -0.18574132025241852,
                    -0.03312697634100914,
                    0.11757271736860275,
                    0.006936891004443169,
                    0.11228753626346588,
                    0.11480512470006943,
                    -0.07935792207717896,
                    -0.17195747792720795,
                    0.0502142496407032,
                    0.03372025862336159,
                    0.14882132411003113,
                    -0.10793479532003403,
                    -0.014082642272114754,
                    0.07572732865810394,
                    0.09869043529033661,
                    -0.1660059541463852,
                    -0.19332049787044525,
                    0.027299048379063606,
                    -0.039470888674259186,
                    -0.020497996360063553,
                    0.1528710126876831,
                    -0.05213961750268936,
                    0.1864090859889984,
                    -0.14447763562202454,
                    -0.08110388368368149,
                    0.08507201820611954,
                    -0.15235789120197296,
                    0.17255167663097382,
                    0.06748951226472855,
                    0.0031784805469214916,
                    -0.08354736864566803,
                    -0.03189961612224579,
                    -0.08819767087697983,
                    -0.13230887055397034,
                    0.13621893525123596,
                    0.07933459430932999,
                    0.15593677759170532,
                    -0.16099290549755096,
                    -0.1372256726026535,
                    -0.14646613597869873,
                    -0.12159202992916107,
                    -0.15007658302783966,
                    -0.13793770968914032,
                    0.19100992381572723,
                    -0.05664236843585968
                ],
                [
                    0.13043932616710663,
                    -0.11355416476726532,
                    -0.06018104404211044,
                    -0.07504993677139282,
                    -0.10908370465040207,
                    -0.03859691321849823,
                    -0.10637282580137253,
                    -0.011972285807132721,
                    0.1229710504412651,
                    -0.10051219165325165,
                    0.05855512619018555,
                    0.19527029991149902,
                    0.02823890745639801,
                    0.0017783001530915499,
                    -0.0986955538392067,
                    0.12123336642980576,
                    -0.017776837572455406,
                    -0.046546321362257004,
                    -0.15657562017440796,
                    -0.2006932646036148,
                    -0.04346403852105141,
                    0.197938472032547,
                    0.15061914920806885,
                    0.18532858788967133,
                    0.08348692208528519,
                    -0.11927348375320435,
                    -0.17674620449543,
                    -0.07292879372835159,
                    -0.08509297668933868,
                    -0.2044854611158371,
                    0.1989407241344452,
                    0.007780673913657665,
                    0.03946033492684364,
                    0.08509466052055359,
                    0.06043797731399536,
                    -0.17944176495075226,
                    -0.05157899111509323,
                    0.013567282818257809,
                    -0.07024184614419937,
                    0.07760809361934662,
                    0.12158630788326263,
                    0.05714288353919983,
                    0.05124665051698685,
                    -0.06061891093850136,
                    -0.05101654306054115,
                    -0.08875984698534012,
                    -0.0230605099350214,
                    -0.014134982600808144,
                    -0.09048554301261902,
                    0.11540500819683075,
                    -0.13304278254508972,
                    0.11093879491090775,
                    -0.15634365379810333,
                    -0.22292552888393402,
                    -0.21279655396938324,
                    -0.1033133715391159,
                    -0.019820496439933777,
                    -0.14316830039024353,
                    -0.16770778596401215,
                    -0.17220228910446167,
                    0.11321531981229782,
                    -0.10221750289201736,
                    -0.06804927438497543,
                    -0.026091206818819046,
                    -0.040946006774902344,
                    0.16226638853549957,
                    -0.05792451649904251,
                    0.010203997604548931,
                    0.1306227296590805,
                    0.13276061415672302,
                    0.18147383630275726,
                    0.2544400990009308,
                    -0.08079804480075836,
                    -0.16415248811244965,
                    0.15611237287521362,
                    -0.055851370096206665,
                    -0.0023312848061323166,
                    0.14127080142498016,
                    -0.009345303289592266,
                    0.0724874958395958,
                    0.254729300737381,
                    0.24403157830238342,
                    -0.0010028908727690578,
                    -0.14123748242855072,
                    -0.1414773166179657,
                    0.08729004114866257,
                    -0.06830336153507233,
                    0.21917308866977692,
                    -0.12296673655509949,
                    -0.11758104711771011,
                    0.22382394969463348,
                    0.04161722958087921,
                    0.05249686539173126,
                    -0.08531978726387024,
                    0.1955549418926239,
                    -0.06988561898469925,
                    -0.1512109488248825,
                    -0.028930021449923515,
                    0.006207315716892481,
                    -0.12086526304483414
                ],
                [
                    0.18651007115840912,
                    -0.2067955732345581,
                    -0.20091606676578522,
                    -0.17005391418933868,
                    0.02475695125758648,
                    0.10806804150342941,
                    -0.07274924963712692,
                    -0.033488813787698746,
                    -0.07861363142728806,
                    -0.014717044308781624,
                    -0.10375603288412094,
                    -0.1973499357700348,
                    0.08534552901983261,
                    -0.09894713759422302,
                    0.08353493362665176,
                    -0.007398937363177538,
                    -0.0004969237488694489,
                    -0.06885552406311035,
                    -0.23017849028110504,
                    0.1233474388718605,
                    -0.05716829374432564,
                    -0.06666085124015808,
                    -0.0990157350897789,
                    -0.14431558549404144,
                    -0.13867703080177307,
                    0.09757763147354126,
                    -0.12182896584272385,
                    -0.12072554975748062,
                    -0.056018196046352386,
                    -0.1400183141231537,
                    0.0267536211758852,
                    0.0011493964120745659,
                    0.06589089334011078,
                    -0.05185985565185547,
                    -0.09431279450654984,
                    0.10114912688732147,
                    0.10488251596689224,
                    0.1071677953004837,
                    0.010843147523701191,
                    0.13425706326961517,
                    0.025474760681390762,
                    0.049198586493730545,
                    0.008746112696826458,
                    -0.2720053195953369,
                    0.12407610565423965,
                    0.06609530746936798,
                    -0.19178196787834167,
                    0.09513624757528305,
                    -0.1752585917711258,
                    -0.13686096668243408,
                    0.008030811324715614,
                    -0.18895502388477325,
                    0.11325231939554214,
                    -0.0754343643784523,
                    -0.11707517504692078,
                    -0.030415233224630356,
                    0.1217268705368042,
                    -0.04880068451166153,
                    -0.07151798903942108,
                    -0.07142674177885056,
                    -0.18753911554813385,
                    -0.19819149374961853,
                    0.20398037135601044,
                    0.2368306815624237,
                    -0.07301677018404007,
                    0.14416365325450897,
                    0.2939673662185669,
                    0.27358630299568176,
                    -0.19681189954280853,
                    -0.11112691462039948,
                    0.2511237859725952,
                    0.013232014141976833,
                    -0.1902792751789093,
                    0.13180571794509888,
                    -0.12366380542516708,
                    0.17515750229358673,
                    -0.0992373526096344,
                    0.10037935525178909,
                    0.09751776605844498,
                    -0.1210421472787857,
                    0.26297661662101746,
                    -0.2660602033138275,
                    -0.06897129863500595,
                    0.02623455412685871,
                    0.13132493197917938,
                    0.029911397024989128,
                    0.04989249259233475,
                    -0.023576883599162102,
                    -0.17231152951717377,
                    -0.03237633407115936,
                    0.34749332070350647,
                    0.015507162548601627,
                    -0.10276856273412704,
                    -0.09563802182674408,
                    -0.15229766070842743,
                    0.10984236747026443,
                    -0.24441078305244446,
                    0.11730487644672394,
                    -0.1835140436887741,
                    -0.03488732874393463
                ],
                [
                    -0.057463373988866806,
                    -0.11293065547943115,
                    0.07680787146091461,
                    0.009428317658603191,
                    -0.16843299567699432,
                    -0.08452281355857849,
                    0.02754140831530094,
                    0.014690558426082134,
                    0.1505022794008255,
                    -0.0360434465110302,
                    0.11544051021337509,
                    -0.06810231506824493,
                    0.1499410718679428,
                    0.10645610094070435,
                    -0.04011543467640877,
                    0.024091487750411034,
                    -0.16428087651729584,
                    0.1492026150226593,
                    0.06610173732042313,
                    0.02856082282960415,
                    0.02987316995859146,
                    -0.21336117386817932,
                    0.12554745376110077,
                    -0.20219337940216064,
                    0.12054683268070221,
                    -0.06586037576198578,
                    0.03631967678666115,
                    0.032419655472040176,
                    0.16311919689178467,
                    -0.20439890027046204,
                    -0.11869346350431442,
                    0.06307794153690338,
                    -0.04162133112549782,
                    -0.17573124170303345,
                    0.18948550522327423,
                    -0.16593800485134125,
                    0.10820367932319641,
                    -0.10704785585403442,
                    -0.15573027729988098,
                    -0.12626111507415771,
                    -0.053366996347904205,
                    0.07584495842456818,
                    -0.17469419538974762,
                    -0.19611231982707977,
                    -0.11977723985910416,
                    -0.08598309755325317,
                    0.06791145354509354,
                    -0.09260635823011398,
                    0.07145377993583679,
                    -0.15355120599269867,
                    0.09877949953079224,
                    -0.028116891160607338,
                    0.020925596356391907,
                    -0.014488013461232185,
                    0.05967933312058449,
                    -0.16990938782691956,
                    -0.06340440362691879,
                    0.18362872302532196,
                    0.17104089260101318,
                    -0.1337793618440628,
                    0.09919987618923187,
                    -0.0907742828130722,
                    -0.0074788895435631275,
                    0.045152172446250916,
                    -0.13672637939453125,
                    -0.12082310765981674,
                    -0.012422489933669567,
                    -0.19442960619926453,
                    -0.15137258172035217,
                    0.11005078256130219,
                    0.13606233894824982,
                    -0.1798146367073059,
                    0.1681443154811859,
                    -0.004412663634866476,
                    -0.07463343441486359,
                    -0.1799132078886032,
                    0.13736984133720398,
                    -0.08366398513317108,
                    -0.09373341500759125,
                    0.0538237988948822,
                    -0.15303556621074677,
                    0.11162690073251724,
                    0.1911882758140564,
                    0.18168921768665314,
                    -0.14351186156272888,
                    0.09647215157747269,
                    0.12963047623634338,
                    0.013626941479742527,
                    0.07783522456884384,
                    0.15601050853729248,
                    -0.21526965498924255,
                    -0.04010758548974991,
                    -0.11904043704271317,
                    -0.0864555761218071,
                    0.10245658457279205,
                    0.1611582189798355,
                    0.04511290788650513,
                    -0.17280004918575287,
                    0.06272324174642563,
                    -0.08633581548929214
                ],
                [
                    0.037057191133499146,
                    0.1580241173505783,
                    -0.09818373620510101,
                    -0.04686326906085014,
                    0.17731384932994843,
                    0.15762457251548767,
                    -0.14382360875606537,
                    -0.09841711819171906,
                    -0.007369300816208124,
                    0.2756170630455017,
                    -0.009137735702097416,
                    0.1348952203989029,
                    -0.11189783364534378,
                    -0.21736998856067657,
                    -0.2202182412147522,
                    -0.18000510334968567,
                    0.012682676315307617,
                    -0.21990783512592316,
                    -0.04295022040605545,
                    0.11358046531677246,
                    0.17674818634986877,
                    0.1160869300365448,
                    -0.004764014855027199,
                    0.11867986619472504,
                    -0.0912490040063858,
                    -0.07716590911149979,
                    0.09688422083854675,
                    -0.001296843052841723,
                    -0.17421555519104004,
                    -0.2027224451303482,
                    -0.15421342849731445,
                    0.22171014547348022,
                    -0.07272543758153915,
                    -0.18442384898662567,
                    -0.1628405898809433,
                    -0.27509385347366333,
                    -0.23380078375339508,
                    -0.19662268459796906,
                    0.024180838838219643,
                    -0.1579095870256424,
                    0.026977939531207085,
                    0.18085001409053802,
                    -0.05877677723765373,
                    0.06296534836292267,
                    -0.19264522194862366,
                    0.0706803947687149,
                    -0.15647411346435547,
                    -0.17843125760555267,
                    -0.18484915792942047,
                    -0.07939174026250839,
                    0.23279117047786713,
                    0.049089472740888596,
                    0.24440176784992218,
                    0.054993946105241776,
                    0.015414903871715069,
                    -0.0570555217564106,
                    0.09557075798511505,
                    -0.07148504257202148,
                    -0.018406959250569344,
                    -0.08545111864805222,
                    0.12307102233171463,
                    0.10331976413726807,
                    -0.13333508372306824,
                    -0.07784565538167953,
                    0.07651257514953613,
                    -0.17179067432880402,
                    -0.10858330130577087,
                    -0.17222557961940765,
                    -0.23625609278678894,
                    -0.251537561416626,
                    0.0720382109284401,
                    -0.19336295127868652,
                    0.06614696234464645,
                    -0.10182210057973862,
                    0.08002451807260513,
                    -0.02089667320251465,
                    -0.1621762365102768,
                    -0.0295433197170496,
                    0.031489789485931396,
                    -0.01930854469537735,
                    0.10453905910253525,
                    -0.04340742155909538,
                    -0.0044106971472501755,
                    -0.14972242712974548,
                    -0.2877517640590668,
                    0.068476103246212,
                    -0.12291397154331207,
                    0.0328655019402504,
                    0.14209166169166565,
                    0.16696672141551971,
                    -0.15518082678318024,
                    0.0033533733803778887,
                    -0.034846119582653046,
                    -0.23972934484481812,
                    -0.10930202156305313,
                    0.0971827358007431,
                    -0.11060081422328949,
                    0.24918916821479797,
                    0.16717681288719177,
                    -0.01414898969233036
                ],
                [
                    -0.15309907495975494,
                    -0.0867294892668724,
                    0.05412684753537178,
                    0.1394316852092743,
                    0.00411146879196167,
                    0.28440502285957336,
                    0.17445367574691772,
                    -0.1555148810148239,
                    0.06747599691152573,
                    -0.09650912135839462,
                    0.07724796235561371,
                    0.2755698561668396,
                    -0.05540281534194946,
                    -0.07160738110542297,
                    -0.0765528604388237,
                    0.24924121797084808,
                    0.1788313239812851,
                    -0.06152890995144844,
                    0.10084014385938644,
                    0.23865166306495667,
                    0.004107079468667507,
                    0.02013266086578369,
                    -0.16004420816898346,
                    -0.0187296811491251,
                    0.16238141059875488,
                    -0.06227078661322594,
                    0.08588375151157379,
                    0.1448228806257248,
                    0.12390061467885971,
                    -0.12352712452411652,
                    0.04347608983516693,
                    0.16140717267990112,
                    -0.07379751652479172,
                    0.1563950926065445,
                    0.2236078381538391,
                    0.20865046977996826,
                    0.030238209292292595,
                    -0.1805502325296402,
                    -0.05083838105201721,
                    0.025293221697211266,
                    0.12202712148427963,
                    0.13442690670490265,
                    0.03490833193063736,
                    -0.11607056856155396,
                    -0.13773180544376373,
                    -0.19284506142139435,
                    0.21822760999202728,
                    0.11317237466573715,
                    -0.17126743495464325,
                    -0.17238306999206543,
                    0.07957586646080017,
                    0.1170271560549736,
                    -0.06173159182071686,
                    -0.0325753353536129,
                    -0.06304256618022919,
                    0.16886016726493835,
                    -0.032178498804569244,
                    0.12433569878339767,
                    0.09158627688884735,
                    -0.20250490307807922,
                    0.11993376165628433,
                    0.14216025173664093,
                    0.08263382315635681,
                    0.20528653264045715,
                    -0.1283680647611618,
                    -0.011506574228405952,
                    -0.0802290067076683,
                    -0.017835555598139763,
                    -0.17776508629322052,
                    -0.2583458125591278,
                    -0.05460752174258232,
                    -0.015459231100976467,
                    -0.0756077766418457,
                    0.10104340314865112,
                    -0.17325828969478607,
                    0.05906171351671219,
                    -0.11531130224466324,
                    0.16478244960308075,
                    -0.13792940974235535,
                    0.010099058970808983,
                    0.06503993272781372,
                    -0.10099104791879654,
                    -0.16047434508800507,
                    0.08171704411506653,
                    -0.2520368695259094,
                    0.1817067414522171,
                    0.09932438284158707,
                    -0.12570835649967194,
                    0.09724503010511398,
                    0.06737020611763,
                    0.09378165006637573,
                    0.08902568370103836,
                    -0.1619570404291153,
                    -0.014778624288737774,
                    -0.12895028293132782,
                    0.17725162208080292,
                    0.03801507502794266,
                    -0.05683373287320137,
                    0.11214073747396469,
                    0.1779136061668396
                ],
                [
                    -0.18145011365413666,
                    -0.008583180606365204,
                    -0.06024116277694702,
                    0.07595394551753998,
                    0.0660964623093605,
                    -0.033217303454875946,
                    0.09277975559234619,
                    -0.22809737920761108,
                    0.09431104362010956,
                    0.04774024337530136,
                    0.12475316226482391,
                    -0.21702104806900024,
                    -0.05012330040335655,
                    -0.04970327764749527,
                    0.039910413324832916,
                    0.1437911093235016,
                    0.03201202303171158,
                    0.08083292841911316,
                    -0.16436485946178436,
                    -0.03952253237366676,
                    -0.19705577194690704,
                    -0.00997252482920885,
                    -0.25621306896209717,
                    0.07518794387578964,
                    0.09736673533916473,
                    0.1475345939397812,
                    0.0845431238412857,
                    0.22651582956314087,
                    0.13902895152568817,
                    -0.023381970822811127,
                    0.07004435360431671,
                    0.061091821640729904,
                    -0.02698567695915699,
                    -0.003249957226216793,
                    -0.05166693404316902,
                    0.05001899227499962,
                    -0.09567009657621384,
                    -0.2214478850364685,
                    0.056305497884750366,
                    0.017762647941708565,
                    -0.037142012268304825,
                    0.10304848104715347,
                    -0.11623627692461014,
                    -0.04655136913061142,
                    -0.08522272855043411,
                    0.07532955706119537,
                    -0.1587911695241928,
                    -0.02103571780025959,
                    -0.0032990663312375546,
                    -0.08900709450244904,
                    -0.05799664184451103,
                    -0.30613234639167786,
                    -0.03259308263659477,
                    -0.052836835384368896,
                    -0.18575313687324524,
                    -0.02597085013985634,
                    -0.14484338462352753,
                    0.2582530081272125,
                    0.03513706102967262,
                    0.2331792712211609,
                    -0.12397581338882446,
                    -0.21086333692073822,
                    -0.23731668293476105,
                    -0.14755839109420776,
                    0.1177331730723381,
                    0.07735589146614075,
                    0.14074380695819855,
                    -0.0011839481303468347,
                    0.004976933356374502,
                    0.2802768349647522,
                    -0.01870195008814335,
                    -0.19165821373462677,
                    0.0904386043548584,
                    -0.08912982791662216,
                    0.1944669783115387,
                    -0.20521123707294464,
                    0.14739596843719482,
                    -0.09765379875898361,
                    0.00558490538969636,
                    0.0342862531542778,
                    0.15386846661567688,
                    -0.038843195885419846,
                    0.02032496966421604,
                    -0.00843718834221363,
                    -0.011435862630605698,
                    0.00943224597722292,
                    -0.08814986050128937,
                    0.044214215129613876,
                    -0.1830272525548935,
                    -0.02032366208732128,
                    -0.18428859114646912,
                    -0.15011702477931976,
                    0.017201784998178482,
                    0.004121803678572178,
                    -0.07946731895208359,
                    0.050722330808639526,
                    0.04386991262435913,
                    0.057526618242263794,
                    0.04242895543575287,
                    -0.2312401980161667
                ],
                [
                    0.20524872839450836,
                    0.05664417892694473,
                    0.15384472906589508,
                    -0.0698123499751091,
                    -0.10766114294528961,
                    0.13449594378471375,
                    0.09941671043634415,
                    0.0771709755063057,
                    -0.13012278079986572,
                    -0.08054962009191513,
                    0.1453106701374054,
                    -0.16615305840969086,
                    -0.09664357453584671,
                    0.06740450114011765,
                    -0.1579589694738388,
                    -0.1628391593694687,
                    0.05922126770019531,
                    -0.04849502071738243,
                    -0.027434654533863068,
                    -0.0274127759039402,
                    0.15291275084018707,
                    0.08645772188901901,
                    0.15309679508209229,
                    -0.19833135604858398,
                    0.051876217126846313,
                    0.054381389170885086,
                    0.0882086455821991,
                    -0.10167671740055084,
                    -0.029164915904402733,
                    0.06478232890367508,
                    0.07840532064437866,
                    0.27173948287963867,
                    -0.1378931850194931,
                    -0.14590460062026978,
                    -0.23435355722904205,
                    -0.17308875918388367,
                    0.20792265236377716,
                    0.054638590663671494,
                    -0.06742233783006668,
                    0.1778610646724701,
                    -0.12371242791414261,
                    0.05052034929394722,
                    -0.09334907680749893,
                    0.18022315204143524,
                    0.20397034287452698,
                    -0.007860810495913029,
                    0.15650500357151031,
                    -0.036520469933748245,
                    0.034964419901371,
                    -0.07424070686101913,
                    0.05521003529429436,
                    0.17638418078422546,
                    0.2235993891954422,
                    -0.13099683821201324,
                    0.14578615128993988,
                    0.1186390295624733,
                    -0.06865973770618439,
                    -0.08888662606477737,
                    0.00001723321111057885,
                    -0.026223648339509964,
                    -0.11959467083215714,
                    0.036109376698732376,
                    -0.19171449542045593,
                    0.051567718386650085,
                    0.11083171516656876,
                    0.14765867590904236,
                    -0.10257640480995178,
                    -0.020418677479028702,
                    -0.27341610193252563,
                    0.1383887529373169,
                    -0.11853104829788208,
                    -0.2372862547636032,
                    -0.12677785754203796,
                    -0.1594763696193695,
                    0.045771028846502304,
                    0.08287601172924042,
                    0.2112606316804886,
                    0.009821604005992413,
                    0.14355745911598206,
                    -0.21443778276443481,
                    -0.1459692120552063,
                    -0.12639160454273224,
                    -0.21080639958381653,
                    0.15480384230613708,
                    -0.14048144221305847,
                    0.0019624894484877586,
                    -0.055789873003959656,
                    -0.027543077245354652,
                    0.011447519063949585,
                    0.029758485034108162,
                    -0.03842565789818764,
                    0.11094705015420914,
                    -0.0857582688331604,
                    0.11853881180286407,
                    0.11126355826854706,
                    0.13253732025623322,
                    0.04227034002542496,
                    -0.06087426096200943,
                    -0.12547193467617035,
                    -0.0017386109102517366
                ],
                [
                    0.13008472323417664,
                    -0.047212857753038406,
                    -0.16623499989509583,
                    -0.13295702636241913,
                    -0.207834854722023,
                    -0.13271571695804596,
                    0.05775457248091698,
                    -0.031618837267160416,
                    -0.07516451179981232,
                    0.11073777824640274,
                    0.11024807393550873,
                    0.04320881515741348,
                    0.0645575076341629,
                    -0.0659434124827385,
                    -0.030624840408563614,
                    0.023121435195207596,
                    -0.14929038286209106,
                    0.11867480725049973,
                    -0.2033161073923111,
                    0.024304339662194252,
                    -0.07237744331359863,
                    -0.1304277777671814,
                    0.08183405548334122,
                    0.0046902429312467575,
                    0.09310733526945114,
                    -0.1747933179140091,
                    -0.11993826180696487,
                    -0.02397972345352173,
                    -0.20259429514408112,
                    -0.10905526578426361,
                    0.10219694674015045,
                    0.09945212304592133,
                    -0.1176791787147522,
                    -0.03825210779905319,
                    -0.10606738924980164,
                    -0.03682618588209152,
                    0.04240166395902634,
                    0.1530606746673584,
                    -0.11609897017478943,
                    -0.020210077986121178,
                    -0.04731587693095207,
                    -0.11927169561386108,
                    -0.03935491293668747,
                    -0.01414160430431366,
                    -0.18178364634513855,
                    -0.027137121185660362,
                    -0.13678130507469177,
                    0.0435987263917923,
                    0.07728704065084457,
                    0.022098857909440994,
                    -0.06412145495414734,
                    0.1687956154346466,
                    -0.08254086971282959,
                    -0.12427795678377151,
                    0.06430231034755707,
                    0.10236074775457382,
                    -0.05102909728884697,
                    0.05323419347405434,
                    -0.14856047928333282,
                    0.03309827670454979,
                    0.03874807059764862,
                    -0.061996668577194214,
                    0.139033704996109,
                    0.08134055137634277,
                    0.04496736824512482,
                    -0.05109338462352753,
                    0.07388987392187119,
                    0.02999185211956501,
                    0.13964472711086273,
                    0.02569030597805977,
                    0.1304081380367279,
                    0.15503369271755219,
                    -0.06393564492464066,
                    -0.06616360694169998,
                    0.11513952910900116,
                    -0.0778500884771347,
                    0.13579584658145905,
                    0.16785135865211487,
                    -0.1221320852637291,
                    0.11879027634859085,
                    -0.0405937060713768,
                    0.0910663902759552,
                    -0.14004993438720703,
                    -0.05981255695223808,
                    -0.2308061122894287,
                    -0.02281484194099903,
                    -0.16407440602779388,
                    -0.19970472157001495,
                    0.03666524589061737,
                    0.035324789583683014,
                    -0.055887818336486816,
                    -0.08652922511100769,
                    0.04573531448841095,
                    0.006271895952522755,
                    0.005576226394623518,
                    0.12793785333633423,
                    0.055181752890348434,
                    0.07494636625051498,
                    0.10878583043813705,
                    0.11884851008653641
                ],
                [
                    -0.013949899934232235,
                    -0.167962446808815,
                    -0.13106639683246613,
                    -0.2078947275876999,
                    0.08810827136039734,
                    -0.19551756978034973,
                    -0.23303084075450897,
                    -0.07085075229406357,
                    -0.11770190298557281,
                    0.01663248799741268,
                    0.11132481694221497,
                    0.026365965604782104,
                    0.07165690511465073,
                    -0.12900784611701965,
                    0.11039802432060242,
                    -0.058944955468177795,
                    -0.06759371608495712,
                    -0.16876320540905,
                    -0.01254112645983696,
                    -0.029546288773417473,
                    -0.1746533364057541,
                    -0.13428911566734314,
                    0.049687959253787994,
                    -0.1091628223657608,
                    -0.0728839784860611,
                    -0.25651562213897705,
                    -0.06061578914523125,
                    -0.14599621295928955,
                    -0.2007211148738861,
                    -0.03261062875390053,
                    -0.028773890808224678,
                    -0.26822829246520996,
                    -0.03419419005513191,
                    -0.231772780418396,
                    -0.026046166196465492,
                    -0.21485774219036102,
                    0.06533904373645782,
                    -0.11722021549940109,
                    -0.08826278150081635,
                    -0.09727418422698975,
                    -0.1899607926607132,
                    0.03600236400961876,
                    0.08663547784090042,
                    0.034716494381427765,
                    0.04530670493841171,
                    -0.1058521494269371,
                    -0.23383525013923645,
                    0.14441223442554474,
                    0.0853237733244896,
                    -0.18768653273582458,
                    -0.08901774883270264,
                    -0.10864967107772827,
                    -0.08995039761066437,
                    -0.19201859831809998,
                    0.12659770250320435,
                    0.2058144211769104,
                    0.011265969835221767,
                    -0.12109770625829697,
                    0.03486151993274689,
                    -0.05455939471721649,
                    -0.2061621993780136,
                    -0.0930962786078453,
                    0.10565181821584702,
                    -0.18846330046653748,
                    0.11825788766145706,
                    -0.011731496080756187,
                    0.054478101432323456,
                    -0.23424746096134186,
                    0.028770647943019867,
                    -0.07846624404191971,
                    -0.020184176042675972,
                    -0.2710573971271515,
                    -0.15718209743499756,
                    0.07339756935834885,
                    0.0871998518705368,
                    0.0656149834394455,
                    0.03743179887533188,
                    -0.18124215304851532,
                    -0.06191591918468475,
                    0.11291378736495972,
                    -0.11802509427070618,
                    -0.037569765001535416,
                    0.08058963716030121,
                    -0.15924783051013947,
                    0.06690628826618195,
                    -0.058721695095300674,
                    -0.000006331455097097205,
                    0.16132952272891998,
                    -0.061914682388305664,
                    0.07469646632671356,
                    -0.12896938621997833,
                    -0.05095364898443222,
                    0.08551040291786194,
                    0.06144453585147858,
                    -0.15181048214435577,
                    0.007684311829507351,
                    -0.27724286913871765,
                    0.06616198271512985,
                    0.13613979518413544,
                    0.1604621857404709
                ],
                [
                    0.08511984348297119,
                    -0.20720155537128448,
                    0.09408184885978699,
                    0.0104062519967556,
                    0.10628450661897659,
                    -0.01635540835559368,
                    -0.1523892730474472,
                    0.1792708933353424,
                    0.007331784348934889,
                    0.11349965631961823,
                    0.0865745097398758,
                    -0.007922276854515076,
                    -0.20570442080497742,
                    0.08494134247303009,
                    0.0391746461391449,
                    -0.1585647612810135,
                    -0.12172740697860718,
                    0.07970540225505829,
                    0.004929279442876577,
                    0.014803359284996986,
                    0.15595847368240356,
                    0.19597205519676208,
                    0.14794950187206268,
                    -0.15293167531490326,
                    -0.1484106332063675,
                    -0.02584991045296192,
                    -0.2310839295387268,
                    0.03459000587463379,
                    -0.18438169360160828,
                    -0.032546717673540115,
                    0.12312301993370056,
                    -0.12443462014198303,
                    0.16751337051391602,
                    0.14680851995944977,
                    -0.0984150767326355,
                    0.11708834022283554,
                    -0.10118696093559265,
                    0.14012081921100616,
                    0.10401604324579239,
                    0.12029384076595306,
                    0.12288589775562286,
                    -0.016395891085267067,
                    -0.13516241312026978,
                    -0.022391242906451225,
                    -0.04009563475847244,
                    0.07393370568752289,
                    0.07367788255214691,
                    0.11486118286848068,
                    0.03372686728835106,
                    0.087277352809906,
                    -0.0005219109007157385,
                    -0.08327969163656235,
                    0.025740325450897217,
                    -0.19295206665992737,
                    0.07420182973146439,
                    0.03445380553603172,
                    0.025995906442403793,
                    -0.09186922758817673,
                    0.05463698133826256,
                    0.07608473300933838,
                    0.022595811635255814,
                    0.1588638871908188,
                    -0.245292529463768,
                    0.0004955918411724269,
                    -0.12643471360206604,
                    -0.06815128773450851,
                    -0.021102694794535637,
                    -0.049561869353055954,
                    -0.022297237068414688,
                    0.03234509006142616,
                    -0.08259574323892593,
                    -0.10065290331840515,
                    -0.10960599035024643,
                    -0.03778811916708946,
                    0.03747681528329849,
                    0.013200391083955765,
                    -0.13456577062606812,
                    -0.08768375962972641,
                    -0.10767044126987457,
                    -0.052275095134973526,
                    -0.19410529732704163,
                    -0.12261544167995453,
                    0.07965362817049026,
                    -0.1655689775943756,
                    0.15892460942268372,
                    0.07247716188430786,
                    0.10349351167678833,
                    -0.08311107754707336,
                    -0.0370955727994442,
                    -0.13787496089935303,
                    -0.14920099079608917,
                    -0.10114872455596924,
                    -0.06421365588903427,
                    -0.14833813905715942,
                    -0.08920245617628098,
                    -0.21230626106262207,
                    -0.13036669790744781,
                    -0.03980110585689545,
                    0.14509882032871246,
                    0.13911135494709015
                ],
                [
                    -0.13723453879356384,
                    -0.13862766325473785,
                    0.16007831692695618,
                    0.1229085922241211,
                    -0.052228108048439026,
                    0.07356354594230652,
                    0.16185908019542694,
                    -0.03430844470858574,
                    -0.040781956166028976,
                    0.03194868937134743,
                    0.13046856224536896,
                    -0.14632132649421692,
                    0.08941945433616638,
                    0.03662114962935448,
                    -0.12064911425113678,
                    -0.202876016497612,
                    0.13479650020599365,
                    -0.11430835723876953,
                    -0.11229995638132095,
                    0.12091744691133499,
                    0.1122119352221489,
                    0.13152973353862762,
                    -0.09493273496627808,
                    -0.1204666718840599,
                    -0.03402293846011162,
                    0.021553348749876022,
                    0.13077940046787262,
                    -0.17697404325008392,
                    -0.14196538925170898,
                    -0.17892470955848694,
                    -0.0053521376103162766,
                    0.02364528365433216,
                    0.13570529222488403,
                    0.03297103941440582,
                    -0.2026960849761963,
                    0.0716174989938736,
                    -0.16085606813430786,
                    0.04510961100459099,
                    0.03761288896203041,
                    0.15076136589050293,
                    -0.06708201766014099,
                    0.01970006711781025,
                    -0.19713351130485535,
                    0.07439551502466202,
                    -0.0731361135840416,
                    0.07794523984193802,
                    0.07516366243362427,
                    -0.03707344830036163,
                    -0.035050634294748306,
                    -0.15985827147960663,
                    0.09796763956546783,
                    0.17024977505207062,
                    0.03627754747867584,
                    -0.011891831643879414,
                    0.03032315894961357,
                    -0.09958081692457199,
                    0.13150686025619507,
                    -0.13774541020393372,
                    -0.11159203946590424,
                    -0.13959428668022156,
                    -0.06430235505104065,
                    0.1578742116689682,
                    -0.1374933272600174,
                    -0.006124493665993214,
                    0.16552256047725677,
                    -0.051124248653650284,
                    -0.13192057609558105,
                    -0.18055376410484314,
                    0.10142216831445694,
                    -0.07920529693365097,
                    -0.011056996881961823,
                    -0.15190361440181732,
                    -0.1295255720615387,
                    -0.19234435260295868,
                    0.027832359075546265,
                    -0.1611175686120987,
                    0.024445202201604843,
                    -0.2042495459318161,
                    0.12757642567157745,
                    0.012785322032868862,
                    0.10620558261871338,
                    -0.15439622104167938,
                    0.03731847181916237,
                    0.0016526139806956053,
                    -0.21342194080352783,
                    0.10995633155107498,
                    0.1462029218673706,
                    -0.00020389827841427177,
                    -0.03897839039564133,
                    0.04071751609444618,
                    -0.0018663184018805623,
                    0.1822461634874344,
                    0.03233068063855171,
                    0.09034331887960434,
                    0.05499161034822464,
                    0.06036604940891266,
                    0.12308284640312195,
                    -0.031518466770648956,
                    -0.1573193520307541,
                    -0.15801990032196045
                ],
                [
                    -0.18058639764785767,
                    -0.04492398351430893,
                    -0.025323154404759407,
                    -0.06525548547506332,
                    -0.16604819893836975,
                    0.17325668036937714,
                    0.1105976477265358,
                    -0.1806122213602066,
                    -0.010628174059092999,
                    -0.0947461724281311,
                    0.08006437122821808,
                    -0.18479841947555542,
                    -0.09891503304243088,
                    0.16386054456233978,
                    -0.13423654437065125,
                    -0.01293141022324562,
                    0.18419992923736572,
                    0.1871703863143921,
                    -0.050077829509973526,
                    0.16399630904197693,
                    0.0574047677218914,
                    0.1628332883119583,
                    -0.2035674750804901,
                    -0.029004743322730064,
                    0.0448385514318943,
                    0.15100061893463135,
                    -0.18385951220989227,
                    -0.1218012273311615,
                    -0.21168673038482666,
                    -0.2112112194299698,
                    -0.01526244729757309,
                    0.071610227227211,
                    -0.003526309272274375,
                    0.16048771142959595,
                    0.008744045160710812,
                    -0.10804186016321182,
                    0.1229364350438118,
                    -0.2555197775363922,
                    0.14707128703594208,
                    -0.09789483994245529,
                    -0.20316189527511597,
                    -0.03161241486668587,
                    0.007428327109664679,
                    -0.1650969237089157,
                    -0.13318797945976257,
                    -0.029485585168004036,
                    -0.16175036132335663,
                    0.03562101349234581,
                    -0.017423490062355995,
                    -0.022968601435422897,
                    0.12286096066236496,
                    0.16264845430850983,
                    -0.1201045885682106,
                    -0.012181569822132587,
                    -0.05568712204694748,
                    -0.15440285205841064,
                    -0.04394431784749031,
                    -0.0006494849221780896,
                    0.050704777240753174,
                    -0.21466723084449768,
                    -0.15887980163097382,
                    -0.07560987770557404,
                    0.07990024238824844,
                    0.01613965816795826,
                    0.12252262979745865,
                    -0.06069950759410858,
                    0.13282784819602966,
                    -0.04878759756684303,
                    -0.1193358451128006,
                    -0.14492039382457733,
                    -0.12155643850564957,
                    0.12428854405879974,
                    -0.15953053534030914,
                    -0.0030793691985309124,
                    -0.06785057485103607,
                    0.1754065454006195,
                    0.11853940039873123,
                    0.1528501957654953,
                    0.042628612369298935,
                    0.07135322690010071,
                    -0.11369148641824722,
                    -0.07934332638978958,
                    0.15945832431316376,
                    0.14589393138885498,
                    0.020549161359667778,
                    0.1490294635295868,
                    0.16936053335666656,
                    -0.143508180975914,
                    0.07632769644260406,
                    -0.07856304943561554,
                    -0.15038518607616425,
                    -0.14622652530670166,
                    -0.1552661806344986,
                    0.05106008052825928,
                    -0.04418434202671051,
                    0.05210171639919281,
                    0.20055843889713287,
                    0.02083134464919567,
                    0.09430728852748871,
                    0.013175971806049347
                ],
                [
                    -0.10280333459377289,
                    0.12007630616426468,
                    0.027894293889403343,
                    0.16224262118339539,
                    0.07672636210918427,
                    -0.03697052597999573,
                    0.057852067053318024,
                    0.33474820852279663,
                    0.2620847225189209,
                    0.019617047160863876,
                    -0.03156428411602974,
                    -0.046133607625961304,
                    0.11228503286838531,
                    -0.22894994914531708,
                    -0.24915531277656555,
                    -0.08282896131277084,
                    0.008104576729238033,
                    -0.021946629509329796,
                    0.07236545532941818,
                    0.15419833362102509,
                    -0.2240072637796402,
                    -0.12210732698440552,
                    0.14346034824848175,
                    0.005903454031795263,
                    -0.06867621839046478,
                    -0.0852978304028511,
                    -0.11022511124610901,
                    0.2794162929058075,
                    0.00030776840867474675,
                    0.020598620176315308,
                    0.015176293440163136,
                    -0.1117749735713005,
                    0.09816639125347137,
                    -0.19719856977462769,
                    -0.12384773045778275,
                    -0.0070114838890731335,
                    0.2721734642982483,
                    0.3508634865283966,
                    0.0737924575805664,
                    -0.044532276690006256,
                    -0.03980866074562073,
                    0.16436199843883514,
                    0.044658590108156204,
                    -0.1610863208770752,
                    0.08520577102899551,
                    -0.027341948822140694,
                    0.20401376485824585,
                    -0.02984011545777321,
                    0.01829393394291401,
                    -0.2052057385444641,
                    -0.11800219863653183,
                    -0.01906280405819416,
                    0.16014449298381805,
                    -0.1310984045267105,
                    0.00358715676702559,
                    0.014898983761668205,
                    -0.16524118185043335,
                    -0.05392147973179817,
                    -0.045999761670827866,
                    -0.1561773121356964,
                    0.10490341484546661,
                    0.1599000245332718,
                    0.007557855919003487,
                    0.04692193865776062,
                    -0.030158061534166336,
                    0.012124788016080856,
                    -0.41463086009025574,
                    -0.312722772359848,
                    -0.17260445654392242,
                    -0.41945233941078186,
                    0.1616961807012558,
                    0.11434227228164673,
                    0.08461960405111313,
                    -0.16409087181091309,
                    -0.19708657264709473,
                    -0.10707563161849976,
                    -0.03405383974313736,
                    0.18804116547107697,
                    0.12201030552387238,
                    0.009927277453243732,
                    0.15869452059268951,
                    0.20198406279087067,
                    0.16015486419200897,
                    -0.1518368124961853,
                    0.14273184537887573,
                    0.022057924419641495,
                    0.24254202842712402,
                    0.1987275332212448,
                    -0.19191455841064453,
                    0.16105374693870544,
                    -0.011185980401933193,
                    -0.11030638217926025,
                    0.11549334973096848,
                    0.06437407433986664,
                    0.100910983979702,
                    -0.13323058187961578,
                    0.2509523034095764,
                    -0.05897192284464836,
                    -0.07396586239337921,
                    0.11539636552333832
                ],
                [
                    -0.06505145132541656,
                    -0.05731133744120598,
                    -0.04577188566327095,
                    -0.1393938809633255,
                    -0.11467374861240387,
                    0.09278195351362228,
                    -0.07549525797367096,
                    -0.04148222878575325,
                    -0.05080345273017883,
                    -0.22136175632476807,
                    -0.11628150194883347,
                    -0.008493563160300255,
                    -0.01777445524930954,
                    0.1311299055814743,
                    -0.15955400466918945,
                    -0.1518726497888565,
                    -0.10599172860383987,
                    0.14601249992847443,
                    0.004137059208005667,
                    0.14556562900543213,
                    0.11855729669332504,
                    0.13232211768627167,
                    -0.02330130524933338,
                    0.06003749370574951,
                    0.04914094880223274,
                    0.19228073954582214,
                    0.24636995792388916,
                    0.14650481939315796,
                    0.12109893560409546,
                    -0.1596924066543579,
                    0.03226582333445549,
                    -0.05058029294013977,
                    -0.041672587394714355,
                    0.21708433330059052,
                    0.15000690519809723,
                    -0.017289401963353157,
                    -0.2056080847978592,
                    0.23268136382102966,
                    0.1306636929512024,
                    0.09085648506879807,
                    -0.022456206381320953,
                    0.15243542194366455,
                    -0.12118444591760635,
                    -0.12133301794528961,
                    0.06854494661092758,
                    0.12596145272254944,
                    0.16615380346775055,
                    0.21982437372207642,
                    0.2026696503162384,
                    0.12191581726074219,
                    -0.0413808710873127,
                    -0.0577397421002388,
                    -0.26956117153167725,
                    0.14755474030971527,
                    -0.1667296588420868,
                    0.11887293308973312,
                    -0.12259570509195328,
                    0.12699759006500244,
                    0.17401158809661865,
                    -0.01917002722620964,
                    -0.18220297992229462,
                    -0.1975051611661911,
                    -0.07135976105928421,
                    0.008831647224724293,
                    0.05297570303082466,
                    0.04226924479007721,
                    0.3113385736942291,
                    0.18083961308002472,
                    0.05114409327507019,
                    -0.043086353689432144,
                    -0.06793258339166641,
                    0.05238939821720123,
                    0.14692004024982452,
                    -0.05036145821213722,
                    0.1537943035364151,
                    -0.2211623638868332,
                    0.07154964655637741,
                    0.017072759568691254,
                    0.07048049569129944,
                    0.2009952962398529,
                    -0.11702536791563034,
                    0.15591168403625488,
                    -0.02355797030031681,
                    0.21294839680194855,
                    0.27197590470314026,
                    0.10223902761936188,
                    -0.1032215878367424,
                    0.10437764972448349,
                    0.16237492859363556,
                    -0.023590080440044403,
                    -0.182628333568573,
                    -0.02045832946896553,
                    -0.0030894754454493523,
                    0.21909348666667938,
                    0.037605006247758865,
                    -0.21314097940921783,
                    0.034218013286590576,
                    -0.05080537870526314,
                    0.04934029281139374,
                    0.16508778929710388
                ],
                [
                    0.02867671474814415,
                    -0.11171108484268188,
                    -0.15960034728050232,
                    0.11068493872880936,
                    -0.0427120178937912,
                    -0.14254003763198853,
                    -0.17923420667648315,
                    0.17762991786003113,
                    -0.019140511751174927,
                    -0.005523222964257002,
                    -0.10960373282432556,
                    0.11948492377996445,
                    0.10012095421552658,
                    0.08163375407457352,
                    0.1939629316329956,
                    -0.08907880634069443,
                    -0.02081596851348877,
                    -0.1289636194705963,
                    -0.024017686024308205,
                    0.11241257190704346,
                    -0.1901950240135193,
                    -0.13826486468315125,
                    -0.003974097780883312,
                    0.06779593229293823,
                    -0.012963620014488697,
                    0.1416802555322647,
                    -0.039633896201848984,
                    -0.20519782602787018,
                    -0.1613486409187317,
                    0.07367778569459915,
                    0.18016622960567474,
                    -0.11386685073375702,
                    -0.1373952031135559,
                    -0.129388689994812,
                    -0.012555228546261787,
                    -0.0445437915623188,
                    -0.1829734742641449,
                    -0.17887264490127563,
                    -0.14697663486003876,
                    -0.04260501638054848,
                    -0.11923795193433762,
                    -0.09104181081056595,
                    -0.07310815155506134,
                    0.1130090057849884,
                    0.01650720275938511,
                    0.04646655172109604,
                    -0.07410041987895966,
                    0.14921942353248596,
                    0.021659864112734795,
                    -0.05374551936984062,
                    -0.1840915083885193,
                    -0.006458900403231382,
                    0.13603970408439636,
                    -0.16709871590137482,
                    0.14808593690395355,
                    0.11641346663236618,
                    0.1206010952591896,
                    -0.05608903616666794,
                    -0.08429823070764542,
                    0.10755199193954468,
                    -0.14966042339801788,
                    0.0780532956123352,
                    0.13365313410758972,
                    -0.1206684485077858,
                    -0.0029281924944370985,
                    0.20219184458255768,
                    -0.18545736372470856,
                    -0.032979972660541534,
                    -0.036901433020830154,
                    0.03574874624609947,
                    -0.1930736005306244,
                    0.020169729366898537,
                    0.13845103979110718,
                    0.16343002021312714,
                    -0.09419334679841995,
                    -0.15271523594856262,
                    0.08252033591270447,
                    -0.1315687745809555,
                    -0.15546630322933197,
                    0.14729832112789154,
                    0.016905048862099648,
