{
    "type": "NeuralNetworkGPU",
    "sizes": [
        100,
        100,
        100,
        100
    ],
    "layers": [
        {
            "weights": [],
            "biases": []
        },
        {
            "weights": [
                [
                    0.09250149130821228,
                    -0.2453404664993286,
                    -0.18222644925117493,
                    0.42369192838668823,
                    0.22108757495880127,
                    0.4796700179576874,
                    -0.23662056028842926,
                    -0.03432633727788925,
                    0.032774753868579865,
                    0.19002459943294525,
                    -0.04078831896185875,
                    -0.49297192692756653,
                    -0.11002068221569061,
                    -0.2964775264263153,
                    -0.007193222641944885,
                    -0.0029967210721224546,
                    -0.143695667386055,
                    -0.13943475484848022,
                    0.0008384360698983073,
                    0.5367108583450317,
                    -0.09163333475589752,
                    -0.3216990828514099,
                    -0.584515392780304,
                    -0.22879430651664734,
                    -0.012530057691037655,
                    -0.24337135255336761,
                    0.20914724469184875,
                    0.17420132458209991,
                    0.24109238386154175,
                    0.3594851493835449,
                    -0.03794556483626366,
                    -0.21805347502231598,
                    -0.5991490483283997,
                    -0.4745364487171173,
                    -0.3725159764289856,
                    -0.08911213278770447,
                    -0.15233637392520905,
                    0.26718202233314514,
                    0.18909335136413574,
                    -0.0713736042380333,
                    0.6321077346801758,
                    0.04096535965800285,
                    0.001080948393791914,
                    0.2636268436908722,
                    0.294242262840271,
                    0.2730114161968231,
                    -0.05337943881750107,
                    -0.20121128857135773,
                    -0.14518600702285767,
                    -0.12065518647432327,
                    0.7489988803863525,
                    0.18296124041080475,
                    -0.024739589542150497,
                    -0.04932316020131111,
                    0.03829405456781387,
                    0.06735397130250931,
                    0.3518191874027252,
                    0.03390675410628319,
                    -0.4879823923110962,
                    -0.4177852272987366,
                    0.39779818058013916,
                    0.30819666385650635,
                    0.4068824350833893,
                    -0.13515307009220123,
                    -0.18571297824382782,
                    -0.36921000480651855,
                    -0.22537603974342346,
                    0.36972442269325256,
                    -0.041587911546230316,
                    -0.2556726336479187,
                    -0.09673479944467545,
                    0.30951347947120667,
                    0.2799232602119446,
                    0.296440064907074,
                    -0.14754407107830048,
                    -0.45640629529953003,
                    -0.3749196231365204,
                    0.12194057554006577,
                    -0.12972545623779297,
                    -0.23898591101169586,
                    -0.041490938514471054,
                    0.17923301458358765,
                    0.049854058772325516,
                    -0.04126982390880585,
                    -0.1835140585899353,
                    -0.1665322631597519,
                    -0.19166584312915802,
                    -0.27410730719566345,
                    0.14033162593841553,
                    0.3437079191207886,
                    -0.488936185836792,
                    -0.11402479559183121,
                    -0.5257521271705627,
                    -0.5365379452705383,
                    -0.13850143551826477,
                    0.10804768651723862,
                    0.17672987282276154,
                    0.5250033736228943,
                    0.050751686096191406,
                    0.32568326592445374
                ],
                [
                    -0.30211079120635986,
                    -0.21307812631130219,
                    -0.2167995274066925,
                    0.15052294731140137,
                    -0.02417399361729622,
                    0.04784701019525528,
                    -0.007312236353754997,
                    0.4252040386199951,
                    0.3491596281528473,
                    0.33570095896720886,
                    0.30183789134025574,
                    0.5230369567871094,
                    0.16884061694145203,
                    0.22425465285778046,
                    -0.16066253185272217,
                    -0.1222662478685379,
                    -0.43770915269851685,
                    -0.30897054076194763,
                    -0.28891289234161377,
                    -0.0415240116417408,
                    0.16162510216236115,
                    0.42966553568840027,
                    0.2990921139717102,
                    -0.18806174397468567,
                    -0.22819441556930542,
                    -0.843645453453064,
                    -0.33446165919303894,
                    -0.30892878770828247,
                    -0.17895959317684174,
                    -0.28105708956718445,
                    0.3375306725502014,
                    0.48669272661209106,
                    0.19188295304775238,
                    -0.22812111675739288,
                    -0.35815098881721497,
                    -0.10845030099153519,
                    -0.22359512746334076,
                    -0.013135208748281002,
                    -0.12347047030925751,
                    0.17759986221790314,
                    0.24816589057445526,
                    0.26308363676071167,
                    -0.1491534262895584,
                    -0.059300635010004044,
                    -0.04911912977695465,
                    0.46150651574134827,
                    0.2910716235637665,
                    0.23304273188114166,
                    -0.07863347232341766,
                    -0.12242359668016434,
                    0.23121273517608643,
                    0.21596458554267883,
                    -0.08555560559034348,
                    0.011011872440576553,
                    0.1724168211221695,
                    0.4865392744541168,
                    0.1994105875492096,
                    0.5104292631149292,
                    0.44545865058898926,
                    -0.1139516830444336,
                    -0.22011004388332367,
                    -0.09335663914680481,
                    0.014565633609890938,
                    -0.32531312108039856,
                    -0.11103397607803345,
                    0.04321174696087837,
                    0.042565494775772095,
                    -0.17596332728862762,
                    -0.37082821130752563,
                    -0.10354246199131012,
                    -0.3188549876213074,
                    -0.37063074111938477,
                    -0.2500849962234497,
                    -0.042500466108322144,
                    0.025373421609401703,
                    0.25059646368026733,
                    0.15074147284030914,
                    0.0003512726107146591,
                    0.05797978490591049,
                    -0.29131054878234863,
                    -0.4279053807258606,
                    -0.13029778003692627,
                    0.1433321237564087,
                    0.40972694754600525,
                    -0.06616248935461044,
                    0.3629780411720276,
                    -0.27056798338890076,
                    -0.009384906850755215,
                    -0.3778459131717682,
                    -0.5332125425338745,
                    -0.2758559584617615,
                    0.41420963406562805,
                    0.7120922803878784,
                    0.45200398564338684,
                    0.9008751511573792,
                    0.8090052604675293,
                    -0.23497410118579865,
                    -0.06120268628001213,
                    -0.33476653695106506,
                    -0.24826407432556152
                ],
                [
                    -0.17028576135635376,
                    -0.13539379835128784,
                    -0.24505409598350525,
                    -0.1632997989654541,
                    0.045568469911813736,
                    -0.108281210064888,
                    -0.4061550498008728,
                    -0.441249817609787,
                    -0.524905800819397,
                    -0.5321397185325623,
                    -0.0756596177816391,
                    -0.2545957863330841,
                    0.0018879433628171682,
                    -0.03754492104053497,
                    0.14700381457805634,
                    0.10784647613763809,
                    0.23285101354122162,
                    -0.4354023337364197,
                    -0.6352863907814026,
                    -0.6648565530776978,
                    -0.33801111578941345,
                    -0.40155133605003357,
                    -0.25701484084129333,
                    -0.23227150738239288,
                    0.4547548294067383,
                    0.4506005644798279,
                    0.3029279410839081,
                    -0.04402907192707062,
                    -0.10858362168073654,
                    -0.12481176853179932,
                    -0.37253642082214355,
                    -0.43777480721473694,
                    -0.32365646958351135,
                    0.31127405166625977,
                    0.48672163486480713,
                    0.5991194248199463,
                    0.3411349654197693,
                    0.09517227858304977,
                    -0.0017507069278508425,
                    0.3376131057739258,
                    -0.2836269438266754,
                    -0.33326995372772217,
                    -0.21571218967437744,
                    -0.009490221738815308,
                    0.30338409543037415,
                    0.5166841745376587,
                    0.28655001521110535,
                    -0.08276915550231934,
                    -0.12096720933914185,
                    0.31023430824279785,
                    0.17102265357971191,
                    -0.026411354541778564,
                    0.10420259833335876,
                    -0.05874987319111824,
                    0.3129595220088959,
                    0.4641079902648926,
                    0.15045003592967987,
                    -0.08346492797136307,
                    -0.1278344988822937,
                    0.36362552642822266,
                    0.04699929803609848,
                    -0.05188041552901268,
                    -0.11600007861852646,
                    0.10251873731613159,
                    0.11076326668262482,
                    0.433484822511673,
                    0.18365944921970367,
                    0.1927693635225296,
                    0.3127986788749695,
                    0.3356039226055145,
                    0.03850692883133888,
                    0.005093574523925781,
                    0.1870030015707016,
                    0.23217201232910156,
                    -0.03286544606089592,
                    0.05031825602054596,
                    0.1814602017402649,
                    -0.010373672470450401,
                    -0.044764284044504166,
                    0.29616454243659973,
                    -0.04804379865527153,
                    -0.19942738115787506,
                    -0.056618060916662216,
                    -0.10604983568191528,
                    0.23118989169597626,
                    -0.21866051852703094,
                    -0.3448953926563263,
                    -0.2439427226781845,
                    -0.28274598717689514,
                    -0.15118183195590973,
                    0.13205762207508087,
                    -0.05102013796567917,
                    -0.20949725806713104,
                    -0.3224867880344391,
                    -0.27867841720581055,
                    -0.13176515698432922,
                    -0.23182374238967896,
                    -0.2901993989944458,
                    -0.35901203751564026,
                    -0.12145683914422989
                ],
                [
                    0.36476248502731323,
                    0.2084302008152008,
                    -0.014404067769646645,
                    -0.0816403180360794,
                    -0.05197412520647049,
                    0.028352072462439537,
                    -0.190997913479805,
                    -0.16877150535583496,
                    -0.21413888037204742,
                    0.13726362586021423,
                    0.04420725256204605,
                    -0.08084839582443237,
                    -0.2965901792049408,
                    -0.18024709820747375,
                    -0.21733996272087097,
                    -0.13111066818237305,
                    0.14638449251651764,
                    -0.22225883603096008,
                    0.11497444659471512,
                    0.6626894474029541,
                    0.3020084500312805,
                    -0.10457079112529755,
                    -0.021156402304768562,
                    -0.2169446498155594,
                    -0.46248817443847656,
                    -0.22474581003189087,
                    -0.24552734196186066,
                    0.16155008971691132,
                    0.0058692521415650845,
                    0.3979264497756958,
                    0.45949989557266235,
                    -0.3037075102329254,
                    -0.2578376531600952,
                    -0.20369216799736023,
                    -0.31597867608070374,
                    0.24611304700374603,
                    -0.27477380633354187,
                    -0.02256917394697666,
                    -0.39684954285621643,
                    -0.26900526881217957,
                    0.24266324937343597,
                    -0.3831944167613983,
                    -0.1807902455329895,
                    -0.09443669766187668,
                    -0.37496092915534973,
                    -0.09049321711063385,
                    -0.19049273431301117,
                    -0.07017624378204346,
                    -0.16740000247955322,
                    -0.039872996509075165,
                    0.05889059230685234,
                    -0.2835577726364136,
                    0.10833744704723358,
                    -0.22051487863063812,
                    -0.48175114393234253,
                    -0.25756385922431946,
                    0.029831748455762863,
                    -0.19123496115207672,
                    -0.3881216049194336,
                    -0.31986135244369507,
                    0.2891111671924591,
                    -0.19384081661701202,
                    0.23068229854106903,
                    0.2741260528564453,
                    0.2274150550365448,
                    -0.20288591086864471,
                    0.2561679780483246,
                    0.19614040851593018,
                    0.05718507617712021,
                    0.317870169878006,
                    0.05863725021481514,
                    0.01660143956542015,
                    0.08406075090169907,
                    0.29362544417381287,
                    0.31927549839019775,
                    0.01881740801036358,
                    0.27474772930145264,
                    -0.10899762064218521,
                    0.09932352602481842,
                    0.5865933895111084,
                    -0.06831002235412598,
                    0.16961923241615295,
                    0.2197381854057312,
                    0.4279843270778656,
                    0.3961847722530365,
                    0.12235624343156815,
                    0.18861989676952362,
                    -0.23129956424236298,
                    0.4688054621219635,
                    0.4207581579685211,
                    -0.4558510482311249,
                    -0.4603426456451416,
                    0.2876087427139282,
                    0.316005140542984,
                    0.22897347807884216,
                    -0.22613056004047394,
                    0.050198011100292206,
                    -0.21318209171295166,
                    -0.09851829707622528,
                    0.23520366847515106
                ],
                [
                    0.49403491616249084,
                    0.19339187443256378,
                    0.11390076577663422,
                    -0.031212735921144485,
                    -0.5143624544143677,
                    -0.3600161075592041,
                    -0.20903785526752472,
                    -0.213675394654274,
                    0.36683064699172974,
                    -0.035387568175792694,
                    0.39040181040763855,
                    -0.08434261381626129,
                    -0.10846316069364548,
                    -0.1256699413061142,
                    -0.3051561117172241,
                    -0.027760671451687813,
                    -0.037270884960889816,
                    0.03737819194793701,
                    0.08910378813743591,
                    0.08828821778297424,
                    -0.04286807030439377,
                    -0.37248432636260986,
                    -0.46583136916160583,
                    0.27086544036865234,
                    0.4464540481567383,
                    0.4051979184150696,
                    0.0916607528924942,
                    0.12701599299907684,
                    -0.19995231926441193,
                    -0.09541445970535278,
                    -0.45174238085746765,
                    -0.20112882554531097,
                    -0.22905954718589783,
                    0.19009652733802795,
                    0.10102388262748718,
                    0.36329731345176697,
                    0.04191843792796135,
                    0.0033581925090402365,
                    -0.19896696507930756,
                    -0.10995498299598694,
                    0.12543295323848724,
                    -0.23415814340114594,
                    -0.13901561498641968,
                    0.32418423891067505,
                    0.156727135181427,
                    0.2911328375339508,
                    -0.15721745789051056,
                    -0.3027350902557373,
                    0.044032640755176544,
                    0.18599462509155273,
                    -0.26624929904937744,
                    0.08488879352807999,
                    -0.25162646174430847,
                    -0.05913906544446945,
                    0.22007256746292114,
                    -0.22556249797344208,
                    0.21931858360767365,
                    0.2807804048061371,
                    0.10766760259866714,
                    0.4503084123134613,
                    -0.28533267974853516,
                    -0.33791470527648926,
                    -0.08679721504449844,
                    -0.293641597032547,
                    -0.05079127103090286,
                    0.21479520201683044,
                    0.2069532424211502,
                    0.027406515553593636,
                    0.3063090443611145,
                    -0.005818514619022608,
                    -0.387970507144928,
                    -0.06946677714586258,
                    -0.07511694729328156,
                    -0.3670021593570709,
                    -0.15535974502563477,
                    0.1778152585029602,
                    -0.34116408228874207,
                    -0.16055361926555634,
                    -0.1307343691587448,
                    -0.6153852939605713,
                    0.158071830868721,
                    0.22736822068691254,
                    -0.27367132902145386,
                    -0.2879735231399536,
                    0.16800174117088318,
                    0.43938249349594116,
                    0.4348360598087311,
                    0.22358392179012299,
                    -0.21558472514152527,
                    -0.16780056059360504,
                    0.19440902769565582,
                    0.035196155309677124,
                    -0.14990496635437012,
                    0.28405630588531494,
                    0.3472101390361786,
                    0.48257291316986084,
                    0.6927505731582642,
                    0.5238151550292969,
                    -0.005349765066057444,
                    -0.06186001002788544
                ],
                [
                    -0.3750489354133606,
                    -0.5610020756721497,
                    -0.28096893429756165,
                    -0.31200897693634033,
                    -0.24332480132579803,
                    -0.021290775388479233,
                    0.20606689155101776,
                    -0.085211843252182,
                    0.18043971061706543,
                    -0.2546442747116089,
                    -0.541462779045105,
                    -0.16943144798278809,
                    -0.0608736053109169,
                    -0.07304950058460236,
                    -0.016048185527324677,
                    -0.24218446016311646,
                    -0.18806098401546478,
                    -0.11557372659444809,
                    -0.019932901486754417,
                    0.024861382320523262,
                    -0.3079296052455902,
                    0.3075047433376312,
                    0.07640189677476883,
                    0.17534978687763214,
                    0.04976639524102211,
                    -0.021508226171135902,
                    -0.30581536889076233,
                    0.08249510824680328,
                    0.20643727481365204,
                    -0.050152938812971115,
                    -0.377570778131485,
                    0.1981283724308014,
                    0.47751203179359436,
                    0.07953081279993057,
                    -0.18002964556217194,
                    -0.24320343136787415,
                    0.1867832988500595,
                    0.009840828366577625,
                    0.11524984240531921,
                    0.1864231675863266,
                    -0.4009127914905548,
                    0.14176930487155914,
                    -0.03374580293893814,
                    0.0036916311364620924,
                    -0.13403353095054626,
                    -0.30070731043815613,
                    -0.5962175130844116,
                    0.09783364087343216,
                    -0.05597034841775894,
                    0.034154292196035385,
                    -0.09271039813756943,
                    0.1469578742980957,
                    -0.37057560682296753,
                    0.05427566543221474,
                    0.013098695315420628,
                    -0.19533772766590118,
                    -0.16600243747234344,
                    -0.09110653400421143,
                    -0.016026729717850685,
                    0.19233188033103943,
                    -0.4081845283508301,
                    0.21511787176132202,
                    0.29695039987564087,
                    0.38850003480911255,
                    0.29292479157447815,
                    0.4337228536605835,
                    0.3089253306388855,
                    0.22053930163383484,
                    0.22278478741645813,
                    0.20637382566928864,
                    -0.5267135500907898,
                    -0.0023634948302060366,
                    0.14367720484733582,
                    -0.009226671420037746,
                    0.23166905343532562,
                    0.2166600227355957,
                    0.04330321028828621,
                    0.7294203042984009,
                    0.45135971903800964,
                    0.1115722730755806,
                    0.11633442342281342,
                    -0.021835222840309143,
                    0.2252175360918045,
                    0.04006773233413696,
                    -0.17522691190242767,
                    -0.057706318795681,
                    0.0872916728258133,
                    0.2652375400066376,
                    0.42407751083374023,
                    0.19623185694217682,
                    0.28239011764526367,
                    -0.039157405495643616,
                    -0.15112723410129547,
                    -0.06578952819108963,
                    -0.5938815474510193,
                    -0.2688038945198059,
                    -0.4842429757118225,
                    -0.3321400284767151,
                    0.09440834820270538,
                    0.07597395777702332
                ],
                [
                    -0.03919469565153122,
                    0.08118457347154617,
                    -0.18808162212371826,
                    0.08313030004501343,
                    -0.07937519252300262,
                    0.11249613761901855,
                    0.3450981378555298,
                    0.23056937754154205,
                    0.12016794830560684,
                    -0.07077134400606155,
                    0.017069131135940552,
                    0.13844649493694305,
                    -0.36182212829589844,
                    -0.4193449914455414,
                    -0.1819177269935608,
                    -0.0412299782037735,
                    0.035878684371709824,
                    0.3457333445549011,
                    0.15149350464344025,
                    -0.17271879315376282,
                    0.4343049228191376,
                    0.26466476917266846,
                    0.0177761223167181,
                    -0.28086674213409424,
                    -0.15054823458194733,
                    -0.16801002621650696,
                    0.037856925278902054,
                    -0.011732728220522404,
                    -0.23547472059726715,
                    -0.5879985094070435,
                    -0.09168856590986252,
                    0.0789514034986496,
                    0.2509458661079407,
                    0.29779037833213806,
                    0.17912423610687256,
                    0.33325934410095215,
                    0.1314234584569931,
                    0.2582762837409973,
                    0.09814847260713577,
                    -0.2398214042186737,
                    0.25804272294044495,
                    -0.42922714352607727,
                    0.03757482394576073,
                    0.09465553611516953,
                    0.0921919047832489,
                    0.5177838802337646,
                    0.19702893495559692,
                    -0.005637933034449816,
                    0.15643993020057678,
                    -0.09717505425214767,
                    -0.30000218749046326,
                    -0.34664180874824524,
                    -0.25537610054016113,
                    0.07247208058834076,
                    0.3345470726490021,
                    -0.1539987474679947,
                    0.2060810625553131,
                    -0.2510003447532654,
                    -0.3142645061016083,
                    0.013843602500855923,
                    0.22258810698986053,
                    -0.5118176341056824,
                    0.21785546839237213,
                    -0.42676103115081787,
                    0.1185651570558548,
                    -0.2072656750679016,
                    -0.13955768942832947,
                    -0.04683569818735123,
                    -0.1398395597934723,
                    -0.28466522693634033,
                    0.11793053150177002,
                    0.2058386653661728,
                    -0.05615396052598953,
                    -0.10035831481218338,
                    -0.3427692949771881,
                    -0.34366312623023987,
                    0.04412132501602173,
                    0.13685129582881927,
                    0.26802173256874084,
                    -0.5610547065734863,
                    0.5117863416671753,
                    0.05514547601342201,
                    0.013992792926728725,
                    -0.28559768199920654,
                    -0.31461331248283386,
                    -0.3298170566558838,
                    0.3485645651817322,
                    0.31951361894607544,
                    0.2446451336145401,
                    -0.06709527969360352,
                    -0.028759479522705078,
                    0.1629539281129837,
                    -0.2861219346523285,
                    0.048960767686367035,
                    -0.11977902054786682,
                    -0.43778756260871887,
                    -0.21583035588264465,
                    -0.011295342817902565,
                    0.41312214732170105,
                    -0.07406727224588394
                ],
                [
                    0.15636348724365234,
                    -0.4043915867805481,
                    -0.1160815954208374,
                    -0.1529775857925415,
                    0.10302644222974777,
                    0.07711422443389893,
                    0.4513714909553528,
                    0.013660191558301449,
                    -0.22201858460903168,
                    -0.266025573015213,
                    -0.26293620467185974,
                    -0.1703944355249405,
                    -0.15926675498485565,
                    -0.07663234323263168,
                    0.4601876437664032,
                    0.002721362980082631,
                    0.0193406380712986,
                    -0.3948211371898651,
                    0.0014135297387838364,
                    -0.4607473909854889,
                    0.3696646988391876,
                    -0.4459007680416107,
                    -0.018809150904417038,
                    0.16274267435073853,
                    -0.15125755965709686,
                    0.23163625597953796,
                    0.45715150237083435,
                    0.3386930525302887,
                    -0.37599167227745056,
                    -0.32804059982299805,
                    0.2595856785774231,
                    -0.18559134006500244,
                    0.24868501722812653,
                    -0.030195310711860657,
                    0.05637533962726593,
                    -0.21688547730445862,
                    0.12628903985023499,
                    0.4576212763786316,
                    0.434635728597641,
                    0.21500816941261292,
                    -0.09490581601858139,
                    -0.030485250055789948,
                    -0.1724058836698532,
                    0.004886094946414232,
                    -0.24577894806861877,
                    -0.3823752999305725,
                    0.25829803943634033,
                    0.29895123839378357,
                    0.24274842441082,
                    0.43243348598480225,
                    0.00622518640011549,
                    -0.026812449097633362,
                    -0.02425665222108364,
                    -0.30150488018989563,
                    0.19486813247203827,
                    0.23693569004535675,
                    0.16883493959903717,
                    0.21396376192569733,
                    0.5478087663650513,
                    0.33804771304130554,
                    0.15651355683803558,
                    0.04901694133877754,
                    -0.39801472425460815,
                    -0.05418965965509415,
                    -0.09792410582304001,
                    0.04478282853960991,
                    0.004478035029023886,
                    -0.11913400143384933,
                    -0.17648810148239136,
                    0.009747257456183434,
                    -0.4848267734050751,
                    0.22775477170944214,
                    -0.15286222100257874,
                    0.03814108669757843,
                    -0.0640740841627121,
                    0.11862823367118835,
                    -0.3911638855934143,
                    -0.3672093152999878,
                    -0.18825697898864746,
                    -0.25520744919776917,
                    -0.6040899753570557,
                    -0.21682824194431305,
                    0.02394859679043293,
                    0.17856356501579285,
                    -0.262446790933609,
                    -0.14812393486499786,
                    -0.29737189412117004,
                    -0.4750780761241913,
                    -0.5157444477081299,
                    -0.42132851481437683,
                    -0.4712264835834503,
                    -0.20686015486717224,
                    0.7681320309638977,
                    0.5656775832176208,
                    0.47832781076431274,
                    0.20091474056243896,
                    -0.022412342950701714,
                    0.0066850632429122925,
                    0.38236483931541443,
                    0.3637409210205078
                ],
                [
                    0.2157267928123474,
                    -0.20248766243457794,
                    -0.3381514549255371,
                    -0.37172994017601013,
                    -0.15424904227256775,
                    -0.35420915484428406,
                    -0.08647143840789795,
                    -0.3300028145313263,
                    -0.3132072687149048,
                    -0.0012477412819862366,
                    0.7649362683296204,
                    0.41764867305755615,
                    0.3664246201515198,
                    -0.10835205763578415,
                    0.3227369487285614,
                    -0.09867013245820999,
                    0.04670333489775658,
                    -0.01712053455412388,
                    -0.1271977424621582,
                    -0.07823077589273453,
                    0.2434803694486618,
                    0.04764797165989876,
                    -0.07352504134178162,
                    0.04873545840382576,
                    0.13149668276309967,
                    0.3038580119609833,
                    0.21928928792476654,
                    -0.3458690345287323,
                    0.22608859837055206,
                    0.32549527287483215,
                    0.2808947265148163,
                    -0.03924919292330742,
                    -0.1963714361190796,
                    -0.2903367280960083,
                    -0.27958112955093384,
                    0.15379607677459717,
                    0.12429825961589813,
                    -0.037440523505210876,
                    -0.003863017074763775,
                    0.15681150555610657,
                    0.19096317887306213,
                    -0.07345613092184067,
                    -0.47142475843429565,
                    -0.31472596526145935,
                    -0.36257627606391907,
                    -0.42716944217681885,
                    -0.47849977016448975,
                    -0.15886463224887848,
                    -0.41459301114082336,
                    -0.29099032282829285,
                    0.10566222667694092,
                    0.24101522564888,
                    -0.35288453102111816,
                    -0.23552821576595306,
                    0.2522212266921997,
                    -0.08877531439065933,
                    0.20847393572330475,
                    -0.2716805338859558,
                    -0.0750739574432373,
                    -0.1950291097164154,
                    0.5201584100723267,
                    0.07482227683067322,
                    0.13157834112644196,
                    0.07528559863567352,
                    0.4747511148452759,
                    0.17460106313228607,
                    0.4664468765258789,
                    0.12338382005691528,
                    0.09895310550928116,
                    -0.2600983679294586,
                    0.2628329396247864,
                    0.4168087840080261,
                    0.1620771586894989,
                    -0.007594259921461344,
                    0.23966345191001892,
                    0.46911928057670593,
                    0.612025797367096,
                    0.26604920625686646,
                    0.05861862748861313,
                    -0.5462189316749573,
                    0.4104245901107788,
                    0.05124606192111969,
                    -0.09445278346538544,
                    -0.30261319875717163,
                    -0.09523714333772659,
                    0.2429247498512268,
                    0.5227400660514832,
                    0.5388031005859375,
                    -0.12259423732757568,
                    -0.3884873390197754,
                    0.6622330546379089,
                    0.14380478858947754,
                    0.007861161604523659,
                    -0.07013779133558273,
                    -0.49993881583213806,
                    -0.2391197681427002,
                    -0.1774759292602539,
                    0.05984961986541748,
                    -0.2764083445072174,
                    -0.5178629755973816
                ],
                [
                    0.4147953391075134,
                    0.5492846369743347,
                    0.5360031127929688,
                    0.5886680483818054,
                    0.451360821723938,
                    0.23942255973815918,
                    -0.10227253288030624,
                    -0.15898029506206512,
                    -0.1108650267124176,
                    0.1542162299156189,
                    0.38996458053588867,
                    0.23117505013942719,
                    0.5115269422531128,
                    0.45565560460090637,
                    0.15613038837909698,
                    -0.01765313372015953,
                    0.26896825432777405,
                    0.28544890880584717,
                    0.04485304653644562,
                    0.2173817902803421,
                    -0.08396054059267044,
                    -0.06660249084234238,
                    0.38648521900177,
                    0.15436720848083496,
                    0.38313326239585876,
                    0.1761259287595749,
                    -0.1263943612575531,
                    -0.10835251212120056,
                    0.027549810707569122,
                    -0.19515375792980194,
                    -0.2701939642429352,
                    0.033951062709093094,
                    0.0029083448462188244,
                    -0.0031293819192796946,
                    -0.014357689768075943,
                    0.0177055224776268,
                    -0.10836908221244812,
                    -0.260418564081192,
                    -0.03858734667301178,
                    0.0118863545358181,
                    -0.11580505967140198,
                    -0.047608982771635056,
                    -0.14461994171142578,
                    -0.4010379910469055,
                    -0.08638200163841248,
                    -0.2541060149669647,
                    -0.32374221086502075,
                    -0.2286582738161087,
                    0.0037960486952215433,
                    0.17622731626033783,
                    0.12545399367809296,
                    0.0630267858505249,
                    -0.09842833131551743,
                    -0.380188912153244,
                    -0.22948841750621796,
                    -0.24412208795547485,
                    -0.0977679118514061,
                    0.09280503541231155,
                    0.0007544198888354003,
                    -0.09345832467079163,
                    0.23046214878559113,
                    0.07607872784137726,
                    0.12165754288434982,
                    -0.047699809074401855,
                    0.00022830783564131707,
                    0.0014786450192332268,
                    0.22344155609607697,
                    0.307817667722702,
                    0.16820970177650452,
                    -0.12096050381660461,
                    0.28344908356666565,
                    0.4345565736293793,
                    0.21305100619792938,
                    0.0340210422873497,
                    0.0425814725458622,
                    0.06251396238803864,
                    0.05919120833277702,
                    0.07452898472547531,
                    0.16111502051353455,
                    -0.17300759255886078,
                    0.2866594195365906,
                    0.08103606104850769,
                    0.05586156249046326,
                    0.19962145388126373,
                    -0.06406455487012863,
                    0.10012789815664291,
                    0.17245768010616302,
                    0.23797376453876495,
                    -0.06011165305972099,
                    -0.18953213095664978,
                    0.04236864671111107,
                    -0.051464568823575974,
                    0.11153355985879898,
                    -0.10931666195392609,
                    0.1464051455259323,
                    0.11902778595685959,
                    0.22329726815223694,
                    0.3543119728565216,
                    0.3008878529071808,
                    0.0375312902033329
                ],
                [
                    -0.03387909010052681,
                    -0.10948270559310913,
                    0.014586152508854866,
                    -0.0014978471444919705,
                    -0.02465767413377762,
                    0.22684715688228607,
                    0.29960089921951294,
                    0.42713677883148193,
                    0.5043848156929016,
                    0.26333844661712646,
                    0.1579899936914444,
                    -0.5300129652023315,
                    -0.27160388231277466,
                    0.11961919069290161,
                    -0.16358964145183563,
                    0.06123129278421402,
                    0.08070992678403854,
                    0.1558367908000946,
                    0.23050355911254883,
                    -0.220085009932518,
                    0.523303747177124,
                    0.031747180968523026,
                    0.020657116547226906,
                    -0.14699849486351013,
                    -0.05171171948313713,
                    -0.141286239027977,
                    -0.0026007741689682007,
                    0.07347532361745834,
                    -0.01191625464707613,
                    -0.5368293523788452,
                    0.37950485944747925,
                    0.21899431943893433,
                    -0.5235257148742676,
                    -0.29135963320732117,
                    -0.13605423271656036,
                    -0.31963154673576355,
                    0.2069656103849411,
                    0.0772586315870285,
                    -0.20107747614383698,
                    -0.5771811604499817,
                    0.27569881081581116,
                    -0.05279579013586044,
                    -0.09526193886995316,
                    0.13408821821212769,
                    0.5114526748657227,
                    0.41759636998176575,
                    0.2507467269897461,
                    0.09679952263832092,
                    -0.04335513338446617,
                    -0.0007235056255012751,
                    0.13842013478279114,
                    0.14695844054222107,
                    -0.13356472551822662,
                    -0.2619893252849579,
                    0.4265216886997223,
                    0.1247561126947403,
                    -0.0926588624715805,
                    -0.23034071922302246,
                    -0.21372351050376892,
                    -0.14956729114055634,
                    0.38484126329421997,
                    0.3542288839817047,
                    0.12074950337409973,
                    0.2065475881099701,
                    0.012393579818308353,
                    0.13477373123168945,
                    -0.16849923133850098,
                    -0.3335954546928406,
                    0.11383327841758728,
                    0.10206974297761917,
                    0.41853904724121094,
                    0.2126138061285019,
                    -0.36417827010154724,
                    -0.15377645194530487,
                    -0.07607362419366837,
                    -0.2089165896177292,
                    -0.08943881094455719,
                    0.022085072472691536,
                    -0.1666574627161026,
                    0.418479323387146,
                    0.22384461760520935,
                    0.14564943313598633,
                    0.01013577077537775,
                    -0.46097344160079956,
                    -0.4239523410797119,
                    -0.4567398130893707,
                    -0.35616639256477356,
                    -0.4338337481021881,
                    -0.1372896283864975,
                    0.08996298909187317,
                    0.24417544901371002,
                    0.029606780037283897,
                    0.17324292659759521,
                    -0.25642725825309753,
                    -0.09853808581829071,
                    -0.3313623070716858,
                    -0.3928588330745697,
                    -0.12066958844661713,
                    0.5371039509773254,
                    0.6186606287956238
                ],
                [
                    -0.3219684064388275,
                    0.019571902230381966,
                    -0.16438086330890656,
                    -0.17689140141010284,
                    -0.20557980239391327,
                    -0.4159875810146332,
                    -0.35860201716423035,
                    -0.11568331718444824,
                    -0.445709764957428,
                    -0.38066744804382324,
                    -0.11505226790904999,
                    -0.020677825435996056,
                    -0.02567341737449169,
                    0.01531109306961298,
                    -0.007135728374123573,
                    -0.31729134917259216,
                    -0.3298514485359192,
                    -0.13462311029434204,
                    -0.41292598843574524,
                    -0.17907103896141052,
                    -0.24799053370952606,
                    -0.25188031792640686,
                    -0.10379328578710556,
                    -0.03828602656722069,
                    -0.13268621265888214,
                    -0.1587505042552948,
                    -0.244754359126091,
                    -0.4284963607788086,
                    -0.15158438682556152,
                    -0.21622180938720703,
                    -0.06806997209787369,
                    -0.10830922424793243,
                    -0.16076511144638062,
                    -0.06287017464637756,
                    -0.32359594106674194,
                    -0.34304505586624146,
                    -0.45945850014686584,
                    -0.47547224164009094,
                    -0.4904705286026001,
                    -0.4185037910938263,
                    -0.13512128591537476,
                    0.019167492166161537,
                    -0.2208295464515686,
                    -0.13469146192073822,
                    -0.23878294229507446,
                    -0.21460895240306854,
                    -0.18891945481300354,
                    -0.32458195090293884,
                    -0.3781989812850952,
                    -0.2941199243068695,
                    -0.27773624658584595,
                    -0.2841879427433014,
                    -0.4011249244213104,
                    -0.3529553711414337,
                    -0.0818113163113594,
                    -0.08748617023229599,
                    -0.25471338629722595,
                    -0.44169411063194275,
                    -0.26174497604370117,
                    -0.3124528229236603,
                    -0.1843133270740509,
                    -0.09016502648591995,
                    -0.05250352993607521,
                    -0.2653670310974121,
                    -0.22449126839637756,
                    -0.22049501538276672,
                    -0.11190851032733917,
                    -0.37305596470832825,
                    -0.12027863413095474,
                    -0.34049728512763977,
                    -0.2373872846364975,
                    -0.1772879660129547,
                    -0.1525074690580368,
                    -0.23710502684116364,
                    -0.14624646306037903,
                    -0.14926154911518097,
                    -0.40421342849731445,
                    -0.3065231442451477,
                    -0.3879889249801636,
                    -0.0950973778963089,
                    -0.23357424139976501,
                    -0.063355453312397,
                    -0.2612258791923523,
                    -0.3851492702960968,
                    -0.06464947015047073,
                    -0.24731622636318207,
                    -0.4030042588710785,
                    -0.21815261244773865,
                    -0.08282921463251114,
                    -0.2524009346961975,
                    -0.2541165351867676,
                    -0.32565340399742126,
                    -0.4281664788722992,
                    -0.3551909327507019,
                    -0.30250653624534607,
                    -0.12995964288711548,
                    -0.09011626988649368,
                    -0.17806126177310944,
                    -0.3561946749687195,
                    0.008129416964948177
                ],
                [
                    0.20643137395381927,
                    0.2847059667110443,
                    -0.2253975123167038,
                    -0.16716814041137695,
                    -0.14102742075920105,
                    0.04573804885149002,
                    0.4694819152355194,
                    0.07447947561740875,
                    0.11513540893793106,
                    -0.15479134023189545,
                    0.27485397458076477,
                    0.16063565015792847,
                    -0.00027787272119894624,
                    -0.3431079089641571,
                    -0.2845165431499481,
                    -0.2981507480144501,
                    0.26277559995651245,
                    0.14503774046897888,
                    0.16671787202358246,
                    -0.04414444416761398,
                    0.12070731818675995,
                    -0.17709875106811523,
                    -0.20199693739414215,
                    -0.20330867171287537,
                    -0.18183183670043945,
                    -0.25263962149620056,
                    -0.13976705074310303,
                    0.175083726644516,
                    0.17762921750545502,
                    0.1572972685098648,
                    0.23363591730594635,
                    -0.2438110113143921,
                    0.06143595650792122,
                    -0.21619480848312378,
                    0.20997343957424164,
                    0.4575139880180359,
                    0.3262307941913605,
                    0.03409511223435402,
                    -0.0034439475275576115,
                    -0.10071326792240143,
                    0.21955420076847076,
                    -0.3010912835597992,
                    0.1812625229358673,
                    0.07184488326311111,
                    0.25166207551956177,
                    0.273519903421402,
                    0.23022772371768951,
                    0.1289491355419159,
                    0.00937280710786581,
                    -0.11192276328802109,
                    -0.050896644592285156,
                    -0.2942195236682892,
                    0.06268157064914703,
                    0.34143730998039246,
                    0.3333592414855957,
                    0.2319888323545456,
                    0.2039373219013214,
                    -0.13070270419120789,
                    -0.3108236491680145,
                    -0.41513702273368835,
                    -0.1142081469297409,
                    0.031471557915210724,
                    0.12208656221628189,
                    0.4899541437625885,
                    0.5155908465385437,
                    -0.02329915203154087,
                    0.19806598126888275,
                    0.14326395094394684,
                    -0.10887003690004349,
                    -0.17808407545089722,
                    0.03453629091382027,
                    -0.27587512135505676,
                    0.030757522210478783,
                    0.35872548818588257,
                    0.2631942331790924,
                    -0.1643252819776535,
                    0.22854715585708618,
                    -0.2864590883255005,
                    -0.18175716698169708,
                    -0.015117708593606949,
                    0.07787395268678665,
                    0.1988857537508011,
                    0.15915708243846893,
                    0.04117368906736374,
                    -0.0009892885573208332,
                    0.05134738236665726,
                    -0.25223517417907715,
                    -0.3249981999397278,
                    -0.16399213671684265,
                    0.13513126969337463,
                    0.09170208871364594,
                    -0.16173215210437775,
                    0.221571683883667,
                    -0.24680012464523315,
                    -0.16729427874088287,
                    -0.5947006940841675,
                    -0.350189208984375,
                    -0.7818208932876587,
                    -0.5832172632217407,
                    -0.5302026867866516
                ],
                [
                    0.3096372187137604,
                    0.18289503455162048,
                    0.19811007380485535,
                    -0.33664706349372864,
                    -0.3403606414794922,
                    -0.16457344591617584,
                    0.01873532123863697,
                    0.4120663106441498,
                    0.0966610237956047,
                    0.15364935994148254,
                    0.6288583874702454,
                    0.668506383895874,
                    -0.16901807487010956,
                    -0.040100663900375366,
                    -0.4097994565963745,
                    0.0703139677643776,
                    -0.06370998919010162,
                    0.18351730704307556,
                    -0.21918103098869324,
                    -0.14150212705135345,
                    0.4952513873577118,
                    0.5792052149772644,
                    -0.06209735944867134,
                    0.2039034366607666,
                    -0.42419078946113586,
                    -0.42663443088531494,
                    -0.3986263871192932,
                    0.09085618704557419,
                    -0.6703565120697021,
                    -0.3970525860786438,
                    0.01566542126238346,
                    0.08083673566579819,
                    -0.365983247756958,
                    -0.10212141275405884,
                    0.06694622337818146,
                    0.1978534758090973,
                    0.4774721562862396,
                    -0.31124529242515564,
                    -0.08623331040143967,
                    0.09896230697631836,
                    -0.2322959005832672,
                    0.18838144838809967,
                    -0.6269618272781372,
                    -0.3486540615558624,
                    -0.04526813328266144,
                    0.2258497029542923,
                    0.27339786291122437,
                    0.04039944335818291,
                    -0.5116406679153442,
                    -0.14357763528823853,
                    -0.33669793605804443,
                    -0.28045564889907837,
                    -0.05544523149728775,
                    -0.2615627348423004,
                    0.37965553998947144,
                    0.037442199885845184,
                    -0.16369789838790894,
                    -0.598625898361206,
                    -0.3083178699016571,
                    -0.2569412887096405,
                    -0.3220653831958771,
                    0.19406867027282715,
                    0.17274439334869385,
                    0.4148428738117218,
                    0.3595865070819855,
                    0.21328482031822205,
                    0.05179588124155998,
                    -0.37346553802490234,
                    -0.11931520700454712,
                    0.2848607003688812,
                    0.11458685994148254,
                    -0.14355890452861786,
                    -0.11442724615335464,
                    0.3379676043987274,
                    -0.03204362094402313,
                    0.010454652830958366,
                    -0.1732834279537201,
                    0.08643391728401184,
                    -0.0577736459672451,
                    0.2675899267196655,
                    0.212088942527771,
                    0.22101816534996033,
                    -0.07638760656118393,
                    -0.12905240058898926,
                    -0.15606456995010376,
                    0.254139244556427,
                    -0.37565356492996216,
                    -0.32581987977027893,
                    -0.19589366018772125,
                    0.6988124847412109,
                    0.06046553701162338,
                    -0.22355036437511444,
                    -0.11395137757062912,
                    -0.15460710227489471,
                    -0.1524818241596222,
                    0.33321288228034973,
                    -0.33724313974380493,
                    -0.5467398166656494,
                    -0.0736565813422203,
                    0.5626687407493591
                ],
                [
                    0.16824212670326233,
                    -0.05101514980196953,
                    -0.021642230451107025,
                    0.09510568529367447,
                    0.04456092417240143,
                    -0.1456211507320404,
                    0.19338034093379974,
                    0.1263280212879181,
                    -0.19138850271701813,
                    -0.031091012060642242,
                    0.1744016706943512,
                    -0.10733995586633682,
                    -0.29847294092178345,
                    -0.25162893533706665,
                    -0.19117604196071625,
                    -0.20969480276107788,
                    -0.33086344599723816,
                    -0.3416769802570343,
                    -0.22714172303676605,
                    0.04627743735909462,
                    0.47221776843070984,
                    0.3705233633518219,
                    -0.16932089626789093,
                    -0.07669826596975327,
                    -0.1154559850692749,
                    0.0030325138941407204,
                    0.26602843403816223,
                    -0.2001500278711319,
                    0.26049503684043884,
                    0.058770447969436646,
                    0.5364618897438049,
                    0.2243526726961136,
                    -0.28383010625839233,
                    0.027296993881464005,
                    -0.15764567255973816,
                    0.06194338947534561,
                    0.4482387602329254,
                    0.23607760667800903,
                    0.04369615390896797,
                    0.38758793473243713,
                    0.08955425024032593,
                    -0.045189596712589264,
                    -0.47910675406455994,
                    -0.24885058403015137,
                    -0.23327767848968506,
                    0.21018193662166595,
                    0.3914166986942291,
                    0.6822213530540466,
                    0.3684662878513336,
                    0.19760677218437195,
                    -0.4858660101890564,
                    -0.4600393772125244,
                    -1.0080732107162476,
                    -0.7822864651679993,
                    -0.24896030128002167,
                    0.10372917354106903,
                    0.06704030930995941,
                    0.009434749372303486,
                    0.19932444393634796,
                    -0.1453738808631897,
                    -0.18038472533226013,
                    0.08475157618522644,
                    -0.5488483309745789,
                    -0.39145132899284363,
                    -0.08257152885198593,
                    -0.10431322455406189,
                    -0.14755921065807343,
                    -0.1720075160264969,
                    -0.1532178372144699,
                    -0.24017074704170227,
                    -0.005618026480078697,
                    0.08687352389097214,
                    -0.53848797082901,
                    -0.4605383574962616,
                    0.045417461544275284,
                    0.07965845614671707,
                    0.22279442846775055,
                    0.2252981811761856,
                    -0.08441335707902908,
                    -0.46597328782081604,
                    0.18106131255626678,
                    0.04898051172494888,
                    0.22488944232463837,
                    0.20559775829315186,
                    -0.30028122663497925,
                    0.37821871042251587,
                    0.22269046306610107,
                    0.4208173453807831,
                    0.1106133759021759,
                    0.00804076250642538,
                    0.5135157704353333,
                    0.14320321381092072,
                    -0.054281119257211685,
                    0.09402956068515778,
                    -0.49219098687171936,
                    -0.3112819194793701,
                    -0.020211059600114822,
                    0.1008697971701622,
                    0.24040357768535614,
                    0.06965162605047226
                ],
                [
                    -0.20985768735408783,
                    -0.4494681656360626,
                    -0.10973537713289261,
                    0.3139312267303467,
                    -0.057156454771757126,
                    0.48066186904907227,
                    0.2468632310628891,
                    0.0509725846350193,
                    0.15965737402439117,
                    0.7801334261894226,
                    -0.0645333081483841,
                    0.1272955983877182,
                    -0.30299320816993713,
                    -0.0723457932472229,
                    0.07229143381118774,
                    0.38682234287261963,
                    0.14563269913196564,
                    -0.010121109895408154,
                    -0.04925684258341789,
                    0.5805569291114807,
                    -0.2683052122592926,
                    -0.18763163685798645,
                    -0.27293238043785095,
                    -0.18715037405490875,
                    0.1916378289461136,
                    -0.19537289440631866,
                    0.0057602329179644585,
                    0.11598734557628632,
                    -0.21356748044490814,
                    0.24176163971424103,
                    -0.06649001687765121,
                    0.3180793225765228,
                    -0.3990687131881714,
                    0.06118761748075485,
                    -0.03433793783187866,
                    0.2774936556816101,
                    0.32990920543670654,
                    -0.09847057610750198,
                    -0.021199563518166542,
                    0.5770560503005981,
                    -0.11297000199556351,
                    0.39867568016052246,
                    -0.31898099184036255,
                    -0.4218807518482208,
                    -0.3433297276496887,
                    -0.10538244247436523,
                    -0.12276656180620193,
                    0.0026853408198803663,
                    -0.2758018970489502,
                    0.03146573156118393,
                    0.24888117611408234,
                    0.22004297375679016,
                    -0.22710257768630981,
                    -0.1245572566986084,
                    -0.14091737568378448,
                    0.08242490142583847,
                    -0.08087097853422165,
                    -0.025163792073726654,
                    -0.28291261196136475,
                    -0.42210283875465393,
                    0.14980003237724304,
                    0.3059905171394348,
                    0.11905228346586227,
                    -0.166977196931839,
                    -0.10388322919607162,
                    0.48318612575531006,
                    0.15859852731227875,
                    0.07481134682893753,
                    -0.46808120608329773,
                    0.19159822165966034,
                    0.2758781611919403,
                    0.13380220532417297,
                    -0.21349315345287323,
                    -0.06549122929573059,
                    0.002125803381204605,
                    0.3634820878505707,
                    0.28424692153930664,
                    -0.05706482008099556,
                    -0.31581974029541016,
                    0.08130956441164017,
                    0.024594908580183983,
                    -0.24175147712230682,
                    -0.029711544513702393,
                    -0.27334079146385193,
                    -0.31715714931488037,
                    0.42082446813583374,
                    -0.07477686554193497,
                    0.12601889669895172,
                    -0.3260872960090637,
                    -0.20995767414569855,
                    0.19728240370750427,
                    -0.05268785357475281,
                    -0.19753915071487427,
                    -0.45883554220199585,
                    -0.31730979681015015,
                    -0.030853724107146263,
                    -0.07698310166597366,
                    -0.3714546859264374,
                    -0.2904665470123291,
                    -0.30551260709762573
                ],
                [
                    0.29496869444847107,
                    0.10224542021751404,
                    -0.3039207458496094,
                    -0.3243770897388458,
                    -0.7021607160568237,
                    -0.5723021030426025,
                    -0.4258227050304413,
                    -0.3444039821624756,
                    -0.5496435761451721,
                    -0.2362833321094513,
                    0.3184010088443756,
                    0.361674427986145,
                    0.01347053050994873,
                    -0.1429632157087326,
                    -0.3521074950695038,
                    -0.14816048741340637,
                    -0.14562520384788513,
                    -0.22141680121421814,
                    0.10550282895565033,
                    0.11850801110267639,
                    0.05902814120054245,
                    0.2508557438850403,
                    0.13649684190750122,
                    0.01788395270705223,
                    -0.23814669251441956,
                    0.03705688565969467,
                    0.2643870413303375,
                    0.24407057464122772,
                    0.13311658799648285,
                    0.1598532795906067,
                    0.1848837435245514,
                    -0.11876307427883148,
                    0.11041143536567688,
                    0.11179700493812561,
                    -0.08425736427307129,
                    0.04072747379541397,
                    0.47631609439849854,
                    0.5655271410942078,
                    0.3938109576702118,
                    0.41303884983062744,
                    -0.04018619284033775,
                    -0.386668860912323,
                    -0.14145319163799286,
                    -0.10214398801326752,
                    0.08806011080741882,
                    0.24123916029930115,
                    0.6621256470680237,
                    0.7449036240577698,
                    0.33127453923225403,
                    -0.031440433114767075,
                    -0.12342844903469086,
                    -0.21061621606349945,
                    -0.2704330086708069,
                    -0.3393535017967224,
                    -0.4838806390762329,
                    -0.1625550538301468,
                    0.34515735507011414,
                    0.33638256788253784,
                    0.0476156547665596,
                    -0.24425414204597473,
                    0.29987379908561707,
                    0.2914266288280487,
                    -0.032450463622808456,
                    -0.03471474349498749,
                    -0.23493501543998718,
                    -0.031093468889594078,
                    0.26845407485961914,
                    0.46015480160713196,
                    -0.2326493114233017,
                    -0.16923493146896362,
                    0.34368184208869934,
                    0.16629846394062042,
                    0.2619245946407318,
                    0.25333788990974426,
                    0.10497210919857025,
                    -0.13722734153270721,
                    0.33627384901046753,
                    0.17427444458007812,
                    0.09250107407569885,
                    -0.1444900780916214,
                    -0.2846679091453552,
                    -0.4458778202533722,
                    0.005498818587511778,
                    0.38277149200439453,
                    0.24144239723682404,
                    0.06905809789896011,
                    -0.09762418270111084,
                    -0.2943986654281616,
                    -0.16626891493797302,
                    -0.4932270348072052,
                    -0.431033194065094,
                    -0.42344069480895996,
                    -0.19448579847812653,
                    -0.1293044090270996,
                    -0.0484718419611454,
                    0.024442622438073158,
                    0.020549535751342773,
                    -0.2698197364807129,
                    0.06292275339365005,
                    -0.08999378234148026
                ],
                [
                    -0.6893652081489563,
                    -0.45141294598579407,
                    -0.2408176213502884,
                    -0.30500397086143494,
                    0.051164980977773666,
                    0.014827043749392033,
                    0.27988114953041077,
                    0.2333136647939682,
                    0.3248730003833771,
                    -0.1341877281665802,
                    -0.2285085916519165,
                    0.21063460409641266,
                    0.37202921509742737,
                    0.2579280734062195,
                    0.0005401024827733636,
                    0.3576723337173462,
                    0.3488018810749054,
                    0.43410417437553406,
                    0.21718116104602814,
                    -0.3627273440361023,
                    -0.03487423062324524,
                    0.26898083090782166,
                    0.08089757710695267,
                    -0.17987853288650513,
                    -0.021445544436573982,
                    0.012789024040102959,
                    0.09019719064235687,
                    0.03450656682252884,
                    0.19360661506652832,
                    -0.1930168867111206,
                    -0.154841348528862,
                    -0.13916747272014618,
                    -0.17133182287216187,
                    -0.10955224186182022,
                    0.07862371951341629,
                    -0.16753500699996948,
                    0.02411748841404915,
                    0.36509624123573303,
                    -0.38446134328842163,
                    -0.031382568180561066,
                    -0.2559160590171814,
                    0.1705649048089981,
                    -0.4510781764984131,
                    -0.22256989777088165,
                    -0.1635400652885437,
                    -0.09942762553691864,
                    -0.03242756798863411,
                    0.10353782773017883,
                    -0.35866105556488037,
                    -0.3790055215358734,
                    -0.03908172994852066,
                    -0.1923845410346985,
                    -0.22375132143497467,
                    -0.20287244021892548,
                    -0.800973653793335,
                    -0.4547322988510132,
                    -0.36224979162216187,
                    0.22194014489650726,
                    0.4620751440525055,
                    0.33728501200675964,
                    -0.12611471116542816,
                    0.21542245149612427,
                    0.02613767236471176,
                    0.03184933215379715,
                    -0.3894686698913574,
                    -0.08771499991416931,
                    -0.2552594244480133,
                    -0.008332425728440285,
                    0.19514283537864685,
                    0.5767624974250793,
                    0.08895315229892731,
                    0.2699519097805023,
                    0.26406174898147583,
                    -0.10989364981651306,
                    0.09967741370201111,
                    -0.010576455853879452,
                    -0.1534721553325653,
                    0.32505226135253906,
                    0.19702500104904175,
                    0.3867831230163574,
                    0.3677313029766083,
                    0.0094216987490654,
                    0.2796713411808014,
                    0.06446684151887894,
                    0.34615039825439453,
                    0.2268904596567154,
                    0.007179003208875656,
                    0.034346215426921844,
                    0.21649381518363953,
                    0.43108081817626953,
                    0.3949122428894043,
                    0.42971372604370117,
                    -0.5352296233177185,
                    -0.2893766760826111,
                    -0.41541072726249695,
                    -0.12009041011333466,
                    -0.34755396842956543,
                    0.043199025094509125,
                    -0.37462660670280457,
                    0.08090287446975708
                ],
                [
                    0.21337784826755524,
                    -0.21770675480365753,
                    -0.5875504612922668,
                    -0.48130276799201965,
                    -0.4967540204524994,
                    -0.3859608471393585,
                    -0.6465783715248108,
                    -0.3962291181087494,
                    -0.11512328684329987,
                    0.28826889395713806,
                    0.49344000220298767,
                    -0.16867785155773163,
                    -0.5178197622299194,
                    -0.17619724571704865,
                    -0.06060686334967613,
                    0.09462600201368332,
                    0.2686380445957184,
                    0.29975613951683044,
                    0.298656702041626,
                    0.3091830313205719,
                    0.1405521184206009,
                    -0.27692198753356934,
                    0.04523699730634689,
                    0.037610359489917755,
                    -0.18241935968399048,
                    0.09453334659337997,
                    0.39238661527633667,
                    0.1725219041109085,
                    0.14715707302093506,
                    0.4695703685283661,
                    0.03368603065609932,
                    -0.04790090397000313,
                    0.04264824464917183,
                    0.11635076999664307,
                    0.46514013409614563,
                    0.22554990649223328,
                    0.11750432103872299,
                    -0.16968831419944763,
                    -0.1459769308567047,
                    -0.11668004840612411,
                    0.14906921982765198,
                    -0.26764044165611267,
                    -0.1848103255033493,
                    -0.03012744151055813,
                    0.21532271802425385,
                    0.28917020559310913,
                    -0.10657820850610733,
                    -0.15148811042308807,
                    0.023392459377646446,
                    -0.4901353716850281,
                    0.46408501267433167,
                    0.277078777551651,
                    -0.06063690036535263,
                    0.34405794739723206,
                    -0.22020062804222107,
                    0.04076859727501869,
                    -0.14794473350048065,
                    -0.24564293026924133,
                    -0.04706042632460594,
                    -0.21889649331569672,
                    0.3490973114967346,
                    0.07528932392597198,
                    0.022035857662558556,
                    0.034496381878852844,
                    0.122812420129776,
                    0.2119474858045578,
                    0.2130916714668274,
                    0.3513847887516022,
                    0.15562014281749725,
                    0.18129949271678925,
                    0.25126904249191284,
                    -0.09149172157049179,
                    0.20097006857395172,
                    0.29471468925476074,
                    -0.23425984382629395,
                    -0.23016828298568726,
                    -0.15621882677078247,
                    0.22754999995231628,
                    0.6365956664085388,
                    0.5244417190551758,
                    -0.29511556029319763,
                    0.21918196976184845,
                    0.08523337543010712,
                    0.10263416171073914,
                    0.17477890849113464,
                    -0.5039843320846558,
                    -0.036659643054008484,
                    -0.17711241543293,
                    0.1991129368543625,
                    0.5952211022377014,
                    -0.3622472584247589,
                    0.12148013710975647,
                    -0.09259957820177078,
                    0.007407582830637693,
                    -0.06168735399842262,
                    -0.49851226806640625,
                    -0.46068310737609863,
                    -0.21693964302539825,
                    -0.03125523030757904,
                    0.09646688401699066
                ],
                [
                    0.3007529675960541,
                    0.43247976899147034,
                    0.3693810701370239,
                    0.25897690653800964,
                    0.20150093734264374,
                    0.13586196303367615,
                    -0.07346224784851074,
                    0.005903314799070358,
                    0.3106552064418793,
                    0.18122629821300507,
                    -0.15527896583080292,
                    0.03863129764795303,
                    0.32354360818862915,
                    0.13332097232341766,
                    0.04962601885199547,
                    0.17760029435157776,
                    -0.10105036199092865,
                    -0.39056751132011414,
                    -0.20994101464748383,
                    -0.03731055185198784,
                    -0.19932010769844055,
                    -0.2825843095779419,
                    -0.09707879275083542,
                    -0.2205965518951416,
                    -0.02012772671878338,
                    -0.33420330286026,
                    -0.05077757313847542,
                    0.08703684061765671,
                    -0.1296364665031433,
                    0.15020433068275452,
                    -0.06463541835546494,
                    -0.2973032295703888,
                    -0.19718453288078308,
                    -0.06103288382291794,
                    -0.18158942461013794,
                    -0.6533586382865906,
                    -0.010751043446362019,
                    -0.11860525608062744,
                    0.25329580903053284,
                    0.1570015549659729,
                    0.09717915952205658,
                    -0.13474313914775848,
                    -0.07963165640830994,
                    -0.42193418741226196,
                    -0.017105117440223694,
                    -0.37430277466773987,
                    -0.21898996829986572,
                    -0.005142775364220142,
                    0.13897597789764404,
                    0.2348541021347046,
                    -0.12038063257932663,
                    0.12872575223445892,
                    0.07587342709302902,
                    0.06695780903100967,
                    0.11530347913503647,
                    -0.2814766764640808,
                    -0.07778798788785934,
                    0.1934167742729187,
                    0.5633784532546997,
                    0.5281580090522766,
                    0.4141464829444885,
                    0.5443543791770935,
                    0.3603734076023102,
                    0.045579757541418076,
                    -0.18971413373947144,
                    -0.2210284173488617,
                    -0.30354201793670654,
                    0.12610016763210297,
                    0.41426312923431396,
                    0.01821434497833252,
                    0.3759628236293793,
                    0.5339744687080383,
                    0.3184995949268341,
                    0.10870642215013504,
                    -0.27328747510910034,
                    0.004846322815865278,
                    -0.14035674929618835,
                    -0.12874743342399597,
                    -0.06322912871837616,
                    -0.17512141168117523,
                    0.060859665274620056,
                    0.4947925806045532,
                    0.15999764204025269,
                    -0.17811404168605804,
                    -0.21501316130161285,
                    -0.16076330840587616,
                    -0.13593488931655884,
                    -0.2976008951663971,
                    -0.21835504472255707,
                    -0.3727993667125702,
                    0.39417022466659546,
                    0.5758156180381775,
                    0.6623896956443787,
                    0.4175542891025543,
                    0.05763014778494835,
                    0.09408625960350037,
                    0.22734005749225616,
                    -0.2349514663219452,
                    0.018481142818927765,
                    0.1102895513176918
                ],
                [
                    0.10366114228963852,
                    0.15061624348163605,
                    0.3332381546497345,
                    0.4608708918094635,
                    0.17119552195072174,
                    0.34423643350601196,
                    0.4361121654510498,
                    0.17138011753559113,
                    0.1886274218559265,
                    0.0353010930120945,
                    0.03281484916806221,
                    -0.18592609465122223,
                    -0.26524442434310913,
                    -0.5406618714332581,
                    -0.146175816655159,
                    0.15433566272258759,
                    0.11374040693044662,
                    -0.042079146951436996,
                    -0.4353528618812561,
                    -0.5420507788658142,
                    0.08323884755373001,
                    0.29845431447029114,
                    0.032111868262290955,
                    -0.05022279545664787,
                    -0.22651724517345428,
                    -0.05666487291455269,
                    -0.22693747282028198,
                    -0.30020827054977417,
                    -0.6099821925163269,
                    -0.35503682494163513,
                    -0.40990421175956726,
                    -0.17207804322242737,
                    -0.3880816698074341,
                    -0.31192997097969055,
                    -0.053997453302145004,
                    0.10606938600540161,
                    -0.07609550654888153,
                    -0.10492902249097824,
                    -0.23317770659923553,
                    -0.3462485074996948,
                    -0.47937145829200745,
                    0.030838603153824806,
                    -0.0676698163151741,
                    0.3159743845462799,
                    0.3509441614151001,
                    0.09227495640516281,
                    -0.03022325038909912,
                    0.04013825207948685,
                    0.11422231048345566,
                    -0.23529604077339172,
                    -0.47205203771591187,
                    -0.2736654281616211,
                    0.32563304901123047,
                    0.4968629479408264,
                    0.36226075887680054,
                    0.06517879664897919,
                    -0.1825776845216751,
                    -0.06580197811126709,
                    -0.01694638468325138,
                    -0.15699881315231323,
                    -0.4864371418952942,
                    0.1939651072025299,
                    0.6971634030342102,
                    0.7507647275924683,
                    0.1622833013534546,
                    -0.4182615280151367,
                    -0.3635304868221283,
                    0.10954505950212479,
                    0.24718809127807617,
                    0.10052855312824249,
                    -0.11335177719593048,
                    0.047295309603214264,
                    0.22333019971847534,
                    0.5629367232322693,
                    0.04937966167926788,
                    -0.1277470886707306,
                    -0.12428648769855499,
                    -0.07993364334106445,
                    -0.14122334122657776,
                    0.014136011712253094,
                    -0.24726971983909607,
                    0.20582284033298492,
                    0.3385147452354431,
                    0.06527242809534073,
                    0.3522596061229706,
                    0.3676128089427948,
                    0.19960004091262817,
                    -0.04382734000682831,
                    0.16370372474193573,
                    0.18412555754184723,
                    0.16002878546714783,
                    0.12452780455350876,
                    -0.3402114808559418,
                    0.3898724913597107,
                    0.43714672327041626,
                    0.35581398010253906,
                    0.37606704235076904,
                    -0.28214454650878906,
                    -0.4153722822666168,
                    -0.04888409376144409
                ],
                [
                    -0.2444237619638443,
                    0.06638997793197632,
                    -0.06841292232275009,
                    0.15106211602687836,
                    0.3154909908771515,
                    0.2649137079715729,
                    0.15053819119930267,
                    -0.15496405959129333,
                    0.2960094213485718,
                    0.12851424515247345,
                    -0.4713948369026184,
                    0.10610052198171616,
                    0.03812404349446297,
                    0.30202963948249817,
                    0.2565334439277649,
                    0.1598612666130066,
                    0.058815885335206985,
                    -0.19098030030727386,
                    -0.03298815339803696,
                    -0.06618589162826538,
                    -0.02651972323656082,
                    -0.37132543325424194,
                    -0.07849898934364319,
                    -0.07410579919815063,
                    -0.016884101554751396,
                    -0.028821203857660294,
                    0.23487725853919983,
                    0.1001439169049263,
                    -0.17550402879714966,
                    -0.5455907583236694,
                    -0.24155063927173615,
                    -0.22794891893863678,
                    0.027021177113056183,
                    -0.14236757159233093,
                    -0.5388383269309998,
                    -0.13730616867542267,
                    -0.08991965651512146,
                    0.0119960717856884,
                    -0.5773784518241882,
                    -0.32178163528442383,
                    -0.1493205428123474,
                    0.1905088573694229,
                    -0.40795788168907166,
                    -0.49059784412384033,
                    -0.4468093514442444,
                    0.02098654769361019,
                    -0.25079748034477234,
                    0.05478190630674362,
                    0.12719261646270752,
                    -0.26331692934036255,
                    0.3979009687900543,
                    0.2132790982723236,
                    -0.03075374849140644,
                    -0.028338436037302017,
                    -0.11469000577926636,
                    -0.03809063509106636,
                    0.3942468464374542,
                    -0.20569086074829102,
                    0.054748956114053726,
                    0.2969297766685486,
                    0.16146284341812134,
                    0.26730138063430786,
                    0.16463406383991241,
                    0.0415632501244545,
                    0.37342920899391174,
                    0.10619498789310455,
                    0.08544807136058807,
                    -0.26829293370246887,
                    -0.07778223603963852,
                    0.11960921436548233,
                    0.27367842197418213,
                    -0.2127128392457962,
                    0.4186684787273407,
                    -0.05896604061126709,
                    0.6114712953567505,
                    0.11668258160352707,
                    -0.06322696059942245,
                    -0.318668007850647,
                    0.014258267357945442,
                    -0.029605373740196228,
                    0.2774063050746918,
                    0.058642931282520294,
                    -0.2540162205696106,
                    -0.34513139724731445,
                    -0.1789684295654297,
                    0.3560788631439209,
                    0.36260733008384705,
                    -0.23891836404800415,
                    0.0028933254070580006,
                    -0.28534966707229614,
                    0.44605910778045654,
                    -0.17102012038230896,
                    -0.2519492208957672,
                    0.055448584258556366,
                    -0.11614323407411575,
                    0.057429488748311996,
                    0.044261474162340164,
                    -0.1545345038175583,
                    -0.04098387435078621,
                    -0.2804785966873169
                ],
                [
                    0.37060365080833435,
                    0.3492042124271393,
                    0.5375671982765198,
                    -0.07759837806224823,
                    0.24990230798721313,
                    0.37249955534935,
                    0.2587960958480835,
                    0.20810621976852417,
                    0.23697346448898315,
                    0.01709086075425148,
                    0.1088983416557312,
                    0.30708128213882446,
                    0.3163696825504303,
                    -0.24052077531814575,
                    -0.10968498140573502,
                    -0.06281648576259613,
                    0.028892047703266144,
                    -0.01873033121228218,
                    0.08174887299537659,
                    -0.06360410153865814,
                    0.01593569666147232,
                    0.13931646943092346,
                    -0.18267565965652466,
                    -0.559047520160675,
                    -0.45356062054634094,
                    0.055246125906705856,
                    0.42963239550590515,
                    0.14837847650051117,
                    0.11213479191064835,
                    -0.18126188218593597,
                    0.24263647198677063,
                    0.13240370154380798,
                    0.28320974111557007,
                    -0.09732188284397125,
                    -0.7006279230117798,
                    -0.2754526734352112,
                    0.31298115849494934,
                    0.11924475431442261,
                    -0.13781382143497467,
                    -0.11787360161542892,
                    0.13219889998435974,
                    0.6461809277534485,
                    0.41987067461013794,
                    -0.04622446373105049,
                    -0.3614265024662018,
                    -0.030720863491296768,
                    -0.024353180080652237,
                    0.10345044732093811,
                    0.26894670724868774,
                    -0.41049352288246155,
                    -0.22186802327632904,
                    0.4222679138183594,
                    -0.16553987562656403,
                    -0.2392154186964035,
                    -0.24671150743961334,
                    -0.05359799787402153,
                    0.11674715578556061,
                    -0.15664096176624298,
                    0.10479047149419785,
                    -0.043685466051101685,
                    -0.17891961336135864,
                    -0.27468931674957275,
                    0.1268981248140335,
                    0.18369916081428528,
                    -0.2541029155254364,
                    -0.35074281692504883,
                    0.1423034369945526,
                    0.076615110039711,
                    0.015063566155731678,
                    0.13907185196876526,
                    -0.7645896077156067,
                    -0.0209711492061615,
                    0.23849058151245117,
                    0.023345492780208588,
                    0.11522163450717926,
                    -0.25660228729248047,
                    -0.20109744369983673,
                    -0.043967586010694504,
                    -0.15023531019687653,
                    -0.1614130735397339,
                    -0.2787145674228668,
                    0.08296258747577667,
                    0.3210984766483307,
                    -0.019351614639163017,
                    0.1950632631778717,
                    0.0932326540350914,
                    -0.09225218743085861,
                    0.22313031554222107,
                    -0.07087146490812302,
                    -0.39458897709846497,
                    -0.22262603044509888,
                    -0.23951999843120575,
                    -0.340152770280838,
                    -0.08263128250837326,
                    0.03407611697912216,
                    0.2515113949775696,
                    0.09523088485002518,
                    -0.033216096460819244,
                    -0.20141014456748962,
                    -0.517142653465271
                ],
                [
                    -0.23945629596710205,
                    0.2590551972389221,
                    0.40528202056884766,
                    -0.07628557831048965,
                    -0.044355638325214386,
                    -0.04581031948328018,
                    -0.11464224010705948,
                    -0.16980327665805817,
                    0.060065921396017075,
                    -0.004792316816747189,
                    -0.24086827039718628,
                    0.0104727353900671,
                    0.3591969907283783,
                    0.6620575785636902,
                    0.3812558352947235,
                    0.061572860926389694,
                    0.014166872017085552,
                    0.20749719440937042,
                    0.3647075295448303,
                    0.2724126875400543,
                    -0.45656320452690125,
                    -0.0793953537940979,
                    -0.14014416933059692,
                    0.30961868166923523,
                    0.03667116537690163,
                    -0.20674100518226624,
                    -0.056965652853250504,
                    0.3414202630519867,
                    -0.13970135152339935,
                    0.2654728889465332,
                    -0.187173530459404,
                    0.1691480576992035,
                    0.24687619507312775,
                    0.27151086926460266,
                    0.14078950881958008,
                    -0.3503634035587311,
                    -0.21827168762683868,
                    -0.15451762080192566,
                    0.22887013852596283,
                    0.07550101727247238,
                    -0.2188136875629425,
                    -0.3525313138961792,
                    0.22052060067653656,
                    0.01962919719517231,
                    -0.14876452088356018,
                    0.11412249505519867,
                    -0.0944252759218216,
                    -0.02359863556921482,
                    -0.03853835165500641,
                    0.20136399567127228,
                    0.22466576099395752,
                    -0.30758869647979736,
                    -0.008922829292714596,
                    -0.297712504863739,
                    -0.000005935333319939673,
                    0.44423842430114746,
                    0.2723252475261688,
                    -0.19618315994739532,
                    -0.31316888332366943,
                    -0.4382920265197754,
                    -0.11114665865898132,
                    -0.27640172839164734,
                    -0.2800183594226837,
                    -0.2410133183002472,
                    -0.21528735756874084,
                    -0.09401246905326843,
                    0.21637526154518127,
                    0.29058343172073364,
                    -0.10925773531198502,
                    -0.47856417298316956,
                    0.22292090952396393,
                    0.039105374366045,
                    -0.3885778784751892,
                    -0.28542909026145935,
                    -0.485221266746521,
                    -0.12419360131025314,
                    0.5810410976409912,
                    0.5834928750991821,
                    0.1341264396905899,
                    -0.43325963616371155,
                    0.60026615858078,
                    0.5306231379508972,
                    -0.13052307069301605,
                    -0.3060069978237152,
                    -0.17183838784694672,
                    0.007098033092916012,
                    0.2766033113002777,
                    0.23600870370864868,
                    0.020903268828988075,
                    -0.4076101779937744,
                    0.44830122590065,
                    0.2732369899749756,
                    0.15760143101215363,
                    -0.21194152534008026,
                    -0.05283503606915474,
                    0.154448464512825,
